<?xml version="1.0"?>
<MethodSetup Method="BDT::BDTG">
  <GeneralInfo>
    <Info name="TMVA Release" value="4.1.2 [262402]"/>
    <Info name="ROOT Release" value="5.32/00 [335872]"/>
    <Info name="Creator" value="abrinke1"/>
    <Info name="Date" value="Tue Oct 14 12:28:20 2014"/>
    <Info name="Host" value="Linux lxbuild168.cern.ch 2.6.18-308.16.1.el5 #1 SMP Thu Oct 4 14:02:28 CEST 2012 x86_64 x86_64 x86_64 GNU/Linux"/>
    <Info name="Dir" value="/afs/crc.nd.edu/user/a/abrinke1/TMVAv412"/>
    <Info name="Training events" value="5348"/>
    <Info name="TrainingTime" value="3.55902505e+00"/>
    <Info name="AnalysisType" value="Classification"/>
  </GeneralInfo>
  <Options>
    <Option name="V" modified="Yes">False</Option>
    <Option name="VerbosityLevel" modified="No">Default</Option>
    <Option name="VarTransform" modified="No">None</Option>
    <Option name="H" modified="Yes">False</Option>
    <Option name="CreateMVAPdfs" modified="No">False</Option>
    <Option name="IgnoreNegWeightsInTraining" modified="No">False</Option>
    <Option name="NTrees" modified="Yes">400</Option>
    <Option name="RenormByClass" modified="No">False</Option>
    <Option name="BoostType" modified="Yes">Grad</Option>
    <Option name="AdaBoostR2Loss" modified="No">quadratic</Option>
    <Option name="UseBaggedGrad" modified="Yes">True</Option>
    <Option name="GradBaggingFraction" modified="Yes">5.000000e-01</Option>
    <Option name="Shrinkage" modified="Yes">1.000000e-01</Option>
    <Option name="AdaBoostBeta" modified="No">1.000000e+00</Option>
    <Option name="UseRandomisedTrees" modified="No">False</Option>
    <Option name="UseNvars" modified="No">4</Option>
    <Option name="UsePoissonNvars" modified="No">True</Option>
    <Option name="UseNTrainEvents" modified="No">5348</Option>
    <Option name="UseWeightedTrees" modified="No">True</Option>
    <Option name="UseYesNoLeaf" modified="No">True</Option>
    <Option name="NodePurityLimit" modified="No">5.000000e-01</Option>
    <Option name="SeparationType" modified="No">giniindex</Option>
    <Option name="nEventsMin" modified="No">40</Option>
    <Option name="nCuts" modified="Yes">20</Option>
    <Option name="UseFisherCuts" modified="No">False</Option>
    <Option name="MinLinCorrForFisher" modified="No">8.000000e-01</Option>
    <Option name="UseExclusiveVars" modified="No">False</Option>
    <Option name="PruneStrength" modified="No">0.000000e+00</Option>
    <Option name="PruneMethod" modified="No">nopruning</Option>
    <Option name="PruneBeforeBoost" modified="No">False</Option>
    <Option name="PruningValFraction" modified="No">5.000000e-01</Option>
    <Option name="NNodesMax" modified="Yes">10</Option>
    <Option name="MaxDepth" modified="No">3</Option>
    <Option name="DoBoostMonitor" modified="No">False</Option>
    <Option name="NegWeightTreatment" modified="No">ignorenegweights</Option>
  </Options>
  <Variables NVar="12">
    <Variable VarIndex="0" Expression="numJets_40" Label="numJets_40" Title="numJets_40" Unit="" Internal="numJets_40" Type="F" Min="0.00000000e+00" Max="1.00000000e+01"/>
    <Variable VarIndex="1" Expression="mht" Label="mht" Title="mht" Unit="" Internal="mht" Type="F" Min="6.72914147e-01" Max="6.21355896e+02"/>
    <Variable VarIndex="2" Expression="mass_leplep" Label="mass_leplep" Title="mass_leplep" Unit="" Internal="mass_leplep" Type="F" Min="8.12003403e+01" Max="1.01198860e+02"/>
    <Variable VarIndex="3" Expression="vectPt_leplep" Label="vectPt_leplep" Title="vectPt_leplep" Unit="" Internal="vectPt_leplep" Type="F" Min="1.84161395e-01" Max="8.27747192e+02"/>
    <Variable VarIndex="4" Expression="dR_leplep" Label="dR_leplep" Title="dR_leplep" Unit="" Internal="dR_leplep" Type="F" Min="2.35383749e-01" Max="4.46957445e+00"/>
    <Variable VarIndex="5" Expression="MT_of_jets_mass_of_jets" Label="MT_of_jets_mass_of_jets" Title="MT_of_jets_mass_of_jets" Unit="" Internal="MT_of_jets_D_mass_of_jets" Type="F" Min="1.79869786e-01" Max="9.58848894e-01"/>
    <Variable VarIndex="6" Expression="Match_ttbar_jj_Bq_bqq" Label="Match_ttbar_jj_Bq_bqq" Title="Match_ttbar_jj_Bq_bqq" Unit="" Internal="Match_ttbar_jj_Bq_bqq" Type="F" Min="-1.20041370e+01" Max="3.23467231e+00"/>
    <Variable VarIndex="7" Expression="Match_ttbar_jj_Bqq_bq" Label="Match_ttbar_jj_Bqq_bq" Title="Match_ttbar_jj_Bqq_bq" Unit="" Internal="Match_ttbar_jj_Bqq_bq" Type="F" Min="-1.24865246e+01" Max="2.70915890e+00"/>
    <Variable VarIndex="8" Expression="Match_ttbar_ll_Bb" Label="Match_ttbar_ll_Bb" Title="Match_ttbar_ll_Bb" Unit="" Internal="Match_ttbar_ll_Bb" Type="F" Min="-9.40673065e+00" Max="1.58233809e+00"/>
    <Variable VarIndex="9" Expression="ttbar_ll_B_CSV" Label="ttbar_ll_B_CSV" Title="ttbar_ll_B_CSV" Unit="" Internal="ttbar_ll_B_CSV" Type="F" Min="-1.00000000e+00" Max="1.00000000e+00"/>
    <Variable VarIndex="10" Expression="ttbar_ll_b_CSV" Label="ttbar_ll_b_CSV" Title="ttbar_ll_b_CSV" Unit="" Internal="ttbar_ll_b_CSV" Type="F" Min="-1.00000000e+00" Max="1.00000000e+00"/>
    <Variable VarIndex="11" Expression="Match_ttbar_jj_Bqq_bqq" Label="Match_ttbar_jj_Bqq_bqq" Title="Match_ttbar_jj_Bqq_bqq" Unit="" Internal="Match_ttbar_jj_Bqq_bqq" Type="F" Min="-2.02744617e+01" Max="3.11948609e+00"/>
  </Variables>
  <Spectators NSpec="0"/>
  <Classes NClass="2">
    <Class Name="Signal" Index="0"/>
    <Class Name="Background" Index="1"/>
  </Classes>
  <Transformations NTransformations="0"/>
  <MVAPdfs/>
  <Weights NTrees="400" AnalysisType="1">
    <BinaryTree type="DecisionTree" boostWeight="1.0000000000000000e+00" itree="0">
      <Node pos="s" depth="0" NCoef="0" IVar="1" Cut="6.1031566619873047e+01" cType="1" res="-5.2950074896216393e-03" rms="4.9997195601463318e-01" purity="4.9470499157905579e-01" nType="0">
        <Node pos="l" depth="1" NCoef="0" IVar="3" Cut="1.5206719970703125e+02" cType="0" res="1.8564555048942566e-01" rms="4.6425825357437134e-01" purity="6.8564552068710327e-01" nType="0">
          <Node pos="l" depth="2" NCoef="0" IVar="-1" Cut="0.0000000000000000e+00" cType="1" res="8.9067526161670685e-02" rms="2.2732004523277283e-01" purity="9.4533759355545044e-01" nType="-99"/>
          <Node pos="r" depth="2" NCoef="0" IVar="-1" Cut="0.0000000000000000e+00" cType="1" res="1.9871795549988747e-02" rms="4.9002835154533386e-01" purity="5.9935897588729858e-01" nType="-99"/>
        </Node>
        <Node pos="r" depth="1" NCoef="0" IVar="4" Cut="1.4995416402816772e+00" cType="1" res="-1.7573371529579163e-01" rms="4.6810004115104675e-01" purity="3.2426628470420837e-01" nType="0">
          <Node pos="l" depth="2" NCoef="0" IVar="3" Cut="1.7483305358886719e+02" cType="0" res="1.3975155353546143e-01" rms="4.8007237911224365e-01" purity="6.3975155353546143e-01" nType="0">
            <Node pos="l" depth="3" NCoef="0" IVar="-1" Cut="0.0000000000000000e+00" cType="1" res="6.8115942180156708e-02" rms="3.6606755852699280e-01" purity="8.4057968854904175e-01" nType="-99"/>
            <Node pos="r" depth="3" NCoef="0" IVar="-1" Cut="0.0000000000000000e+00" cType="1" res="-2.1739129442721605e-03" rms="4.9988183379173279e-01" purity="4.8913043737411499e-01" nType="-99"/>
          </Node>
          <Node pos="r" depth="2" NCoef="0" IVar="1" Cut="8.7864112854003906e+01" cType="1" res="-2.7023255825042725e-01" rms="4.2068320512771606e-01" purity="2.2976744174957275e-01" nType="0">
            <Node pos="l" depth="3" NCoef="0" IVar="-1" Cut="0.0000000000000000e+00" cType="1" res="-3.0532212927937508e-02" rms="4.7612455487251282e-01" purity="3.4733894467353821e-01" nType="-99"/>
            <Node pos="r" depth="3" NCoef="0" IVar="-1" Cut="0.0000000000000000e+00" cType="1" res="-6.5738163888454437e-02" rms="3.7677893042564392e-01" purity="1.7130918800830841e-01" nType="-99"/>
          </Node>
        </Node>
      </Node>
    </BinaryTree>
    <BinaryTree type="DecisionTree" boostWeight="1.0000000000000000e+00" itree="1">
      <Node pos="s" depth="0" NCoef="0" IVar="1" Cut="6.9938705444335938e+01" cType="1" res="6.1720302328467369e-03" rms="4.8743841052055359e-01" purity="5.0582665205001831e-01" nType="0">
        <Node pos="l" depth="1" NCoef="0" IVar="8" Cut="-6.6555237770080566e-01" cType="1" res="1.6094332933425903e-01" rms="4.6258610486984253e-01" purity="6.7595595121383667e-01" nType="0">
          <Node pos="l" depth="2" NCoef="0" IVar="-1" Cut="0.0000000000000000e+00" cType="1" res="8.4168083965778351e-02" rms="2.2035624086856842e-01" purity="9.4623655080795288e-01" nType="-99"/>
          <Node pos="r" depth="2" NCoef="0" IVar="-1" Cut="0.0000000000000000e+00" cType="1" res="1.5814609825611115e-02" rms="4.8853465914726257e-01" purity="5.9009391069412231e-01" nType="-99"/>
        </Node>
        <Node pos="r" depth="1" NCoef="0" IVar="4" Cut="1.2435244321823120e+00" cType="1" res="-1.9234177470207214e-01" rms="4.4468796253204346e-01" purity="2.8761428594589233e-01" nType="0">
          <Node pos="l" depth="2" NCoef="0" IVar="8" Cut="-2.4534896016120911e-01" cType="1" res="2.1481083333492279e-01" rms="4.3419253826141357e-01" purity="7.3648649454116821e-01" nType="0">
            <Node pos="l" depth="3" NCoef="0" IVar="-1" Cut="0.0000000000000000e+00" cType="1" res="7.3701232671737671e-02" rms="3.0984839797019958e-01" purity="8.9285713434219360e-01" nType="-99"/>
            <Node pos="r" depth="3" NCoef="0" IVar="-1" Cut="0.0000000000000000e+00" cType="1" res="2.9650190845131874e-03" rms="4.8934811353683472e-01" purity="5.3125000000000000e-01" nType="-99"/>
          </Node>
          <Node pos="r" depth="2" NCoef="0" IVar="3" Cut="1.0153643798828125e+02" cType="0" res="-2.4945890903472900e-01" rms="4.1535964608192444e-01" purity="2.2464455664157867e-01" nType="0">
            <Node pos="l" depth="3" NCoef="0" IVar="-1" Cut="0.0000000000000000e+00" cType="1" res="-1.6591714695096016e-02" rms="4.8840197920799255e-01" purity="4.0000000596046448e-01" nType="-99"/>
            <Node pos="r" depth="3" NCoef="0" IVar="-1" Cut="0.0000000000000000e+00" cType="1" res="-5.9652462601661682e-02" rms="3.7862950563430786e-01" purity="1.7439024150371552e-01" nType="-99"/>
          </Node>
        </Node>
      </Node>
    </BinaryTree>
    <BinaryTree type="DecisionTree" boostWeight="1.0000000000000000e+00" itree="2">
      <Node pos="s" depth="0" NCoef="0" IVar="3" Cut="1.1910700988769531e+02" cType="0" res="-5.0181369297206402e-03" rms="4.7758451104164124e-01" purity="4.9516010284423828e-01" nType="0">
        <Node pos="l" depth="1" NCoef="0" IVar="8" Cut="-5.5767118930816650e-01" cType="1" res="2.2511465847492218e-01" rms="4.0770918130874634e-01" purity="7.6434677839279175e-01" nType="0">
          <Node pos="l" depth="2" NCoef="0" IVar="-1" Cut="0.0000000000000000e+00" cType="1" res="7.6431974768638611e-02" rms="2.2745113074779510e-01" purity="9.3939393758773804e-01" nType="-99"/>
          <Node pos="r" depth="2" NCoef="0" IVar="-1" Cut="0.0000000000000000e+00" cType="1" res="2.1400291472673416e-02" rms="4.7498804330825806e-01" purity="6.2500000000000000e-01" nType="-99"/>
        </Node>
        <Node pos="r" depth="1" NCoef="0" IVar="1" Cut="6.9949127197265625e+01" cType="1" res="-1.0597086697816849e-01" rms="4.7095572948455811e-01" purity="3.7707552313804626e-01" nType="0">
          <Node pos="l" depth="2" NCoef="0" IVar="11" Cut="-1.8899171352386475e+00" cType="0" res="2.3885186761617661e-02" rms="4.9602031707763672e-01" purity="5.4183673858642578e-01" nType="0">
            <Node pos="l" depth="3" NCoef="0" IVar="-1" Cut="0.0000000000000000e+00" cType="1" res="3.8814477622509003e-02" rms="4.5071980357170105e-01" purity="7.1190476417541504e-01" nType="-99"/>
            <Node pos="r" depth="3" NCoef="0" IVar="-1" Cut="0.0000000000000000e+00" cType="1" res="-2.0735718309879303e-02" rms="4.9026152491569519e-01" purity="4.1428571939468384e-01" nType="-99"/>
          </Node>
          <Node pos="r" depth="2" NCoef="0" IVar="5" Cut="8.4983742237091064e-01" cType="0" res="-2.4944205582141876e-01" rms="3.9472353458404541e-01" purity="1.9503946602344513e-01" nType="0">
            <Node pos="l" depth="3" NCoef="0" IVar="-1" Cut="0.0000000000000000e+00" cType="1" res="6.4262393862009048e-03" rms="4.9376541376113892e-01" purity="4.7999998927116394e-01" nType="-99"/>
            <Node pos="r" depth="3" NCoef="0" IVar="-1" Cut="0.0000000000000000e+00" cType="1" res="-5.3945753723382950e-02" rms="3.8150238990783691e-01" purity="1.7801672220230103e-01" nType="-99"/>
          </Node>
        </Node>
      </Node>
    </BinaryTree>
    <BinaryTree type="DecisionTree" boostWeight="1.0000000000000000e+00" itree="3">
      <Node pos="s" depth="0" NCoef="0" IVar="1" Cut="7.2758514404296875e+01" cType="1" res="5.8752591721713543e-03" rms="4.6677690744400024e-01" purity="5.0663131475448608e-01" nType="0">
        <Node pos="l" depth="1" NCoef="0" IVar="3" Cut="1.2171756744384766e+02" cType="0" res="1.2612956762313843e-01" rms="4.5481085777282715e-01" purity="6.6451197862625122e-01" nType="0">
          <Node pos="l" depth="2" NCoef="0" IVar="-1" Cut="0.0000000000000000e+00" cType="1" res="6.1186462640762329e-02" rms="3.1757235527038574e-01" purity="8.7523275613784790e-01" nType="-99"/>
          <Node pos="r" depth="2" NCoef="0" IVar="-1" Cut="0.0000000000000000e+00" cType="1" res="7.1263397112488747e-03" rms="4.8943528532981873e-01" purity="5.5247527360916138e-01" nType="-99"/>
        </Node>
        <Node pos="r" depth="1" NCoef="0" IVar="4" Cut="1.2435244321823120e+00" cType="1" res="-1.6448500752449036e-01" rms="4.2894542217254639e-01" purity="2.8296703100204468e-01" nType="0">
          <Node pos="l" depth="2" NCoef="0" IVar="11" Cut="-4.9542088508605957e+00" cType="0" res="1.5537534654140472e-01" rms="4.3362823128700256e-01" purity="7.2222220897674561e-01" nType="0">
            <Node pos="l" depth="3" NCoef="0" IVar="-1" Cut="0.0000000000000000e+00" cType="1" res="6.0571134090423584e-02" rms="3.3139044046401978e-01" purity="8.6075949668884277e-01" nType="-99"/>
            <Node pos="r" depth="3" NCoef="0" IVar="-1" Cut="0.0000000000000000e+00" cType="1" res="-3.2461241353303194e-03" rms="4.7923657298088074e-01" purity="5.5384618043899536e-01" nType="-99"/>
          </Node>
          <Node pos="r" depth="2" NCoef="0" IVar="5" Cut="8.1947022676467896e-01" cType="0" res="-2.1307139098644257e-01" rms="4.0679126977920532e-01" purity="2.1624472737312317e-01" nType="0">
            <Node pos="l" depth="3" NCoef="0" IVar="-1" Cut="0.0000000000000000e+00" cType="1" res="1.3973811641335487e-02" rms="4.9534788727760315e-01" purity="5.1351350545883179e-01" nType="-99"/>
            <Node pos="r" depth="3" NCoef="0" IVar="-1" Cut="0.0000000000000000e+00" cType="1" res="-4.8562366515398026e-02" rms="3.8912546634674072e-01" purity="1.9107551872730255e-01" nType="-99"/>
          </Node>
        </Node>
      </Node>
    </BinaryTree>
    <BinaryTree type="DecisionTree" boostWeight="1.0000000000000000e+00" itree="4">
      <Node pos="s" depth="0" NCoef="0" IVar="3" Cut="1.1873908233642578e+02" cType="0" res="-7.3213526047766209e-03" rms="4.5926141738891602e-01" purity="4.9243569374084473e-01" nType="0">
        <Node pos="l" depth="1" NCoef="0" IVar="8" Cut="-1.9811813533306122e-01" cType="1" res="1.8844845890998840e-01" rms="3.9338988065719604e-01" purity="7.6763987541198730e-01" nType="0">
          <Node pos="l" depth="2" NCoef="0" IVar="-1" Cut="0.0000000000000000e+00" cType="1" res="5.9338681399822235e-02" rms="2.9732871055603027e-01" purity="8.8258314132690430e-01" nType="-99"/>
          <Node pos="r" depth="2" NCoef="0" IVar="-1" Cut="0.0000000000000000e+00" cType="1" res="7.4846288189291954e-03" rms="4.7622019052505493e-01" purity="5.7877814769744873e-01" nType="-99"/>
        </Node>
        <Node pos="r" depth="1" NCoef="0" IVar="1" Cut="4.6975051879882812e+01" cType="1" res="-9.5643408596515656e-02" rms="4.5953091979026794e-01" purity="3.6827662587165833e-01" nType="0">
          <Node pos="l" depth="2" NCoef="0" IVar="11" Cut="-2.0768589973449707e+00" cType="0" res="8.7012760341167450e-02" rms="4.7995269298553467e-01" purity="6.1499148607254028e-01" nType="0">
            <Node pos="l" depth="3" NCoef="0" IVar="-1" Cut="0.0000000000000000e+00" cType="1" res="5.0665885210037231e-02" rms="4.0341201424598694e-01" purity="7.9400748014450073e-01" nType="-99"/>
            <Node pos="r" depth="3" NCoef="0" IVar="-1" Cut="0.0000000000000000e+00" cType="1" res="-1.0034311562776566e-02" rms="4.9542027711868286e-01" purity="4.6562498807907104e-01" nType="-99"/>
          </Node>
          <Node pos="r" depth="2" NCoef="0" IVar="2" Cut="8.5004600524902344e+01" cType="0" res="-1.8246054649353027e-01" rms="4.2267554998397827e-01" purity="2.5101214647293091e-01" nType="0">
            <Node pos="l" depth="3" NCoef="0" IVar="-1" Cut="0.0000000000000000e+00" cType="1" res="-3.0788984149694443e-02" rms="4.3891155719757080e-01" purity="2.8403526544570923e-01" nType="-99"/>
            <Node pos="r" depth="3" NCoef="0" IVar="-1" Cut="0.0000000000000000e+00" cType="1" res="-7.0279188454151154e-02" rms="2.8555044531822205e-01" purity="9.3457944691181183e-02" nType="-99"/>
          </Node>
        </Node>
      </Node>
    </BinaryTree>
    <BinaryTree type="DecisionTree" boostWeight="1.0000000000000000e+00" itree="5">
      <Node pos="s" depth="0" NCoef="0" IVar="4" Cut="1.4968690872192383e+00" cType="1" res="3.1798565760254860e-03" rms="4.5283821225166321e-01" purity="5.0287687778472900e-01" nType="0">
        <Node pos="l" depth="1" NCoef="0" IVar="8" Cut="3.0065792798995972e-01" cType="1" res="1.8778818845748901e-01" rms="3.8324013352394104e-01" purity="7.8817057609558105e-01" nType="0">
          <Node pos="l" depth="2" NCoef="0" IVar="-1" Cut="0.0000000000000000e+00" cType="1" res="5.1627732813358307e-02" rms="3.3271113038063049e-01" purity="8.5472971200942993e-01" nType="-99"/>
          <Node pos="r" depth="2" NCoef="0" IVar="-1" Cut="0.0000000000000000e+00" cType="1" res="-9.4499252736568451e-03" rms="4.8800915479660034e-01" purity="4.9629628658294678e-01" nType="-99"/>
        </Node>
        <Node pos="r" depth="1" NCoef="0" IVar="1" Cut="4.7399436950683594e+01" cType="1" res="-6.8208575248718262e-02" rms="4.5748138427734375e-01" purity="3.9255318045616150e-01" nType="0">
          <Node pos="l" depth="2" NCoef="0" IVar="2" Cut="9.6392791748046875e+01" cType="1" res="9.0077459812164307e-02" rms="4.7008433938026428e-01" purity="6.3291138410568237e-01" nType="0">
            <Node pos="l" depth="3" NCoef="0" IVar="-1" Cut="0.0000000000000000e+00" cType="1" res="3.0241766944527626e-02" rms="4.4968986511230469e-01" purity="6.9398909807205200e-01" nType="-99"/>
            <Node pos="r" depth="3" NCoef="0" IVar="-1" Cut="0.0000000000000000e+00" cType="1" res="-6.0439527034759521e-02" rms="4.1211718320846558e-01" purity="2.2891566157341003e-01" nType="-99"/>
          </Node>
          <Node pos="r" depth="2" NCoef="0" IVar="11" Cut="4.4676831364631653e-01" cType="0" res="-1.4836625754833221e-01" rms="4.2925068736076355e-01" purity="2.7083334326744080e-01" nType="0">
            <Node pos="l" depth="3" NCoef="0" IVar="-1" Cut="0.0000000000000000e+00" cType="1" res="3.6356508731842041e-02" rms="4.5178619027137756e-01" purity="6.4788734912872314e-01" nType="-99"/>
            <Node pos="r" depth="3" NCoef="0" IVar="-1" Cut="0.0000000000000000e+00" cType="1" res="-3.5082690417766571e-02" rms="4.1984084248542786e-01" purity="2.4808835983276367e-01" nType="-99"/>
          </Node>
        </Node>
      </Node>
    </BinaryTree>
    <BinaryTree type="DecisionTree" boostWeight="1.0000000000000000e+00" itree="6">
      <Node pos="s" depth="0" NCoef="0" IVar="3" Cut="1.2198690795898438e+02" cType="0" res="-4.9749109894037247e-03" rms="4.4514966011047363e-01" purity="4.9551904201507568e-01" nType="0">
        <Node pos="l" depth="1" NCoef="0" IVar="2" Cut="8.6940750122070312e+01" cType="0" res="1.6974864900112152e-01" rms="3.8096162676811218e-01" purity="7.8175091743469238e-01" nType="0">
          <Node pos="l" depth="2" NCoef="0" IVar="-1" Cut="0.0000000000000000e+00" cType="1" res="4.7754529863595963e-02" rms="3.3905595541000366e-01" purity="8.3710408210754395e-01" nType="-99"/>
          <Node pos="r" depth="2" NCoef="0" IVar="-1" Cut="0.0000000000000000e+00" cType="1" res="-1.2487784028053284e-02" rms="4.6519669890403748e-01" purity="5.3378379344940186e-01" nType="-99"/>
        </Node>
        <Node pos="r" depth="1" NCoef="0" IVar="5" Cut="6.8473744392395020e-01" cType="0" res="-8.0872505903244019e-02" rms="4.4963389635086060e-01" purity="3.7118372321128845e-01" nType="0">
          <Node pos="l" depth="2" NCoef="0" IVar="1" Cut="3.4593582153320312e+01" cType="1" res="3.4946016967296600e-02" rms="4.6441948413848877e-01" purity="5.0641024112701416e-01" nType="0">
            <Node pos="l" depth="3" NCoef="0" IVar="-1" Cut="0.0000000000000000e+00" cType="1" res="4.7051407396793365e-02" rms="4.0000617504119873e-01" purity="7.8743958473205566e-01" nType="-99"/>
            <Node pos="r" depth="3" NCoef="0" IVar="-1" Cut="0.0000000000000000e+00" cType="1" res="-7.4908938258886337e-03" rms="4.6567839384078979e-01" purity="4.0488657355308533e-01" nType="-99"/>
          </Node>
          <Node pos="r" depth="2" NCoef="0" IVar="11" Cut="-2.0701184272766113e+00" cType="0" res="-1.6398055851459503e-01" rms="4.1945251822471619e-01" purity="2.7414903044700623e-01" nType="0">
            <Node pos="l" depth="3" NCoef="0" IVar="-1" Cut="0.0000000000000000e+00" cType="1" res="-5.8923508040606976e-03" rms="4.5878782868385315e-01" purity="4.4277107715606689e-01" nType="-99"/>
            <Node pos="r" depth="3" NCoef="0" IVar="-1" Cut="0.0000000000000000e+00" cType="1" res="-4.6803716570138931e-02" rms="3.8611844182014465e-01" purity="2.0000000298023224e-01" nType="-99"/>
          </Node>
        </Node>
      </Node>
    </BinaryTree>
    <BinaryTree type="DecisionTree" boostWeight="1.0000000000000000e+00" itree="7">
      <Node pos="s" depth="0" NCoef="0" IVar="3" Cut="1.4021841430664062e+02" cType="0" res="4.6076499857008457e-03" rms="4.3955481052398682e-01" purity="5.0541651248931885e-01" nType="0">
        <Node pos="l" depth="1" NCoef="0" IVar="11" Cut="-3.1740007400512695e+00" cType="0" res="1.9056528806686401e-01" rms="3.3162730932235718e-01" purity="8.4310621023178101e-01" nType="0">
          <Node pos="l" depth="2" NCoef="0" IVar="-1" Cut="0.0000000000000000e+00" cType="1" res="6.1917927116155624e-02" rms="2.3444813489913940e-01" purity="9.3154764175415039e-01" nType="-99"/>
          <Node pos="r" depth="2" NCoef="0" IVar="-1" Cut="0.0000000000000000e+00" cType="1" res="2.1296516060829163e-02" rms="3.9425364136695862e-01" purity="7.4237287044525146e-01" nType="-99"/>
        </Node>
        <Node pos="r" depth="1" NCoef="0" IVar="5" Cut="7.2623831033706665e-01" cType="0" res="-5.2742920815944672e-02" rms="4.5268508791923523e-01" purity="4.0127077698707581e-01" nType="0">
          <Node pos="l" depth="2" NCoef="0" IVar="1" Cut="6.0135707855224609e+01" cType="1" res="8.8101245462894440e-02" rms="4.5445454120635986e-01" purity="5.7686454057693481e-01" nType="0">
            <Node pos="l" depth="3" NCoef="0" IVar="-1" Cut="0.0000000000000000e+00" cType="1" res="3.7231795489788055e-02" rms="4.1988596320152283e-01" purity="7.4277454614639282e-01" nType="-99"/>
            <Node pos="r" depth="3" NCoef="0" IVar="-1" Cut="0.0000000000000000e+00" cType="1" res="-3.3017091918736696e-03" rms="4.6872922778129578e-01" purity="3.9228296279907227e-01" nType="-99"/>
          </Node>
          <Node pos="r" depth="2" NCoef="0" IVar="2" Cut="8.5011543273925781e+01" cType="0" res="-1.1936251819133759e-01" rms="4.3628361821174622e-01" purity="3.1821453571319580e-01" nType="0">
            <Node pos="l" depth="3" NCoef="0" IVar="-1" Cut="0.0000000000000000e+00" cType="1" res="-1.7537174746394157e-02" rms="4.4975280761718750e-01" purity="3.5965666174888611e-01" nType="-99"/>
            <Node pos="r" depth="3" NCoef="0" IVar="-1" Cut="0.0000000000000000e+00" cType="1" res="-6.5720558166503906e-02" rms="2.9422003030776978e-01" purity="1.0267857462167740e-01" nType="-99"/>
          </Node>
        </Node>
      </Node>
    </BinaryTree>
    <BinaryTree type="DecisionTree" boostWeight="1.0000000000000000e+00" itree="8">
      <Node pos="s" depth="0" NCoef="0" IVar="11" Cut="-1.4226732254028320e+00" cType="0" res="7.1635306812822819e-03" rms="4.3331563472747803e-01" purity="5.0607287883758545e-01" nType="0">
        <Node pos="l" depth="1" NCoef="0" IVar="2" Cut="9.5498893737792969e+01" cType="1" res="1.5545991063117981e-01" rms="3.9655786752700806e-01" purity="7.0955884456634521e-01" nType="0">
          <Node pos="l" depth="2" NCoef="0" IVar="-1" Cut="0.0000000000000000e+00" cType="1" res="4.1861236095428467e-02" rms="3.7449029088020325e-01" purity="7.5421351194381714e-01" nType="-99"/>
          <Node pos="r" depth="2" NCoef="0" IVar="-1" Cut="0.0000000000000000e+00" cType="1" res="-2.2036274895071983e-02" rms="4.4295349717140198e-01" purity="4.0384614467620850e-01" nType="-99"/>
        </Node>
        <Node pos="r" depth="1" NCoef="0" IVar="8" Cut="-5.9869676828384399e-01" cType="1" res="-5.6492358446121216e-02" rms="4.3285605311393738e-01" purity="4.1872698068618774e-01" nType="0">
          <Node pos="l" depth="2" NCoef="0" IVar="8" Cut="-1.0191707611083984e+00" cType="1" res="1.6388647258281708e-01" rms="3.5079187154769897e-01" purity="7.5682383775711060e-01" nType="0">
            <Node pos="l" depth="3" NCoef="0" IVar="-1" Cut="0.0000000000000000e+00" cType="1" res="6.0341753065586090e-02" rms="2.5624346733093262e-01" purity="9.0295356512069702e-01" nType="-99"/>
            <Node pos="r" depth="3" NCoef="0" IVar="-1" Cut="0.0000000000000000e+00" cType="1" res="6.1612604185938835e-03" rms="4.1660785675048828e-01" purity="5.4819279909133911e-01" nType="-99"/>
          </Node>
          <Node pos="r" depth="2" NCoef="0" IVar="2" Cut="8.6907081604003906e+01" cType="0" res="-1.1577985435724258e-01" rms="4.3368709087371826e-01" purity="3.2777035236358643e-01" nType="0">
            <Node pos="l" depth="3" NCoef="0" IVar="-1" Cut="0.0000000000000000e+00" cType="1" res="-1.3494767248630524e-02" rms="4.5248144865036011e-01" purity="3.9122807979583740e-01" nType="-99"/>
            <Node pos="r" depth="3" NCoef="0" IVar="-1" Cut="0.0000000000000000e+00" cType="1" res="-6.0980364680290222e-02" rms="3.1466773152351379e-01" purity="1.2569832801818848e-01" nType="-99"/>
          </Node>
        </Node>
      </Node>
    </BinaryTree>
    <BinaryTree type="DecisionTree" boostWeight="1.0000000000000000e+00" itree="9">
      <Node pos="s" depth="0" NCoef="0" IVar="2" Cut="9.6412757873535156e+01" cType="1" res="-8.9631043374538422e-03" rms="4.2588144540786743e-01" purity="4.8770642280578613e-01" nType="0">
        <Node pos="l" depth="1" NCoef="0" IVar="2" Cut="8.6280502319335938e+01" cType="0" res="2.9065743088722229e-02" rms="4.2335614562034607e-01" purity="5.3574466705322266e-01" nType="0">
          <Node pos="l" depth="2" NCoef="0" IVar="-1" Cut="0.0000000000000000e+00" cType="1" res="1.8494687974452972e-02" rms="4.1960337758064270e-01" purity="6.1304348707199097e-01" nType="-99"/>
          <Node pos="r" depth="2" NCoef="0" IVar="1" Cut="4.8207462310791016e+01" cType="1" res="-1.7280918359756470e-01" rms="3.7228256464004517e-01" purity="2.5686275959014893e-01" nType="0">
            <Node pos="l" depth="3" NCoef="0" IVar="-1" Cut="0.0000000000000000e+00" cType="1" res="-3.5837239120155573e-03" rms="4.4857797026634216e-01" purity="5.4545456171035767e-01" nType="-99"/>
            <Node pos="r" depth="3" NCoef="0" IVar="-1" Cut="0.0000000000000000e+00" cType="1" res="-5.4039236158132553e-02" rms="3.1057834625244141e-01" purity="1.3202247023582458e-01" nType="-99"/>
          </Node>
        </Node>
        <Node pos="r" depth="1" NCoef="0" IVar="6" Cut="4.3763843178749084e-01" cType="0" res="-2.4727721512317657e-01" rms="3.5910719633102417e-01" purity="1.8666666746139526e-01" nType="0">
          <Node pos="l" depth="2" NCoef="0" IVar="-1" Cut="0.0000000000000000e+00" cType="1" res="-1.5990262851119041e-02" rms="4.3612775206565857e-01" purity="4.1538462042808533e-01" nType="-99"/>
          <Node pos="r" depth="2" NCoef="0" IVar="10" Cut="2.3809523880481720e-01" cType="1" res="-2.8339061141014099e-01" rms="3.2953187823295593e-01" purity="1.3870967924594879e-01" nType="0">
            <Node pos="l" depth="3" NCoef="0" IVar="-1" Cut="0.0000000000000000e+00" cType="1" res="-3.1278491020202637e-02" rms="4.3417194485664368e-01" purity="3.1666666269302368e-01" nType="-99"/>
            <Node pos="r" depth="3" NCoef="0" IVar="-1" Cut="0.0000000000000000e+00" cType="1" res="-6.7503415048122406e-02" rms="2.8955972194671631e-01" purity="9.6000000834465027e-02" nType="-99"/>
          </Node>
        </Node>
      </Node>
    </BinaryTree>
    <BinaryTree type="DecisionTree" boostWeight="1.0000000000000000e+00" itree="10">
      <Node pos="s" depth="0" NCoef="0" IVar="1" Cut="7.1144508361816406e+01" cType="1" res="1.4305616496130824e-03" rms="4.2554196715354919e-01" purity="4.9755546450614929e-01" nType="0">
        <Node pos="l" depth="1" NCoef="0" IVar="11" Cut="-2.0606935024261475e+00" cType="0" res="7.7967375516891479e-02" rms="4.2244073748588562e-01" purity="6.5331584215164185e-01" nType="0">
          <Node pos="l" depth="2" NCoef="0" IVar="-1" Cut="0.0000000000000000e+00" cType="1" res="4.1390519589185715e-02" rms="3.6241966485977173e-01" purity="8.0828219652175903e-01" nType="-99"/>
          <Node pos="r" depth="2" NCoef="0" IVar="-1" Cut="0.0000000000000000e+00" cType="1" res="-1.1559021659195423e-03" rms="4.4438356161117554e-01" purity="5.3731346130371094e-01" nType="-99"/>
        </Node>
        <Node pos="r" depth="1" NCoef="0" IVar="0" Cut="5.1428570747375488e+00" cType="0" res="-1.0117997229099274e-01" rms="4.0771222114562988e-01" purity="2.8873237967491150e-01" nType="0">
          <Node pos="l" depth="2" NCoef="0" IVar="4" Cut="2.2882857322692871e+00" cType="1" res="3.4871838986873627e-02" rms="4.3246647715568542e-01" purity="4.6218487620353699e-01" nType="0">
            <Node pos="l" depth="3" NCoef="0" IVar="-1" Cut="0.0000000000000000e+00" cType="1" res="3.1027546152472496e-02" rms="4.2394196987152100e-01" purity="6.1842107772827148e-01" nType="-99"/>
            <Node pos="r" depth="3" NCoef="0" IVar="-1" Cut="0.0000000000000000e+00" cType="1" res="-3.3678408712148666e-02" rms="3.8353326916694641e-01" purity="1.8604651093482971e-01" nType="-99"/>
          </Node>
          <Node pos="r" depth="2" NCoef="0" IVar="8" Cut="-1.1703854799270630e+00" cType="1" res="-1.3723824918270111e-01" rms="3.9307901263237000e-01" purity="2.4276168644428253e-01" nType="0">
            <Node pos="l" depth="3" NCoef="0" IVar="-1" Cut="0.0000000000000000e+00" cType="1" res="2.8787128627300262e-02" rms="4.1919165849685669e-01" purity="7.3333334922790527e-01" nType="-99"/>
            <Node pos="r" depth="3" NCoef="0" IVar="-1" Cut="0.0000000000000000e+00" cType="1" res="-3.3761933445930481e-02" rms="3.8685205578804016e-01" purity="2.1688158810138702e-01" nType="-99"/>
          </Node>
        </Node>
      </Node>
    </BinaryTree>
    <BinaryTree type="DecisionTree" boostWeight="1.0000000000000000e+00" itree="11">
      <Node pos="s" depth="0" NCoef="0" IVar="1" Cut="6.9617431640625000e+01" cType="1" res="5.8340150862932205e-03" rms="4.2040169239044189e-01" purity="5.0586938858032227e-01" nType="0">
        <Node pos="l" depth="1" NCoef="0" IVar="2" Cut="9.6409782409667969e+01" cType="1" res="7.8648157417774200e-02" rms="4.1493266820907593e-01" purity="6.6666668653488159e-01" nType="0">
          <Node pos="l" depth="2" NCoef="0" IVar="-1" Cut="0.0000000000000000e+00" cType="1" res="2.3872131481766701e-02" rms="4.0400204062461853e-01" purity="7.0818245410919189e-01" nType="-99"/>
          <Node pos="r" depth="2" NCoef="0" IVar="7" Cut="3.6603274941444397e-01" cType="0" res="-1.9644920527935028e-01" rms="4.1169148683547974e-01" purity="2.8947368264198303e-01" nType="0">
            <Node pos="l" depth="3" NCoef="0" IVar="-1" Cut="0.0000000000000000e+00" cType="1" res="1.0778713040053844e-02" rms="4.6038478612899780e-01" purity="6.0000002384185791e-01" nType="-99"/>
            <Node pos="r" depth="3" NCoef="0" IVar="-1" Cut="0.0000000000000000e+00" cType="1" res="-5.8761317282915115e-02" rms="3.5273030400276184e-01" purity="1.7857143282890320e-01" nType="-99"/>
          </Node>
        </Node>
        <Node pos="r" depth="1" NCoef="0" IVar="3" Cut="2.2919148254394531e+02" cType="0" res="-8.7731853127479553e-02" rms="4.0870594978332520e-01" purity="2.9924559593200684e-01" nType="0">
          <Node pos="l" depth="2" NCoef="0" IVar="-1" Cut="0.0000000000000000e+00" cType="1" res="5.9575032442808151e-02" rms="2.0985552668571472e-01" purity="9.4999998807907104e-01" nType="-99"/>
          <Node pos="r" depth="2" NCoef="0" IVar="0" Cut="4.0476188659667969e+00" cType="0" res="-1.0514348000288010e-01" rms="4.0929985046386719e-01" purity="2.6478376984596252e-01" nType="0">
            <Node pos="l" depth="3" NCoef="0" IVar="-1" Cut="0.0000000000000000e+00" cType="1" res="-9.6097607165575027e-03" rms="4.3573433160781860e-01" purity="3.4129694104194641e-01" nType="-99"/>
            <Node pos="r" depth="3" NCoef="0" IVar="-1" Cut="0.0000000000000000e+00" cType="1" res="-3.9174359291791916e-02" rms="3.6744335293769836e-01" purity="1.8281535804271698e-01" nType="-99"/>
          </Node>
        </Node>
      </Node>
    </BinaryTree>
    <BinaryTree type="DecisionTree" boostWeight="1.0000000000000000e+00" itree="12">
      <Node pos="s" depth="0" NCoef="0" IVar="2" Cut="9.5485000610351562e+01" cType="1" res="9.5403548330068588e-03" rms="4.2156699299812317e-01" purity="5.1004463434219360e-01" nType="0">
        <Node pos="l" depth="1" NCoef="0" IVar="2" Cut="8.8001899719238281e+01" cType="0" res="4.8752058297395706e-02" rms="4.1979199647903442e-01" purity="5.6710350513458252e-01" nType="0">
          <Node pos="l" depth="2" NCoef="0" IVar="-1" Cut="0.0000000000000000e+00" cType="1" res="2.5612937286496162e-02" rms="4.0845683217048645e-01" purity="6.6218036413192749e-01" nType="-99"/>
          <Node pos="r" depth="2" NCoef="0" IVar="3" Cut="2.0601817321777344e+02" cType="0" res="-8.6240306496620178e-02" rms="4.1021588444709778e-01" purity="3.7276479601860046e-01" nType="0">
            <Node pos="l" depth="3" NCoef="0" IVar="-1" Cut="0.0000000000000000e+00" cType="1" res="5.4467067122459412e-02" rms="2.5859192013740540e-01" purity="9.2063492536544800e-01" nType="-99"/>
            <Node pos="r" depth="3" NCoef="0" IVar="-1" Cut="0.0000000000000000e+00" cType="1" res="-2.5989305227994919e-02" rms="4.0992090106010437e-01" purity="3.2078313827514648e-01" nType="-99"/>
          </Node>
        </Node>
        <Node pos="r" depth="1" NCoef="0" IVar="8" Cut="-8.4024721384048462e-01" cType="1" res="-1.7314490675926208e-01" rms="3.7965655326843262e-01" purity="2.4421052634716034e-01" nType="0">
          <Node pos="l" depth="2" NCoef="0" IVar="-1" Cut="0.0000000000000000e+00" cType="1" res="3.6201417446136475e-02" rms="3.4719654917716980e-01" purity="7.5000000000000000e-01" nType="-99"/>
          <Node pos="r" depth="2" NCoef="0" IVar="5" Cut="7.3160433769226074e-01" cType="0" res="-2.0334029197692871e-01" rms="3.6807805299758911e-01" purity="1.9770115613937378e-01" nType="0">
            <Node pos="l" depth="3" NCoef="0" IVar="-1" Cut="0.0000000000000000e+00" cType="1" res="-1.7053082585334778e-02" rms="4.3212246894836426e-01" purity="3.3928570151329041e-01" nType="-99"/>
            <Node pos="r" depth="3" NCoef="0" IVar="-1" Cut="0.0000000000000000e+00" cType="1" res="-5.4531794041395187e-02" rms="3.3228865265846252e-01" purity="1.4860680699348450e-01" nType="-99"/>
          </Node>
        </Node>
      </Node>
    </BinaryTree>
    <BinaryTree type="DecisionTree" boostWeight="1.0000000000000000e+00" itree="13">
      <Node pos="s" depth="0" NCoef="0" IVar="8" Cut="-7.8144110739231110e-02" cType="1" res="2.0565520972013474e-03" rms="4.1435274481773376e-01" purity="5.0134664773941040e-01" nType="0">
        <Node pos="l" depth="1" NCoef="0" IVar="1" Cut="9.2254356384277344e+01" cType="1" res="8.9507475495338440e-02" rms="3.8154384493827820e-01" purity="6.4460784196853638e-01" nType="0">
          <Node pos="l" depth="2" NCoef="0" IVar="-1" Cut="0.0000000000000000e+00" cType="1" res="3.4113835543394089e-02" rms="3.5903304815292358e-01" purity="7.5475925207138062e-01" nType="-99"/>
          <Node pos="r" depth="2" NCoef="0" IVar="-1" Cut="0.0000000000000000e+00" cType="1" res="-1.5256972052156925e-02" rms="3.9719289541244507e-01" purity="3.4743201732635498e-01" nType="-99"/>
        </Node>
        <Node pos="r" depth="1" NCoef="0" IVar="11" Cut="-2.3027195930480957e+00" cType="0" res="-7.5790673494338989e-02" rms="4.2669081687927246e-01" purity="3.7381818890571594e-01" nType="0">
          <Node pos="l" depth="2" NCoef="0" IVar="0" Cut="3.0476191043853760e+00" cType="0" res="2.2895384579896927e-02" rms="4.3758949637413025e-01" purity="5.4173767566680908e-01" nType="0">
            <Node pos="l" depth="3" NCoef="0" IVar="-1" Cut="0.0000000000000000e+00" cType="1" res="1.6285927966237068e-02" rms="4.2427214980125427e-01" purity="6.0439562797546387e-01" nType="-99"/>
            <Node pos="r" depth="3" NCoef="0" IVar="-1" Cut="0.0000000000000000e+00" cType="1" res="-3.3674087375402451e-02" rms="4.3661698698997498e-01" purity="3.2575756311416626e-01" nType="-99"/>
          </Node>
          <Node pos="r" depth="2" NCoef="0" IVar="5" Cut="8.4974575042724609e-01" cType="0" res="-1.4930427074432373e-01" rms="4.0297541022300720e-01" purity="2.4873095750808716e-01" nType="0">
            <Node pos="l" depth="3" NCoef="0" IVar="-1" Cut="0.0000000000000000e+00" cType="1" res="1.9033359363675117e-02" rms="4.6841993927955627e-01" purity="5.7142859697341919e-01" nType="-99"/>
            <Node pos="r" depth="3" NCoef="0" IVar="-1" Cut="0.0000000000000000e+00" cType="1" res="-3.6320764571428299e-02" rms="3.9468148350715637e-01" purity="2.3056299984455109e-01" nType="-99"/>
          </Node>
        </Node>
      </Node>
    </BinaryTree>
    <BinaryTree type="DecisionTree" boostWeight="1.0000000000000000e+00" itree="14">
      <Node pos="s" depth="0" NCoef="0" IVar="8" Cut="-4.4999486207962036e-01" cType="1" res="2.0791194401681423e-03" rms="4.0817633271217346e-01" purity="5.0596570968627930e-01" nType="0">
        <Node pos="l" depth="1" NCoef="0" IVar="7" Cut="-2.0554587841033936e+00" cType="0" res="1.3487465679645538e-01" rms="3.2822623848915100e-01" purity="7.6495134830474854e-01" nType="0">
          <Node pos="l" depth="2" NCoef="0" IVar="-1" Cut="0.0000000000000000e+00" cType="1" res="4.6693399548530579e-02" rms="2.8399685025215149e-01" purity="8.4230053424835205e-01" nType="-99"/>
          <Node pos="r" depth="2" NCoef="0" IVar="-1" Cut="0.0000000000000000e+00" cType="1" res="-4.3599028140306473e-03" rms="3.9662668108940125e-01" purity="5.3333336114883423e-01" nType="-99"/>
        </Node>
        <Node pos="r" depth="1" NCoef="0" IVar="5" Cut="7.2108542919158936e-01" cType="0" res="-4.6560712158679962e-02" rms="4.2349451780319214e-01" purity="4.1110545396804810e-01" nType="0">
          <Node pos="l" depth="2" NCoef="0" IVar="11" Cut="-1.0425175428390503e+00" cType="0" res="7.1279495954513550e-02" rms="4.2858597636222839e-01" purity="5.8518517017364502e-01" nType="0">
            <Node pos="l" depth="3" NCoef="0" IVar="-1" Cut="0.0000000000000000e+00" cType="1" res="4.3945889919996262e-02" rms="3.5059791803359985e-01" purity="7.9324895143508911e-01" nType="-99"/>
            <Node pos="r" depth="3" NCoef="0" IVar="-1" Cut="0.0000000000000000e+00" cType="1" res="6.5950211137533188e-04" rms="4.5088914036750793e-01" purity="4.7260272502899170e-01" nType="-99"/>
          </Node>
          <Node pos="r" depth="2" NCoef="0" IVar="6" Cut="-3.5023969411849976e-01" cType="0" res="-1.0831703245639801e-01" rms="4.0740987658500671e-01" purity="3.1987577676773071e-01" nType="0">
            <Node pos="l" depth="3" NCoef="0" IVar="-1" Cut="0.0000000000000000e+00" cType="1" res="-6.9907777942717075e-03" rms="4.2548400163650513e-01" purity="4.3694493174552917e-01" nType="-99"/>
            <Node pos="r" depth="3" NCoef="0" IVar="-1" Cut="0.0000000000000000e+00" cType="1" res="-3.7788894027471542e-02" rms="3.8224345445632935e-01" purity="2.2896552085876465e-01" nType="-99"/>
          </Node>
        </Node>
      </Node>
    </BinaryTree>
    <BinaryTree type="DecisionTree" boostWeight="1.0000000000000000e+00" itree="15">
      <Node pos="s" depth="0" NCoef="0" IVar="7" Cut="-1.6324650049209595e+00" cType="0" res="3.6509335041046143e-04" rms="4.0341654419898987e-01" purity="5.0422018766403198e-01" nType="0">
        <Node pos="l" depth="1" NCoef="0" IVar="0" Cut="4.2857141494750977e+00" cType="0" res="4.4755186885595322e-02" rms="3.9797797799110413e-01" purity="5.7227426767349243e-01" nType="0">
          <Node pos="l" depth="2" NCoef="0" IVar="-1" Cut="0.0000000000000000e+00" cType="1" res="2.8324356302618980e-02" rms="3.7109491229057312e-01" purity="6.8143260478973389e-01" nType="-99"/>
          <Node pos="r" depth="2" NCoef="0" IVar="1" Cut="4.3837833404541016e+01" cType="1" res="-3.8916245102882385e-02" rms="4.0953606367111206e-01" purity="4.5238095521926880e-01" nType="0">
            <Node pos="l" depth="3" NCoef="0" IVar="-1" Cut="0.0000000000000000e+00" cType="1" res="2.1312719210982323e-02" rms="3.9863619208335876e-01" purity="7.2549021244049072e-01" nType="-99"/>
            <Node pos="r" depth="3" NCoef="0" IVar="-1" Cut="0.0000000000000000e+00" cType="1" res="-2.3055706173181534e-02" rms="3.9975365996360779e-01" purity="3.2575756311416626e-01" nType="-99"/>
          </Node>
        </Node>
        <Node pos="r" depth="1" NCoef="0" IVar="4" Cut="1.0017288923263550e+00" cType="1" res="-1.2854425609111786e-01" rms="3.9123138785362244e-01" purity="3.0659025907516479e-01" nType="0">
          <Node pos="l" depth="2" NCoef="0" IVar="-1" Cut="0.0000000000000000e+00" cType="1" res="5.3967583924531937e-02" rms="1.9913257658481598e-01" purity="9.4444441795349121e-01" nType="-99"/>
          <Node pos="r" depth="2" NCoef="0" IVar="9" Cut="4.2857137322425842e-01" cType="1" res="-1.5609632432460785e-01" rms="3.9084407687187195e-01" purity="2.5310558080673218e-01" nType="0">
            <Node pos="l" depth="3" NCoef="0" IVar="-1" Cut="0.0000000000000000e+00" cType="1" res="-1.1875747703015804e-02" rms="4.2119294404983521e-01" purity="3.7980768084526062e-01" nType="-99"/>
            <Node pos="r" depth="3" NCoef="0" IVar="-1" Cut="0.0000000000000000e+00" cType="1" res="-4.6686332672834396e-02" rms="3.6527311801910400e-01" purity="1.9266055524349213e-01" nType="-99"/>
          </Node>
        </Node>
      </Node>
    </BinaryTree>
    <BinaryTree type="DecisionTree" boostWeight="1.0000000000000000e+00" itree="16">
      <Node pos="s" depth="0" NCoef="0" IVar="2" Cut="9.6437309265136719e+01" cType="1" res="1.4296137727797031e-02" rms="4.0167334675788879e-01" purity="5.1900637149810791e-01" nType="0">
        <Node pos="l" depth="1" NCoef="0" IVar="2" Cut="8.7712280273437500e+01" cType="0" res="4.2391315102577209e-02" rms="4.0176081657409668e-01" purity="5.6782609224319458e-01" nType="0">
          <Node pos="l" depth="2" NCoef="0" IVar="-1" Cut="0.0000000000000000e+00" cType="1" res="2.1866554394364357e-02" rms="3.9540717005729675e-01" purity="6.5652173757553101e-01" nType="-99"/>
          <Node pos="r" depth="2" NCoef="0" IVar="4" Cut="1.2023627758026123e+00" cType="1" res="-8.0178007483482361e-02" rms="3.8957434892654419e-01" purity="3.6086955666542053e-01" nType="0">
            <Node pos="l" depth="3" NCoef="0" IVar="-1" Cut="0.0000000000000000e+00" cType="1" res="2.6985315605998039e-02" rms="3.3695960044860840e-01" purity="8.0000001192092896e-01" nType="-99"/>
            <Node pos="r" depth="3" NCoef="0" IVar="-1" Cut="0.0000000000000000e+00" cType="1" res="-2.7193602174520493e-02" rms="3.8858556747436523e-01" purity="2.7758622169494629e-01" nType="-99"/>
          </Node>
        </Node>
        <Node pos="r" depth="1" NCoef="0" IVar="7" Cut="2.4014425277709961e-01" cType="0" res="-1.6670921444892883e-01" rms="3.5077100992202759e-01" purity="2.0448179543018341e-01" nType="0">
          <Node pos="l" depth="2" NCoef="0" IVar="-1" Cut="0.0000000000000000e+00" cType="1" res="-9.2678349465131760e-03" rms="4.0968984365463257e-01" purity="4.2307692766189575e-01" nType="-99"/>
          <Node pos="r" depth="2" NCoef="0" IVar="10" Cut="9.0476191043853760e-01" cType="1" res="-2.0164598524570465e-01" rms="3.2392519712448120e-01" purity="1.4336918294429779e-01" nType="0">
            <Node pos="l" depth="3" NCoef="0" IVar="-1" Cut="0.0000000000000000e+00" cType="1" res="-3.7340451031923294e-02" rms="3.5394582152366638e-01" purity="1.9277107715606689e-01" nType="-99"/>
            <Node pos="r" depth="3" NCoef="0" IVar="-1" Cut="0.0000000000000000e+00" cType="1" res="-6.2881357967853546e-02" rms="2.6052930951118469e-01" purity="7.0796459913253784e-02" nType="-99"/>
          </Node>
        </Node>
      </Node>
    </BinaryTree>
    <BinaryTree type="DecisionTree" boostWeight="1.0000000000000000e+00" itree="17">
      <Node pos="s" depth="0" NCoef="0" IVar="4" Cut="1.6639624834060669e+00" cType="1" res="5.8235845062881708e-04" rms="3.9969679713249207e-01" purity="5.0445765256881714e-01" nType="0">
        <Node pos="l" depth="1" NCoef="0" IVar="8" Cut="2.1546515822410583e-01" cType="1" res="9.4549618661403656e-02" rms="3.5420385003089905e-01" purity="7.3600846529006958e-01" nType="0">
          <Node pos="l" depth="2" NCoef="0" IVar="-1" Cut="0.0000000000000000e+00" cType="1" res="3.5483118146657944e-02" rms="3.1228160858154297e-01" purity="8.1353592872619629e-01" nType="-99"/>
          <Node pos="r" depth="2" NCoef="0" IVar="-1" Cut="0.0000000000000000e+00" cType="1" res="-1.0062806308269501e-02" rms="4.3636956810951233e-01" purity="4.8430493474006653e-01" nType="-99"/>
        </Node>
        <Node pos="r" depth="1" NCoef="0" IVar="5" Cut="6.6462391614913940e-01" cType="0" res="-5.0413053482770920e-02" rms="4.1349482536315918e-01" purity="3.7879654765129089e-01" nType="0">
          <Node pos="l" depth="2" NCoef="0" IVar="0" Cut="4.3333334922790527e+00" cType="0" res="2.7956569567322731e-02" rms="4.3102648854255676e-01" purity="5.1066350936889648e-01" nType="0">
            <Node pos="l" depth="3" NCoef="0" IVar="-1" Cut="0.0000000000000000e+00" cType="1" res="2.1155240014195442e-02" rms="4.1684040427207947e-01" purity="5.9130436182022095e-01" nType="-99"/>
            <Node pos="r" depth="3" NCoef="0" IVar="-1" Cut="0.0000000000000000e+00" cType="1" res="-1.1669483035802841e-02" rms="4.3419268727302551e-01" purity="4.1406250000000000e-01" nType="-99"/>
          </Node>
          <Node pos="r" depth="2" NCoef="0" IVar="0" Cut="6.0952382087707520e+00" cType="0" res="-1.2382478266954422e-01" rms="3.8205525279045105e-01" purity="2.5527191162109375e-01" nType="0">
            <Node pos="l" depth="3" NCoef="0" IVar="-1" Cut="0.0000000000000000e+00" cType="1" res="2.0819824188947678e-02" rms="4.0839755535125732e-01" purity="5.7777780294418335e-01" nType="-99"/>
            <Node pos="r" depth="3" NCoef="0" IVar="-1" Cut="0.0000000000000000e+00" cType="1" res="-3.1446989625692368e-02" rms="3.7715131044387817e-01" purity="2.3831775784492493e-01" nType="-99"/>
          </Node>
        </Node>
      </Node>
    </BinaryTree>
    <BinaryTree type="DecisionTree" boostWeight="1.0000000000000000e+00" itree="18">
      <Node pos="s" depth="0" NCoef="0" IVar="11" Cut="-1.3365039825439453e+00" cType="0" res="-2.8464773204177618e-03" rms="3.9504346251487732e-01" purity="5.0435113906860352e-01" nType="0">
        <Node pos="l" depth="1" NCoef="0" IVar="1" Cut="1.1070308685302734e+02" cType="1" res="1.0674569755792618e-01" rms="3.5837388038635254e-01" purity="7.2143775224685669e-01" nType="0">
          <Node pos="l" depth="2" NCoef="0" IVar="-1" Cut="0.0000000000000000e+00" cType="1" res="3.3718727529048920e-02" rms="3.4240189194679260e-01" purity="7.8645068407058716e-01" nType="-99"/>
          <Node pos="r" depth="2" NCoef="0" IVar="-1" Cut="0.0000000000000000e+00" cType="1" res="-2.5771083310246468e-02" rms="3.8687753677368164e-01" purity="2.8000000119209290e-01" nType="-99"/>
        </Node>
        <Node pos="r" depth="1" NCoef="0" IVar="8" Cut="-1.1146537065505981e+00" cType="1" res="-4.8647068440914154e-02" rms="4.0060988068580627e-01" purity="4.1362661123275757e-01" nType="0">
          <Node pos="l" depth="2" NCoef="0" IVar="11" Cut="-8.0109243392944336e+00" cType="0" res="1.6934390366077423e-01" rms="2.5033554434776306e-01" purity="9.0640395879745483e-01" nType="0">
            <Node pos="l" depth="3" NCoef="0" IVar="-1" Cut="0.0000000000000000e+00" cType="1" res="5.8695979416370392e-02" rms="1.9360205531120300e-01" purity="9.5238095521926880e-01" nType="-99"/>
            <Node pos="r" depth="3" NCoef="0" IVar="-1" Cut="0.0000000000000000e+00" cType="1" res="2.0732054486870766e-02" rms="3.4210345149040222e-01" purity="7.8571426868438721e-01" nType="-99"/>
          </Node>
          <Node pos="r" depth="2" NCoef="0" IVar="5" Cut="5.5680322647094727e-01" cType="0" res="-7.5288951396942139e-02" rms="4.0734013915061951e-01" purity="3.5340157151222229e-01" nType="0">
            <Node pos="l" depth="3" NCoef="0" IVar="-1" Cut="0.0000000000000000e+00" cType="1" res="-8.0683659762144089e-03" rms="4.2056617140769958e-01" purity="4.1500905156135559e-01" nType="-99"/>
            <Node pos="r" depth="3" NCoef="0" IVar="-1" Cut="0.0000000000000000e+00" cType="1" res="-3.6871530115604401e-02" rms="3.6682569980621338e-01" purity="2.3063063621520996e-01" nType="-99"/>
          </Node>
        </Node>
      </Node>
    </BinaryTree>
    <BinaryTree type="DecisionTree" boostWeight="1.0000000000000000e+00" itree="19">
      <Node pos="s" depth="0" NCoef="0" IVar="1" Cut="7.3079795837402344e+01" cType="1" res="-8.1381015479564667e-03" rms="3.9249619841575623e-01" purity="4.9868372082710266e-01" nType="0">
        <Node pos="l" depth="1" NCoef="0" IVar="0" Cut="4.2857141494750977e+00" cType="0" res="4.7752451151609421e-02" rms="3.9233168959617615e-01" purity="6.5169978141784668e-01" nType="0">
          <Node pos="l" depth="2" NCoef="0" IVar="-1" Cut="0.0000000000000000e+00" cType="1" res="2.6731006801128387e-02" rms="3.5431265830993652e-01" purity="7.4226802587509155e-01" nType="-99"/>
          <Node pos="r" depth="2" NCoef="0" IVar="-1" Cut="0.0000000000000000e+00" cType="1" res="-7.1882512420415878e-03" rms="4.2282077670097351e-01" purity="5.3644317388534546e-01" nType="-99"/>
        </Node>
        <Node pos="r" depth="1" NCoef="0" IVar="8" Cut="5.8088369667530060e-02" cType="1" res="-8.7350256741046906e-02" rms="3.7885940074920654e-01" purity="2.8181818127632141e-01" nType="0">
          <Node pos="l" depth="2" NCoef="0" IVar="2" Cut="9.4515502929687500e+01" cType="1" res="-2.7775466442108154e-02" rms="3.9753553271293640e-01" purity="3.8499999046325684e-01" nType="0">
            <Node pos="l" depth="3" NCoef="0" IVar="-1" Cut="0.0000000000000000e+00" cType="1" res="3.5249965731054544e-03" rms="4.0712699294090271e-01" purity="4.5175439119338989e-01" nType="-99"/>
            <Node pos="r" depth="3" NCoef="0" IVar="-1" Cut="0.0000000000000000e+00" cType="1" res="-4.0245093405246735e-02" rms="3.3186811208724976e-01" purity="1.7361110448837280e-01" nType="-99"/>
          </Node>
          <Node pos="r" depth="2" NCoef="0" IVar="7" Cut="-7.6114076375961304e-01" cType="0" res="-1.5884001553058624e-01" rms="3.4170839190483093e-01" purity="1.5800000727176666e-01" nType="0">
            <Node pos="l" depth="3" NCoef="0" IVar="-1" Cut="0.0000000000000000e+00" cType="1" res="-2.8517043218016624e-02" rms="3.8138705492019653e-01" purity="2.1917808055877686e-01" nType="-99"/>
            <Node pos="r" depth="3" NCoef="0" IVar="-1" Cut="0.0000000000000000e+00" cType="1" res="-5.4794326424598694e-02" rms="2.6727738976478577e-01" purity="7.2115384042263031e-02" nType="-99"/>
          </Node>
        </Node>
      </Node>
    </BinaryTree>
    <BinaryTree type="DecisionTree" boostWeight="1.0000000000000000e+00" itree="20">
      <Node pos="s" depth="0" NCoef="0" IVar="2" Cut="8.6908760070800781e+01" cType="0" res="-6.7761475220322609e-03" rms="3.9077177643775940e-01" purity="4.9456724524497986e-01" nType="0">
        <Node pos="l" depth="1" NCoef="0" IVar="2" Cut="9.4383590698242188e+01" cType="1" res="2.5488181039690971e-02" rms="3.8939216732978821e-01" purity="5.5903613567352295e-01" nType="0">
          <Node pos="l" depth="2" NCoef="0" IVar="-1" Cut="0.0000000000000000e+00" cType="1" res="1.8341554328799248e-02" rms="3.8179299235343933e-01" purity="6.5822786092758179e-01" nType="-99"/>
          <Node pos="r" depth="2" NCoef="0" IVar="8" Cut="-1.1662544012069702e+00" cType="1" res="-1.0672112554311752e-01" rms="3.7787225842475891e-01" purity="2.9965156316757202e-01" nType="0">
            <Node pos="l" depth="3" NCoef="0" IVar="-1" Cut="0.0000000000000000e+00" cType="1" res="4.5804627239704132e-02" rms="2.8438299894332886e-01" purity="8.8372093439102173e-01" nType="-99"/>
            <Node pos="r" depth="3" NCoef="0" IVar="-1" Cut="0.0000000000000000e+00" cType="1" res="-3.0963053926825523e-02" rms="3.7595951557159424e-01" purity="2.5235405564308167e-01" nType="-99"/>
          </Node>
        </Node>
        <Node pos="r" depth="1" NCoef="0" IVar="5" Cut="7.9921746253967285e-01" cType="0" res="-1.1948402971029282e-01" rms="3.7432998418807983e-01" purity="2.6936027407646179e-01" nType="0">
          <Node pos="l" depth="2" NCoef="0" IVar="-1" Cut="0.0000000000000000e+00" cType="1" res="1.4941335655748844e-02" rms="4.0701434016227722e-01" purity="5.8333331346511841e-01" nType="-99"/>
          <Node pos="r" depth="2" NCoef="0" IVar="11" Cut="-1.4509302377700806e-01" cType="0" res="-1.4467424154281616e-01" rms="3.6244374513626099e-01" purity="2.2605364024639130e-01" nType="0">
            <Node pos="l" depth="3" NCoef="0" IVar="-1" Cut="0.0000000000000000e+00" cType="1" res="1.0154119692742825e-02" rms="4.2422381043434143e-01" purity="5.7999998331069946e-01" nType="-99"/>
            <Node pos="r" depth="3" NCoef="0" IVar="-1" Cut="0.0000000000000000e+00" cType="1" res="-4.1473925113677979e-02" rms="3.4933733940124512e-01" purity="1.8855932354927063e-01" nType="-99"/>
          </Node>
        </Node>
      </Node>
    </BinaryTree>
    <BinaryTree type="DecisionTree" boostWeight="1.0000000000000000e+00" itree="21">
      <Node pos="s" depth="0" NCoef="0" IVar="3" Cut="1.4900019836425781e+02" cType="0" res="-6.9350604899227619e-03" rms="3.8411232829093933e-01" purity="4.9115696549415588e-01" nType="0">
        <Node pos="l" depth="1" NCoef="0" IVar="6" Cut="-5.4384654760360718e-01" cType="0" res="1.2049156427383423e-01" rms="2.6668980717658997e-01" purity="8.6802971363067627e-01" nType="0">
          <Node pos="l" depth="2" NCoef="0" IVar="-1" Cut="0.0000000000000000e+00" cType="1" res="5.3703010082244873e-02" rms="1.7747375369071960e-01" purity="9.5254236459732056e-01" nType="-99"/>
          <Node pos="r" depth="2" NCoef="0" IVar="-1" Cut="0.0000000000000000e+00" cType="1" res="1.4141344465315342e-02" rms="3.3220902085304260e-01" purity="7.6543211936950684e-01" nType="-99"/>
        </Node>
        <Node pos="r" depth="1" NCoef="0" IVar="1" Cut="3.0586221694946289e+01" cType="1" res="-3.8440357893705368e-02" rms="4.0178239345550537e-01" purity="3.9797794818878174e-01" nType="0">
          <Node pos="l" depth="2" NCoef="0" IVar="7" Cut="-1.8558058738708496e+00" cType="0" res="9.9411733448505402e-02" rms="3.8541096448898315e-01" purity="7.1168833971023560e-01" nType="0">
            <Node pos="l" depth="3" NCoef="0" IVar="-1" Cut="0.0000000000000000e+00" cType="1" res="3.1181661412119865e-02" rms="3.6445060372352600e-01" purity="7.6595747470855713e-01" nType="-99"/>
            <Node pos="r" depth="3" NCoef="0" IVar="-1" Cut="0.0000000000000000e+00" cType="1" res="-2.2736271843314171e-02" rms="4.3804410099983215e-01" purity="3.9285713434219360e-01" nType="-99"/>
          </Node>
          <Node pos="r" depth="2" NCoef="0" IVar="5" Cut="6.5918594598770142e-01" cType="0" res="-6.8073555827140808e-02" rms="3.9904424548149109e-01" purity="3.3054161071777344e-01" nType="0">
            <Node pos="l" depth="3" NCoef="0" IVar="-1" Cut="0.0000000000000000e+00" cType="1" res="-1.6517530893906951e-03" rms="4.3077924847602844e-01" purity="4.5310595631599426e-01" nType="-99"/>
            <Node pos="r" depth="3" NCoef="0" IVar="-1" Cut="0.0000000000000000e+00" cType="1" res="-2.9438896104693413e-02" rms="3.6215060949325562e-01" purity="2.2680412232875824e-01" nType="-99"/>
          </Node>
        </Node>
      </Node>
    </BinaryTree>
    <BinaryTree type="DecisionTree" boostWeight="1.0000000000000000e+00" itree="22">
      <Node pos="s" depth="0" NCoef="0" IVar="0" Cut="3.4285714626312256e+00" cType="0" res="3.0382780823856592e-03" rms="3.8573676347732544e-01" purity="5.0236791372299194e-01" nType="0">
        <Node pos="l" depth="1" NCoef="0" IVar="11" Cut="-2.8250048160552979e+00" cType="0" res="3.1525533646345139e-02" rms="3.8191777467727661e-01" purity="5.4622220993041992e-01" nType="0">
          <Node pos="l" depth="2" NCoef="0" IVar="-1" Cut="0.0000000000000000e+00" cType="1" res="2.5649083778262138e-02" rms="3.4693279862403870e-01" purity="7.0468431711196899e-01" nType="-99"/>
          <Node pos="r" depth="2" NCoef="0" IVar="8" Cut="-9.2962121963500977e-01" cType="1" res="-2.1317955106496811e-02" rms="3.9901196956634521e-01" purity="4.2350158095359802e-01" nType="0">
            <Node pos="l" depth="3" NCoef="0" IVar="-1" Cut="0.0000000000000000e+00" cType="1" res="3.5422034561634064e-02" rms="2.9435959458351135e-01" purity="8.4158414602279663e-01" nType="-99"/>
            <Node pos="r" depth="3" NCoef="0" IVar="-1" Cut="0.0000000000000000e+00" cType="1" res="-1.1579032056033611e-02" rms="4.1024976968765259e-01" purity="3.4427767992019653e-01" nType="-99"/>
          </Node>
        </Node>
        <Node pos="r" depth="1" NCoef="0" IVar="8" Cut="-5.9712219238281250e-01" cType="1" res="-1.2644924223423004e-01" rms="3.7638118863105774e-01" purity="3.0303031206130981e-01" nType="0">
          <Node pos="l" depth="2" NCoef="0" IVar="-1" Cut="0.0000000000000000e+00" cType="1" res="1.4058371074497700e-02" rms="3.3847966790199280e-01" purity="6.7187500000000000e-01" nType="-99"/>
          <Node pos="r" depth="2" NCoef="0" IVar="5" Cut="6.2036782503128052e-01" cType="0" res="-1.5334628522396088e-01" rms="3.7428686022758484e-01" purity="2.4825985729694366e-01" nType="0">
            <Node pos="l" depth="3" NCoef="0" IVar="-1" Cut="0.0000000000000000e+00" cType="1" res="-2.0909933373332024e-02" rms="4.2302483320236206e-01" purity="3.7089201807975769e-01" nType="-99"/>
            <Node pos="r" depth="3" NCoef="0" IVar="-1" Cut="0.0000000000000000e+00" cType="1" res="-5.3025979548692703e-02" rms="3.0789369344711304e-01" purity="1.2844036519527435e-01" nType="-99"/>
          </Node>
        </Node>
      </Node>
    </BinaryTree>
    <BinaryTree type="DecisionTree" boostWeight="1.0000000000000000e+00" itree="23">
      <Node pos="s" depth="0" NCoef="0" IVar="6" Cut="-9.1736383736133575e-02" cType="0" res="-2.8391965315677226e-04" rms="3.8519603013992310e-01" purity="4.9944791197776794e-01" nType="0">
        <Node pos="l" depth="1" NCoef="0" IVar="8" Cut="-7.4322156608104706e-02" cType="1" res="7.1152620017528534e-02" rms="3.6409938335418701e-01" purity="6.5118485689163208e-01" nType="0">
          <Node pos="l" depth="2" NCoef="0" IVar="-1" Cut="0.0000000000000000e+00" cType="1" res="4.4522989541292191e-02" rms="2.7225491404533386e-01" purity="8.4526556730270386e-01" nType="-99"/>
          <Node pos="r" depth="2" NCoef="0" IVar="-1" Cut="0.0000000000000000e+00" cType="1" res="2.6092005427926779e-03" rms="4.0548622608184814e-01" purity="5.1607716083526611e-01" nType="-99"/>
        </Node>
        <Node pos="r" depth="1" NCoef="0" IVar="8" Cut="-1.1464786529541016e+00" cType="1" res="-4.5630216598510742e-02" rms="3.9129865169525146e-01" purity="4.0312877297401428e-01" nType="0">
          <Node pos="l" depth="2" NCoef="0" IVar="1" Cut="7.9710067749023438e+01" cType="1" res="1.3419362902641296e-01" rms="2.5088408589363098e-01" purity="8.9999997615814209e-01" nType="0">
            <Node pos="l" depth="3" NCoef="0" IVar="-1" Cut="0.0000000000000000e+00" cType="1" res="5.6870304048061371e-02" rms="1.4327044785022736e-01" purity="9.7321426868438721e-01" nType="-99"/>
            <Node pos="r" depth="3" NCoef="0" IVar="-1" Cut="0.0000000000000000e+00" cType="1" res="1.6659276559948921e-02" rms="3.6974379420280457e-01" purity="7.5862067937850952e-01" nType="-99"/>
          </Node>
          <Node pos="r" depth="2" NCoef="0" IVar="5" Cut="4.6135818958282471e-01" cType="0" res="-6.6119529306888580e-02" rms="3.9910477399826050e-01" purity="3.4651473164558411e-01" nType="0">
            <Node pos="l" depth="3" NCoef="0" IVar="-1" Cut="0.0000000000000000e+00" cType="1" res="-1.0920114815235138e-02" rms="4.0912005305290222e-01" purity="3.7713840603828430e-01" nType="-99"/>
            <Node pos="r" depth="3" NCoef="0" IVar="-1" Cut="0.0000000000000000e+00" cType="1" res="-4.9910351634025574e-02" rms="2.9963055253028870e-01" purity="1.5533980727195740e-01" nType="-99"/>
          </Node>
        </Node>
      </Node>
    </BinaryTree>
    <BinaryTree type="DecisionTree" boostWeight="1.0000000000000000e+00" itree="24">
      <Node pos="s" depth="0" NCoef="0" IVar="0" Cut="4.2857141494750977e+00" cType="0" res="1.6628516605123878e-03" rms="3.8544097542762756e-01" purity="5.0523954629898071e-01" nType="0">
        <Node pos="l" depth="1" NCoef="0" IVar="8" Cut="-3.4959860146045685e-02" cType="1" res="5.2006121724843979e-02" rms="3.7882894277572632e-01" purity="5.9769332408905029e-01" nType="0">
          <Node pos="l" depth="2" NCoef="0" IVar="-1" Cut="0.0000000000000000e+00" cType="1" res="3.1427174806594849e-02" rms="3.4161964058876038e-01" purity="7.3479318618774414e-01" nType="-99"/>
          <Node pos="r" depth="2" NCoef="0" IVar="-1" Cut="0.0000000000000000e+00" cType="1" res="-6.4912512898445129e-03" rms="4.0748205780982971e-01" purity="4.2484661936759949e-01" nType="-99"/>
        </Node>
        <Node pos="r" depth="1" NCoef="0" IVar="4" Cut="2.0848891735076904e+00" cType="1" res="-6.0278702527284622e-02" rms="3.8448312878608704e-01" purity="3.9148581027984619e-01" nType="0">
          <Node pos="l" depth="2" NCoef="0" IVar="2" Cut="8.7871200561523438e+01" cType="0" res="8.1193912774324417e-03" rms="3.8376000523567200e-01" purity="5.3687822818756104e-01" nType="0">
            <Node pos="l" depth="3" NCoef="0" IVar="-1" Cut="0.0000000000000000e+00" cType="1" res="1.4585409313440323e-02" rms="3.7447866797447205e-01" purity="6.2142854928970337e-01" nType="-99"/>
            <Node pos="r" depth="3" NCoef="0" IVar="-1" Cut="0.0000000000000000e+00" cType="1" res="-3.0973752960562706e-02" rms="3.7652066349983215e-01" purity="3.1901839375495911e-01" nType="-99"/>
          </Node>
          <Node pos="r" depth="2" NCoef="0" IVar="1" Cut="3.2965320587158203e+01" cType="1" res="-1.2511786818504333e-01" rms="3.7378457188606262e-01" purity="2.5365853309631348e-01" nType="0">
            <Node pos="l" depth="3" NCoef="0" IVar="-1" Cut="0.0000000000000000e+00" cType="1" res="1.6867915110196918e-04" rms="4.4022738933563232e-01" purity="5.7627117633819580e-01" nType="-99"/>
            <Node pos="r" depth="3" NCoef="0" IVar="-1" Cut="0.0000000000000000e+00" cType="1" res="-3.9385139942169189e-02" rms="3.4959784150123596e-01" purity="1.7706237733364105e-01" nType="-99"/>
          </Node>
        </Node>
      </Node>
    </BinaryTree>
    <BinaryTree type="DecisionTree" boostWeight="1.0000000000000000e+00" itree="25">
      <Node pos="s" depth="0" NCoef="0" IVar="1" Cut="9.2228431701660156e+01" cType="1" res="1.7498119268566370e-03" rms="3.8023889064788818e-01" purity="5.0388747453689575e-01" nType="0">
        <Node pos="l" depth="1" NCoef="0" IVar="2" Cut="8.5006759643554688e+01" cType="0" res="3.6329645663499832e-02" rms="3.8053616881370544e-01" purity="6.1627906560897827e-01" nType="0">
          <Node pos="l" depth="2" NCoef="0" IVar="-1" Cut="0.0000000000000000e+00" cType="1" res="1.4745042659342289e-02" rms="3.7580224871635437e-01" purity="6.5513128042221069e-01" nType="-99"/>
          <Node pos="r" depth="2" NCoef="0" IVar="5" Cut="7.9345691204071045e-01" cType="0" res="-1.3605953752994537e-01" rms="3.7288272380828857e-01" purity="3.1481480598449707e-01" nType="0">
            <Node pos="l" depth="3" NCoef="0" IVar="-1" Cut="0.0000000000000000e+00" cType="1" res="1.0668406262993813e-02" rms="3.8183990120887756e-01" purity="6.1363637447357178e-01" nType="-99"/>
            <Node pos="r" depth="3" NCoef="0" IVar="-1" Cut="0.0000000000000000e+00" cType="1" res="-4.5025467872619629e-02" rms="3.5614570975303650e-01" purity="2.3837208747863770e-01" nType="-99"/>
          </Node>
        </Node>
        <Node pos="r" depth="1" NCoef="0" IVar="1" Cut="2.2090730285644531e+02" cType="1" res="-7.9121693968772888e-02" rms="3.6703667044639587e-01" purity="2.4103832244873047e-01" nType="0">
          <Node pos="l" depth="2" NCoef="0" IVar="0" Cut="5.3333334922790527e+00" cType="0" res="-6.5448708832263947e-02" rms="3.6962127685546875e-01" purity="2.5335121154785156e-01" nType="0">
            <Node pos="l" depth="3" NCoef="0" IVar="-1" Cut="0.0000000000000000e+00" cType="1" res="1.0133499279618263e-02" rms="3.9465981721878052e-01" purity="4.4666665792465210e-01" nType="-99"/>
            <Node pos="r" depth="3" NCoef="0" IVar="-1" Cut="0.0000000000000000e+00" cType="1" res="-2.4964157491922379e-02" rms="3.5819792747497559e-01" purity="2.0469798147678375e-01" nType="-99"/>
          </Node>
          <Node pos="r" depth="2" NCoef="0" IVar="-1" Cut="0.0000000000000000e+00" cType="1" res="-6.0801561921834946e-02" rms="2.8938445448875427e-01" purity="9.5238097012042999e-02" nType="-99"/>
        </Node>
      </Node>
    </BinaryTree>
    <BinaryTree type="DecisionTree" boostWeight="1.0000000000000000e+00" itree="26">
      <Node pos="s" depth="0" NCoef="0" IVar="9" Cut="3.3333334326744080e-01" cType="1" res="5.1888101734220982e-04" rms="3.8199600577354431e-01" purity="5.0112611055374146e-01" nType="0">
        <Node pos="l" depth="1" NCoef="0" IVar="1" Cut="1.3804507446289062e+02" cType="1" res="8.6040034890174866e-02" rms="3.4107470512390137e-01" purity="6.8434667587280273e-01" nType="0">
          <Node pos="l" depth="2" NCoef="0" IVar="-1" Cut="0.0000000000000000e+00" cType="1" res="3.0157390981912613e-02" rms="3.3126941323280334e-01" purity="7.3371922969818115e-01" nType="-99"/>
          <Node pos="r" depth="2" NCoef="0" IVar="-1" Cut="0.0000000000000000e+00" cType="1" res="-2.9762320220470428e-02" rms="3.5707506537437439e-01" purity="2.6829269528388977e-01" nType="-99"/>
        </Node>
        <Node pos="r" depth="1" NCoef="0" IVar="0" Cut="4.2857141494750977e+00" cType="0" res="-3.4440319985151291e-02" rms="3.9217904210090637e-01" purity="4.2622950673103333e-01" nType="0">
          <Node pos="l" depth="2" NCoef="0" IVar="6" Cut="-2.2895760536193848e+00" cType="0" res="2.0953476428985596e-02" rms="3.8917100429534912e-01" purity="5.3016817569732666e-01" nType="0">
            <Node pos="l" depth="3" NCoef="0" IVar="-1" Cut="0.0000000000000000e+00" cType="1" res="1.4556315727531910e-02" rms="3.8796377182006836e-01" purity="6.0073709487915039e-01" nType="-99"/>
            <Node pos="r" depth="3" NCoef="0" IVar="-1" Cut="0.0000000000000000e+00" cType="1" res="-3.3924348652362823e-02" rms="3.5389983654022217e-01" purity="2.3857867717742920e-01" nType="-99"/>
          </Node>
          <Node pos="r" depth="2" NCoef="0" IVar="8" Cut="-1.0716111212968826e-01" cType="1" res="-9.8080240190029144e-02" rms="3.8591364026069641e-01" purity="3.0681818723678589e-01" nType="0">
            <Node pos="l" depth="3" NCoef="0" IVar="-1" Cut="0.0000000000000000e+00" cType="1" res="-7.5873895548284054e-03" rms="3.9029303193092346e-01" purity="4.4043320417404175e-01" nType="-99"/>
            <Node pos="r" depth="3" NCoef="0" IVar="-1" Cut="0.0000000000000000e+00" cType="1" res="-3.2475292682647705e-02" rms="3.7981075048446655e-01" purity="2.4543946981430054e-01" nType="-99"/>
          </Node>
        </Node>
      </Node>
    </BinaryTree>
    <BinaryTree type="DecisionTree" boostWeight="1.0000000000000000e+00" itree="27">
      <Node pos="s" depth="0" NCoef="0" IVar="4" Cut="1.8484088182449341e+00" cType="1" res="-1.4774214942008257e-03" rms="3.7812864780426025e-01" purity="4.9811604619026184e-01" nType="0">
        <Node pos="l" depth="1" NCoef="0" IVar="2" Cut="8.5931694030761719e+01" cType="0" res="6.0723628848791122e-02" rms="3.4916782379150391e-01" purity="6.9043475389480591e-01" nType="0">
          <Node pos="l" depth="2" NCoef="0" IVar="-1" Cut="0.0000000000000000e+00" cType="1" res="2.4747693911194801e-02" rms="3.4013774991035461e-01" purity="7.5569355487823486e-01" nType="-99"/>
          <Node pos="r" depth="2" NCoef="0" IVar="5" Cut="7.5951212644577026e-01" cType="0" res="-9.2910267412662506e-02" rms="3.5566487908363342e-01" purity="3.4782609343528748e-01" nType="0">
            <Node pos="l" depth="3" NCoef="0" IVar="-1" Cut="0.0000000000000000e+00" cType="1" res="2.2650746628642082e-02" rms="3.3596384525299072e-01" purity="6.5853661298751831e-01" nType="-99"/>
            <Node pos="r" depth="3" NCoef="0" IVar="-1" Cut="0.0000000000000000e+00" cType="1" res="-3.7671294063329697e-02" rms="3.4485444426536560e-01" purity="2.5874125957489014e-01" nType="-99"/>
          </Node>
        </Node>
        <Node pos="r" depth="1" NCoef="0" IVar="0" Cut="6.0952382087707520e+00" cType="0" res="-4.9038063734769821e-02" rms="3.9225804805755615e-01" purity="3.5106381773948669e-01" nType="0">
          <Node pos="l" depth="2" NCoef="0" IVar="-1" Cut="0.0000000000000000e+00" cType="1" res="4.1258502751588821e-02" rms="3.5108575224876404e-01" purity="7.1875000000000000e-01" nType="-99"/>
          <Node pos="r" depth="2" NCoef="0" IVar="5" Cut="6.9300824403762817e-01" cType="0" res="-5.8820258826017380e-02" rms="3.9112383127212524e-01" purity="3.3472222089767456e-01" nType="0">
            <Node pos="l" depth="3" NCoef="0" IVar="-1" Cut="0.0000000000000000e+00" cType="1" res="-7.0210226112976670e-04" rms="4.1898182034492493e-01" purity="4.8161122202873230e-01" nType="-99"/>
            <Node pos="r" depth="3" NCoef="0" IVar="-1" Cut="0.0000000000000000e+00" cType="1" res="-2.4612288922071457e-02" rms="3.6708405613899231e-01" purity="2.3820483684539795e-01" nType="-99"/>
          </Node>
        </Node>
      </Node>
    </BinaryTree>
    <BinaryTree type="DecisionTree" boostWeight="1.0000000000000000e+00" itree="28">
      <Node pos="s" depth="0" NCoef="0" IVar="2" Cut="9.4532684326171875e+01" cType="1" res="4.7158896923065186e-03" rms="3.7701401114463806e-01" purity="5.0824588537216187e-01" nType="0">
        <Node pos="l" depth="1" NCoef="0" IVar="2" Cut="8.8815353393554688e+01" cType="0" res="2.7892021462321281e-02" rms="3.7558621168136597e-01" purity="5.6492573022842407e-01" nType="0">
          <Node pos="l" depth="2" NCoef="0" IVar="-1" Cut="0.0000000000000000e+00" cType="1" res="2.1529527381062508e-02" rms="3.7376052141189575e-01" purity="6.8845844268798828e-01" nType="-99"/>
          <Node pos="r" depth="2" NCoef="0" IVar="-1" Cut="0.0000000000000000e+00" cType="1" res="-1.4146442525088787e-02" rms="3.6347997188568115e-01" purity="3.8443395495414734e-01" nType="-99"/>
        </Node>
        <Node pos="r" depth="1" NCoef="0" IVar="5" Cut="7.2593182325363159e-01" cType="0" res="-7.8534692525863647e-02" rms="3.7032338976860046e-01" purity="3.0464714765548706e-01" nType="0">
          <Node pos="l" depth="2" NCoef="0" IVar="11" Cut="-5.7995200157165527e+00" cType="0" res="3.5319719463586807e-02" rms="4.1244858503341675e-01" purity="5.3012049198150635e-01" nType="0">
            <Node pos="l" depth="3" NCoef="0" IVar="-1" Cut="0.0000000000000000e+00" cType="1" res="2.0230554044246674e-02" rms="4.1842907667160034e-01" purity="6.0317462682723999e-01" nType="-99"/>
            <Node pos="r" depth="3" NCoef="0" IVar="-1" Cut="0.0000000000000000e+00" cType="1" res="-2.8444889932870865e-02" rms="3.5233682394027710e-01" purity="3.0000001192092896e-01" nType="-99"/>
          </Node>
          <Node pos="r" depth="2" NCoef="0" IVar="8" Cut="-6.5878015756607056e-01" cType="1" res="-1.2407645583152771e-01" rms="3.4159985184669495e-01" purity="2.1445782482624054e-01" nType="0">
            <Node pos="l" depth="3" NCoef="0" IVar="-1" Cut="0.0000000000000000e+00" cType="1" res="3.8409892003983259e-03" rms="3.7421286106109619e-01" purity="5.4545456171035767e-01" nType="-99"/>
            <Node pos="r" depth="3" NCoef="0" IVar="-1" Cut="0.0000000000000000e+00" cType="1" res="-3.7151534110307693e-02" rms="3.3369606733322144e-01" purity="1.7520216107368469e-01" nType="-99"/>
          </Node>
        </Node>
      </Node>
    </BinaryTree>
    <BinaryTree type="DecisionTree" boostWeight="1.0000000000000000e+00" itree="29">
      <Node pos="s" depth="0" NCoef="0" IVar="6" Cut="-1.0015124082565308e-01" cType="0" res="2.0756484009325504e-03" rms="3.7149944901466370e-01" purity="5.0493168830871582e-01" nType="0">
        <Node pos="l" depth="1" NCoef="0" IVar="8" Cut="1.1384753137826920e-01" cType="1" res="6.1478637158870697e-02" rms="3.6220240592956543e-01" purity="6.5076142549514771e-01" nType="0">
          <Node pos="l" depth="2" NCoef="0" IVar="-1" Cut="0.0000000000000000e+00" cType="1" res="3.6818511784076691e-02" rms="2.9491466283798218e-01" purity="8.0321288108825684e-01" nType="-99"/>
          <Node pos="r" depth="2" NCoef="0" IVar="-1" Cut="0.0000000000000000e+00" cType="1" res="-4.1693667299114168e-04" rms="4.1049811244010925e-01" purity="4.9486652016639709e-01" nType="-99"/>
        </Node>
        <Node pos="r" depth="1" NCoef="0" IVar="8" Cut="-9.3015819787979126e-01" cType="1" res="-3.3364657312631607e-02" rms="3.7245160341262817e-01" purity="4.1792851686477661e-01" nType="0">
          <Node pos="l" depth="2" NCoef="0" IVar="1" Cut="6.8812210083007812e+01" cType="1" res="9.0482503175735474e-02" rms="2.4304664134979248e-01" purity="8.5365855693817139e-01" nType="0">
            <Node pos="l" depth="3" NCoef="0" IVar="-1" Cut="0.0000000000000000e+00" cType="1" res="5.4713763296604156e-02" rms="1.4992767572402954e-01" purity="9.7402596473693848e-01" nType="-99"/>
            <Node pos="r" depth="3" NCoef="0" IVar="-1" Cut="0.0000000000000000e+00" cType="1" res="6.4156149164773524e-05" rms="3.2758259773254395e-01" purity="6.5217393636703491e-01" nType="-99"/>
          </Node>
          <Node pos="r" depth="2" NCoef="0" IVar="2" Cut="8.8809257507324219e+01" cType="0" res="-5.5048927664756775e-02" rms="3.8666528463363647e-01" purity="3.4163701534271240e-01" nType="0">
            <Node pos="l" depth="3" NCoef="0" IVar="-1" Cut="0.0000000000000000e+00" cType="1" res="-5.1970593631267548e-03" rms="3.9954683184623718e-01" purity="4.0816327929496765e-01" nType="-99"/>
            <Node pos="r" depth="3" NCoef="0" IVar="-1" Cut="0.0000000000000000e+00" cType="1" res="-3.2229308038949966e-02" rms="3.5057973861694336e-01" purity="2.1097046136856079e-01" nType="-99"/>
          </Node>
        </Node>
      </Node>
    </BinaryTree>
    <BinaryTree type="DecisionTree" boostWeight="1.0000000000000000e+00" itree="30">
      <Node pos="s" depth="0" NCoef="0" IVar="7" Cut="5.0284576416015625e-01" cType="0" res="-3.0362911056727171e-03" rms="3.6708840727806091e-01" purity="4.9981081485748291e-01" nType="0">
        <Node pos="l" depth="1" NCoef="0" IVar="0" Cut="3.1428570747375488e+00" cType="0" res="9.3114353716373444e-02" rms="3.3798316121101379e-01" purity="7.1678322553634644e-01" nType="0">
          <Node pos="l" depth="2" NCoef="0" IVar="-1" Cut="0.0000000000000000e+00" cType="1" res="3.2585609704256058e-02" rms="3.2371550798416138e-01" purity="7.7196651697158813e-01" nType="-99"/>
          <Node pos="r" depth="2" NCoef="0" IVar="-1" Cut="0.0000000000000000e+00" cType="1" res="-9.7342990338802338e-03" rms="3.7588721513748169e-01" purity="4.3617022037506104e-01" nType="-99"/>
        </Node>
        <Node pos="r" depth="1" NCoef="0" IVar="8" Cut="-5.3787374496459961e-01" cType="1" res="-2.9592625796794891e-02" rms="3.7035542726516724e-01" purity="4.3988412618637085e-01" nType="0">
          <Node pos="l" depth="2" NCoef="0" IVar="7" Cut="-3.9122869968414307e+00" cType="0" res="6.0172550380229950e-02" rms="3.1070232391357422e-01" purity="7.4400001764297485e-01" nType="0">
            <Node pos="l" depth="3" NCoef="0" IVar="-1" Cut="0.0000000000000000e+00" cType="1" res="2.4824151769280434e-02" rms="2.9249268770217896e-01" purity="7.7704197168350220e-01" nType="-99"/>
            <Node pos="r" depth="3" NCoef="0" IVar="-1" Cut="0.0000000000000000e+00" cType="1" res="-3.6354057490825653e-02" rms="4.0016230940818787e-01" purity="4.2553192377090454e-01" nType="-99"/>
          </Node>
          <Node pos="r" depth="2" NCoef="0" IVar="2" Cut="9.3580375671386719e+01" cType="1" res="-5.8162063360214233e-02" rms="3.8303101062774658e-01" purity="3.4309357404708862e-01" nType="0">
            <Node pos="l" depth="3" NCoef="0" IVar="-1" Cut="0.0000000000000000e+00" cType="1" res="-6.8927435204386711e-03" rms="3.8863620162010193e-01" purity="4.0053287148475647e-01" nType="-99"/>
            <Node pos="r" depth="3" NCoef="0" IVar="-1" Cut="0.0000000000000000e+00" cType="1" res="-3.5375345498323441e-02" rms="3.5674825310707092e-01" purity="1.9775280356407166e-01" nType="-99"/>
          </Node>
        </Node>
      </Node>
    </BinaryTree>
    <BinaryTree type="DecisionTree" boostWeight="1.0000000000000000e+00" itree="31">
      <Node pos="s" depth="0" NCoef="0" IVar="6" Cut="-9.1736383736133575e-02" cType="0" res="1.7345000524073839e-03" rms="3.7394776940345764e-01" purity="5.0754511356353760e-01" nType="0">
        <Node pos="l" depth="1" NCoef="0" IVar="8" Cut="1.3345564901828766e-01" cType="1" res="5.7621352374553680e-02" rms="3.5604029893875122e-01" purity="6.5807729959487915e-01" nType="0">
          <Node pos="l" depth="2" NCoef="0" IVar="-1" Cut="0.0000000000000000e+00" cType="1" res="3.4374780952930450e-02" rms="2.8556948900222778e-01" purity="8.1027668714523315e-01" nType="-99"/>
          <Node pos="r" depth="2" NCoef="0" IVar="-1" Cut="0.0000000000000000e+00" cType="1" res="1.0480593191459775e-03" rms="4.0814056992530823e-01" purity="5.0497019290924072e-01" nType="-99"/>
        </Node>
        <Node pos="r" depth="1" NCoef="0" IVar="8" Cut="-3.2526869326829910e-02" cType="1" res="-3.1280625611543655e-02" rms="3.8029497861862183e-01" purity="4.1861826181411743e-01" nType="0">
          <Node pos="l" depth="2" NCoef="0" IVar="5" Cut="5.1327383518218994e-01" cType="0" res="1.5358444303274155e-02" rms="3.8021424412727356e-01" purity="5.4508614540100098e-01" nType="0">
            <Node pos="l" depth="3" NCoef="0" IVar="-1" Cut="0.0000000000000000e+00" cType="1" res="1.3203965499997139e-02" rms="3.7672242522239685e-01" purity="6.0875159502029419e-01" nType="-99"/>
            <Node pos="r" depth="3" NCoef="0" IVar="-1" Cut="0.0000000000000000e+00" cType="1" res="-2.9407719150185585e-02" rms="3.6708807945251465e-01" purity="3.0952382087707520e-01" nType="-99"/>
          </Node>
          <Node pos="r" depth="2" NCoef="0" IVar="10" Cut="9.0476191043853760e-01" cType="1" res="-9.5126345753669739e-02" rms="3.7101796269416809e-01" purity="2.4549236893653870e-01" nType="0">
            <Node pos="l" depth="3" NCoef="0" IVar="-1" Cut="0.0000000000000000e+00" cType="1" res="-1.4123989269137383e-02" rms="3.9504584670066833e-01" purity="3.0851063132286072e-01" nType="-99"/>
            <Node pos="r" depth="3" NCoef="0" IVar="-1" Cut="0.0000000000000000e+00" cType="1" res="-3.6877680569887161e-02" rms="3.3748930692672729e-01" purity="1.7681159079074860e-01" nType="-99"/>
          </Node>
        </Node>
      </Node>
    </BinaryTree>
    <BinaryTree type="DecisionTree" boostWeight="1.0000000000000000e+00" itree="32">
      <Node pos="s" depth="0" NCoef="0" IVar="1" Cut="4.6635925292968750e+01" cType="1" res="-5.8326302096247673e-03" rms="3.6633202433586121e-01" purity="4.9866566061973572e-01" nType="0">
        <Node pos="l" depth="1" NCoef="0" IVar="0" Cut="3.4285714626312256e+00" cType="0" res="5.2151601761579514e-02" rms="3.4852281212806702e-01" purity="7.1949946880340576e-01" nType="0">
          <Node pos="l" depth="2" NCoef="0" IVar="-1" Cut="0.0000000000000000e+00" cType="1" res="2.0497709512710571e-02" rms="3.3284041285514832e-01" purity="7.5547444820404053e-01" nType="-99"/>
          <Node pos="r" depth="2" NCoef="0" IVar="-1" Cut="0.0000000000000000e+00" cType="1" res="-1.8260050565004349e-02" rms="4.0858575701713562e-01" purity="5.0364965200424194e-01" nType="-99"/>
        </Node>
        <Node pos="r" depth="1" NCoef="0" IVar="4" Cut="1.4451525211334229e+00" cType="1" res="-3.9250224828720093e-02" rms="3.7213152647018433e-01" purity="3.7139421701431274e-01" nType="0">
          <Node pos="l" depth="2" NCoef="0" IVar="10" Cut="9.0476083755493164e-01" cType="1" res="3.5669598728418350e-02" rms="3.3294016122817993e-01" purity="7.2752809524536133e-01" nType="0">
            <Node pos="l" depth="3" NCoef="0" IVar="-1" Cut="0.0000000000000000e+00" cType="1" res="3.0181411653757095e-02" rms="2.9546129703521729e-01" purity="8.3408069610595703e-01" nType="-99"/>
            <Node pos="r" depth="3" NCoef="0" IVar="-1" Cut="0.0000000000000000e+00" cType="1" res="-1.9055673852562904e-02" rms="3.6379557847976685e-01" purity="5.4887217283248901e-01" nType="-99"/>
          </Node>
          <Node pos="r" depth="2" NCoef="0" IVar="5" Cut="7.1953523159027100e-01" cType="0" res="-5.9641249477863312e-02" rms="3.7955135107040405e-01" purity="2.7446484565734863e-01" nType="0">
            <Node pos="l" depth="3" NCoef="0" IVar="-1" Cut="0.0000000000000000e+00" cType="1" res="-5.5380223784595728e-04" rms="4.2784118652343750e-01" purity="4.1545894742012024e-01" nType="-99"/>
            <Node pos="r" depth="3" NCoef="0" IVar="-1" Cut="0.0000000000000000e+00" cType="1" res="-2.3791577666997910e-02" rms="3.5182470083236694e-01" purity="2.0917226374149323e-01" nType="-99"/>
          </Node>
        </Node>
      </Node>
    </BinaryTree>
    <BinaryTree type="DecisionTree" boostWeight="1.0000000000000000e+00" itree="33">
      <Node pos="s" depth="0" NCoef="0" IVar="1" Cut="9.2254356384277344e+01" cType="1" res="-4.8354193568229675e-03" rms="3.7035831809043884e-01" purity="4.9574232101440430e-01" nType="0">
        <Node pos="l" depth="1" NCoef="0" IVar="7" Cut="1.2619509696960449e+00" cType="0" res="2.4146690964698792e-02" rms="3.7222433090209961e-01" purity="6.0948324203491211e-01" nType="0">
          <Node pos="l" depth="2" NCoef="0" IVar="-1" Cut="0.0000000000000000e+00" cType="1" res="4.8670049756765366e-02" rms="2.5196191668510437e-01" purity="8.9090907573699951e-01" nType="-99"/>
          <Node pos="r" depth="2" NCoef="0" IVar="-1" Cut="0.0000000000000000e+00" cType="1" res="2.5550001300871372e-03" rms="3.7867903709411621e-01" purity="5.8235979080200195e-01" nType="-99"/>
        </Node>
        <Node pos="r" depth="1" NCoef="0" IVar="7" Cut="-9.9360698461532593e-01" cType="0" res="-7.0854134857654572e-02" rms="3.5740309953689575e-01" purity="2.3665048182010651e-01" nType="0">
          <Node pos="l" depth="2" NCoef="0" IVar="0" Cut="4.3333334922790527e+00" cType="0" res="-3.3113606274127960e-02" rms="3.9076220989227295e-01" purity="2.9383885860443115e-01" nType="0">
            <Node pos="l" depth="3" NCoef="0" IVar="-1" Cut="0.0000000000000000e+00" cType="1" res="7.6975445263087749e-03" rms="4.1812676191329956e-01" purity="4.3386244773864746e-01" nType="-99"/>
            <Node pos="r" depth="3" NCoef="0" IVar="-1" Cut="0.0000000000000000e+00" cType="1" res="-2.5547323748469353e-02" rms="3.5889145731925964e-01" purity="1.8025751411914825e-01" nType="-99"/>
          </Node>
          <Node pos="r" depth="2" NCoef="0" IVar="1" Cut="1.4805464172363281e+02" cType="1" res="-1.1047229915857315e-01" rms="3.1380304694175720e-01" purity="1.7661692202091217e-01" nType="0">
            <Node pos="l" depth="3" NCoef="0" IVar="-1" Cut="0.0000000000000000e+00" cType="1" res="-2.1954860538244247e-02" rms="3.2892152667045593e-01" purity="2.1999999880790710e-01" nType="-99"/>
            <Node pos="r" depth="3" NCoef="0" IVar="-1" Cut="0.0000000000000000e+00" cType="1" res="-5.0745233893394470e-02" rms="2.7641481161117554e-01" purity="1.0526315867900848e-01" nType="-99"/>
          </Node>
        </Node>
      </Node>
    </BinaryTree>
    <BinaryTree type="DecisionTree" boostWeight="1.0000000000000000e+00" itree="34">
      <Node pos="s" depth="0" NCoef="0" IVar="3" Cut="7.8999687194824219e+01" cType="0" res="-4.4486192055046558e-03" rms="3.6655488610267639e-01" purity="4.9530604481697083e-01" nType="0">
        <Node pos="l" depth="1" NCoef="0" IVar="2" Cut="9.7377380371093750e+01" cType="1" res="4.4214874505996704e-02" rms="3.4612393379211426e-01" purity="6.5124553442001343e-01" nType="0">
          <Node pos="l" depth="2" NCoef="0" IVar="-1" Cut="0.0000000000000000e+00" cType="1" res="1.7425332218408585e-02" rms="3.4192380309104919e-01" purity="6.8730652332305908e-01" nType="-99"/>
          <Node pos="r" depth="2" NCoef="0" IVar="-1" Cut="0.0000000000000000e+00" cType="1" res="-3.7185449153184891e-02" rms="3.4127038717269897e-01" purity="2.3893804848194122e-01" nType="-99"/>
        </Node>
        <Node pos="r" depth="1" NCoef="0" IVar="5" Cut="5.5534493923187256e-01" cType="0" res="-5.8798547834157944e-02" rms="3.8082259893417358e-01" purity="3.2114467024803162e-01" nType="0">
          <Node pos="l" depth="2" NCoef="0" IVar="2" Cut="9.3580375671386719e+01" cType="1" res="-3.1399335712194443e-02" rms="4.0431028604507446e-01" purity="3.8888889551162720e-01" nType="0">
            <Node pos="l" depth="3" NCoef="0" IVar="-1" Cut="0.0000000000000000e+00" cType="1" res="-4.0404344326816499e-04" rms="4.0916824340820312e-01" purity="4.4444444775581360e-01" nType="-99"/>
            <Node pos="r" depth="3" NCoef="0" IVar="-1" Cut="0.0000000000000000e+00" cType="1" res="-2.6796938851475716e-02" rms="3.8307371735572815e-01" purity="2.5555557012557983e-01" nType="-99"/>
          </Node>
          <Node pos="r" depth="2" NCoef="0" IVar="1" Cut="3.2032562255859375e+01" cType="1" res="-1.3277642428874969e-01" rms="2.9620200395584106e-01" purity="1.3823530077934265e-01" nType="0">
            <Node pos="l" depth="3" NCoef="0" IVar="-1" Cut="0.0000000000000000e+00" cType="1" res="-7.3953848332166672e-03" rms="4.2348939180374146e-01" purity="3.8775509595870972e-01" nType="-99"/>
            <Node pos="r" depth="3" NCoef="0" IVar="-1" Cut="0.0000000000000000e+00" cType="1" res="-4.5924656093120575e-02" rms="2.6511266827583313e-01" purity="9.6219934523105621e-02" nType="-99"/>
          </Node>
        </Node>
      </Node>
    </BinaryTree>
    <BinaryTree type="DecisionTree" boostWeight="1.0000000000000000e+00" itree="35">
      <Node pos="s" depth="0" NCoef="0" IVar="1" Cut="8.9663192749023438e+01" cType="1" res="-5.0834799185395241e-03" rms="3.6335903406143188e-01" purity="4.9322798848152161e-01" nType="0">
        <Node pos="l" depth="1" NCoef="0" IVar="6" Cut="-3.6013236045837402e+00" cType="0" res="2.4554567411541939e-02" rms="3.6451378464698792e-01" purity="6.1748331785202026e-01" nType="0">
          <Node pos="l" depth="2" NCoef="0" IVar="-1" Cut="0.0000000000000000e+00" cType="1" res="9.9169211462140083e-03" rms="3.6226239800453186e-01" purity="6.4104080200195312e-01" nType="-99"/>
          <Node pos="r" depth="2" NCoef="0" IVar="-1" Cut="0.0000000000000000e+00" cType="1" res="-4.3388783931732178e-02" rms="3.4264791011810303e-01" purity="2.3809523880481720e-01" nType="-99"/>
        </Node>
        <Node pos="r" depth="1" NCoef="0" IVar="2" Cut="9.8285385131835938e+01" cType="1" res="-6.6835142672061920e-02" rms="3.5303691029548645e-01" purity="2.3433874547481537e-01" nType="0">
          <Node pos="l" depth="2" NCoef="0" IVar="10" Cut="2.3809519410133362e-01" cType="1" res="-5.2619643509387970e-02" rms="3.6824622750282288e-01" purity="2.6385223865509033e-01" nType="0">
            <Node pos="l" depth="3" NCoef="0" IVar="-1" Cut="0.0000000000000000e+00" cType="1" res="6.6567328758537769e-03" rms="3.9815479516983032e-01" purity="3.9860141277313232e-01" nType="-99"/>
            <Node pos="r" depth="3" NCoef="0" IVar="-1" Cut="0.0000000000000000e+00" cType="1" res="-2.0124869421124458e-02" rms="3.5863363742828369e-01" purity="2.3252032697200775e-01" nType="-99"/>
          </Node>
          <Node pos="r" depth="2" NCoef="0" IVar="4" Cut="2.3839507102966309e+00" cType="1" res="-1.7044425010681152e-01" rms="1.8019801378250122e-01" purity="1.9230769947171211e-02" nType="0">
            <Node pos="l" depth="3" NCoef="0" IVar="-1" Cut="0.0000000000000000e+00" cType="1" res="-7.3886401951313019e-02" rms="2.1465910971164703e-01" purity="2.5000000372529030e-02" nType="-99"/>
            <Node pos="r" depth="3" NCoef="0" IVar="-1" Cut="0.0000000000000000e+00" cType="1" res="-5.4316692054271698e-02" rms="1.4153531193733215e-01" purity="1.5625000000000000e-02" nType="-99"/>
          </Node>
        </Node>
      </Node>
    </BinaryTree>
    <BinaryTree type="DecisionTree" boostWeight="1.0000000000000000e+00" itree="36">
      <Node pos="s" depth="0" NCoef="0" IVar="2" Cut="8.4052001953125000e+01" cType="0" res="4.9964552745223045e-03" rms="3.7079668045043945e-01" purity="5.1132565736770630e-01" nType="0">
        <Node pos="l" depth="1" NCoef="0" IVar="2" Cut="9.3830360412597656e+01" cType="1" res="1.8787343055009842e-02" rms="3.7427073717117310e-01" purity="5.4511743783950806e-01" nType="0">
          <Node pos="l" depth="2" NCoef="0" IVar="-1" Cut="0.0000000000000000e+00" cType="1" res="1.2097917497158051e-02" rms="3.7145945429801941e-01" purity="6.1455374956130981e-01" nType="-99"/>
          <Node pos="r" depth="2" NCoef="0" IVar="9" Cut="8.0952382087707520e-01" cType="1" res="-4.6441353857517242e-02" rms="3.7380278110504150e-01" purity="3.6227545142173767e-01" nType="0">
            <Node pos="l" depth="3" NCoef="0" IVar="-1" Cut="0.0000000000000000e+00" cType="1" res="3.6781788803637028e-03" rms="3.7594282627105713e-01" purity="4.7435897588729858e-01" nType="-99"/>
            <Node pos="r" depth="3" NCoef="0" IVar="-1" Cut="0.0000000000000000e+00" cType="1" res="-2.7294699102640152e-02" rms="3.6403256654739380e-01" purity="2.6404494047164917e-01" nType="-99"/>
          </Node>
        </Node>
        <Node pos="r" depth="1" NCoef="0" IVar="6" Cut="2.5267240405082703e-01" cType="0" res="-1.2083244323730469e-01" rms="3.1033053994178772e-01" purity="2.0300751924514771e-01" nType="0">
          <Node pos="l" depth="2" NCoef="0" IVar="-1" Cut="0.0000000000000000e+00" cType="1" res="-1.2027850374579430e-02" rms="3.9044111967086792e-01" purity="3.8157895207405090e-01" nType="-99"/>
          <Node pos="r" depth="2" NCoef="0" IVar="2" Cut="8.2679412841796875e+01" cType="0" res="-1.5162040293216705e-01" rms="2.6557803153991699e-01" purity="1.3157895207405090e-01" nType="0">
            <Node pos="l" depth="3" NCoef="0" IVar="-1" Cut="0.0000000000000000e+00" cType="1" res="-3.4095056354999542e-02" rms="2.9134121537208557e-01" purity="1.7894737422466278e-01" nType="-99"/>
            <Node pos="r" depth="3" NCoef="0" IVar="-1" Cut="0.0000000000000000e+00" cType="1" res="-5.8332540094852448e-02" rms="2.2845101356506348e-01" purity="8.4210529923439026e-02" nType="-99"/>
          </Node>
        </Node>
      </Node>
    </BinaryTree>
    <BinaryTree type="DecisionTree" boostWeight="1.0000000000000000e+00" itree="37">
      <Node pos="s" depth="0" NCoef="0" IVar="2" Cut="9.5485687255859375e+01" cType="1" res="6.6080410033464432e-03" rms="3.6059957742691040e-01" purity="5.0795453786849976e-01" nType="0">
        <Node pos="l" depth="1" NCoef="0" IVar="2" Cut="8.8682701110839844e+01" cType="0" res="2.6361696422100067e-02" rms="3.6351916193962097e-01" purity="5.6572222709655762e-01" nType="0">
          <Node pos="l" depth="2" NCoef="0" IVar="-1" Cut="0.0000000000000000e+00" cType="1" res="1.7601460218429565e-02" rms="3.6343833804130554e-01" purity="6.7161959409713745e-01" nType="-99"/>
          <Node pos="r" depth="2" NCoef="0" IVar="0" Cut="3.0476191043853760e+00" cType="0" res="-3.5526428371667862e-02" rms="3.5513052344322205e-01" purity="3.8909542560577393e-01" nType="0">
            <Node pos="l" depth="3" NCoef="0" IVar="-1" Cut="0.0000000000000000e+00" cType="1" res="-3.6340879742056131e-03" rms="3.5821399092674255e-01" purity="4.4274809956550598e-01" nType="-99"/>
            <Node pos="r" depth="3" NCoef="0" IVar="-1" Cut="0.0000000000000000e+00" cType="1" res="-3.9421617984771729e-02" rms="3.2336288690567017e-01" purity="1.5789473056793213e-01" nType="-99"/>
          </Node>
        </Node>
        <Node pos="r" depth="1" NCoef="0" IVar="10" Cut="1.4285710453987122e-01" cType="1" res="-8.0721773207187653e-02" rms="3.3366751670837402e-01" purity="2.5256672501564026e-01" nType="0">
          <Node pos="l" depth="2" NCoef="0" IVar="-1" Cut="0.0000000000000000e+00" cType="1" res="1.3062632642686367e-02" rms="3.6317855119705200e-01" purity="5.1428574323654175e-01" nType="-99"/>
          <Node pos="r" depth="2" NCoef="0" IVar="2" Cut="9.7673347473144531e+01" cType="1" res="-1.0190859436988831e-01" rms="3.2366493344306946e-01" purity="2.0863309502601624e-01" nType="0">
            <Node pos="l" depth="3" NCoef="0" IVar="-1" Cut="0.0000000000000000e+00" cType="1" res="-1.0860935784876347e-02" rms="3.8715746998786926e-01" purity="3.3333334326744080e-01" nType="-99"/>
            <Node pos="r" depth="3" NCoef="0" IVar="-1" Cut="0.0000000000000000e+00" cType="1" res="-4.7141566872596741e-02" rms="2.5558027625083923e-01" purity="1.1392404884099960e-01" nType="-99"/>
          </Node>
        </Node>
      </Node>
    </BinaryTree>
    <BinaryTree type="DecisionTree" boostWeight="1.0000000000000000e+00" itree="38">
      <Node pos="s" depth="0" NCoef="0" IVar="0" Cut="5.2380952835083008e+00" cType="0" res="-1.2384891742840409e-03" rms="3.6701098084449768e-01" purity="5.0263160467147827e-01" nType="0">
        <Node pos="l" depth="1" NCoef="0" IVar="6" Cut="-4.2777075767517090e+00" cType="0" res="8.1429973244667053e-02" rms="3.3023491501808167e-01" purity="6.9720494747161865e-01" nType="0">
          <Node pos="l" depth="2" NCoef="0" IVar="-1" Cut="0.0000000000000000e+00" cType="1" res="3.2416183501482010e-02" rms="3.2411947846412659e-01" purity="7.4702888727188110e-01" nType="-99"/>
          <Node pos="r" depth="2" NCoef="0" IVar="-1" Cut="0.0000000000000000e+00" cType="1" res="-5.4590988904237747e-02" rms="2.5870537757873535e-01" purity="1.6363635659217834e-01" nType="-99"/>
        </Node>
        <Node pos="r" depth="1" NCoef="0" IVar="5" Cut="7.8896111249923706e-01" cType="0" res="-2.7646468952298164e-02" rms="3.7417611479759216e-01" purity="4.4047617912292480e-01" nType="0">
          <Node pos="l" depth="2" NCoef="0" IVar="11" Cut="-1.2112175673246384e-01" cType="0" res="5.4059892892837524e-02" rms="3.7996113300323486e-01" purity="6.6750001907348633e-01" nType="0">
            <Node pos="l" depth="3" NCoef="0" IVar="-1" Cut="0.0000000000000000e+00" cType="1" res="4.6676050871610641e-02" rms="2.8630870580673218e-01" purity="8.9041095972061157e-01" nType="-99"/>
            <Node pos="r" depth="3" NCoef="0" IVar="-1" Cut="0.0000000000000000e+00" cType="1" res="8.1020193174481392e-03" rms="3.9414989948272705e-01" purity="6.1773699522018433e-01" nType="-99"/>
          </Node>
          <Node pos="r" depth="2" NCoef="0" IVar="8" Cut="-8.9510458707809448e-01" cType="1" res="-4.7870818525552750e-02" rms="3.6995458602905273e-01" purity="3.8428217172622681e-01" nType="0">
            <Node pos="l" depth="3" NCoef="0" IVar="-1" Cut="0.0000000000000000e+00" cType="1" res="2.3122359067201614e-02" rms="2.7518922090530396e-01" purity="8.2777780294418335e-01" nType="-99"/>
            <Node pos="r" depth="3" NCoef="0" IVar="-1" Cut="0.0000000000000000e+00" cType="1" res="-1.6834519803524017e-02" rms="3.7793016433715820e-01" purity="3.2869079709053040e-01" nType="-99"/>
          </Node>
        </Node>
      </Node>
    </BinaryTree>
    <BinaryTree type="DecisionTree" boostWeight="1.0000000000000000e+00" itree="39">
      <Node pos="s" depth="0" NCoef="0" IVar="4" Cut="1.5663428306579590e+00" cType="1" res="-6.7443763837218285e-03" rms="3.5791978240013123e-01" purity="4.9886190891265869e-01" nType="0">
        <Node pos="l" depth="1" NCoef="0" IVar="11" Cut="-4.0246109962463379e+00" cType="0" res="5.5499982088804245e-02" rms="2.9788148403167725e-01" purity="7.8162288665771484e-01" nType="0">
          <Node pos="l" depth="2" NCoef="0" IVar="-1" Cut="0.0000000000000000e+00" cType="1" res="3.0797801911830902e-02" rms="2.6480767130851746e-01" purity="8.5742574930191040e-01" nType="-99"/>
          <Node pos="r" depth="2" NCoef="0" IVar="-1" Cut="0.0000000000000000e+00" cType="1" res="2.5901431217789650e-03" rms="3.3661475777626038e-01" purity="6.6666668653488159e-01" nType="-99"/>
        </Node>
        <Node pos="r" depth="1" NCoef="0" IVar="1" Cut="2.4011394500732422e+01" cType="1" res="-3.5754818469285965e-02" rms="3.7922292947769165e-01" purity="3.6707451939582825e-01" nType="0">
          <Node pos="l" depth="2" NCoef="0" IVar="5" Cut="6.5536665916442871e-01" cType="0" res="6.7304946482181549e-02" rms="3.4286946058273315e-01" purity="7.0422536134719849e-01" nType="0">
            <Node pos="l" depth="3" NCoef="0" IVar="-1" Cut="0.0000000000000000e+00" cType="1" res="3.7673708051443100e-02" rms="2.9262343049049377e-01" purity="8.5606062412261963e-01" nType="-99"/>
            <Node pos="r" depth="3" NCoef="0" IVar="-1" Cut="0.0000000000000000e+00" cType="1" res="-9.2529375106096268e-03" rms="3.8943430781364441e-01" purity="4.5679011940956116e-01" nType="-99"/>
          </Node>
          <Node pos="r" depth="2" NCoef="0" IVar="0" Cut="2.1428570747375488e+00" cType="0" res="-4.9604490399360657e-02" rms="3.8173097372055054e-01" purity="3.2176655530929565e-01" nType="0">
            <Node pos="l" depth="3" NCoef="0" IVar="-1" Cut="0.0000000000000000e+00" cType="1" res="-1.1103743687272072e-02" rms="3.8593822717666626e-01" purity="3.3599999547004700e-01" nType="-99"/>
            <Node pos="r" depth="3" NCoef="0" IVar="-1" Cut="0.0000000000000000e+00" cType="1" res="-5.8035243302583694e-02" rms="2.5303727388381958e-01" purity="7.0588238537311554e-02" nType="-99"/>
          </Node>
        </Node>
      </Node>
    </BinaryTree>
    <BinaryTree type="DecisionTree" boostWeight="1.0000000000000000e+00" itree="40">
      <Node pos="s" depth="0" NCoef="0" IVar="8" Cut="1.2471131049096584e-02" cType="1" res="1.9982359372079372e-03" rms="3.6146852374076843e-01" purity="5.0543683767318726e-01" nType="0">
        <Node pos="l" depth="1" NCoef="0" IVar="2" Cut="8.5036949157714844e+01" cType="0" res="3.6867838352918625e-02" rms="3.3548933267593384e-01" purity="6.2154698371887207e-01" nType="0">
          <Node pos="l" depth="2" NCoef="0" IVar="-1" Cut="0.0000000000000000e+00" cType="1" res="1.6900798305869102e-02" rms="3.3344447612762451e-01" purity="6.7591124773025513e-01" nType="-99"/>
          <Node pos="r" depth="2" NCoef="0" IVar="9" Cut="5.2380919456481934e-01" cType="1" res="-8.9242331683635712e-02" rms="3.2184836268424988e-01" purity="2.5268816947937012e-01" nType="0">
