<?xml version="1.0"?>
<MethodSetup Method="BDT::BDTG">
  <GeneralInfo>
    <Info name="TMVA Release" value="4.1.2 [262402]"/>
    <Info name="ROOT Release" value="5.32/00 [335872]"/>
    <Info name="Creator" value="abrinke1"/>
    <Info name="Date" value="Tue Oct 14 16:03:28 2014"/>
    <Info name="Host" value="Linux lxbuild168.cern.ch 2.6.18-308.16.1.el5 #1 SMP Thu Oct 4 14:02:28 CEST 2012 x86_64 x86_64 x86_64 GNU/Linux"/>
    <Info name="Dir" value="/afs/crc.nd.edu/user/a/abrinke1/TMVAv412"/>
    <Info name="Training events" value="5348"/>
    <Info name="TrainingTime" value="1.22398305e+00"/>
    <Info name="AnalysisType" value="Classification"/>
  </GeneralInfo>
  <Options>
    <Option name="V" modified="Yes">False</Option>
    <Option name="VerbosityLevel" modified="No">Default</Option>
    <Option name="VarTransform" modified="No">None</Option>
    <Option name="H" modified="Yes">False</Option>
    <Option name="CreateMVAPdfs" modified="No">False</Option>
    <Option name="IgnoreNegWeightsInTraining" modified="No">False</Option>
    <Option name="NTrees" modified="Yes">200</Option>
    <Option name="RenormByClass" modified="No">False</Option>
    <Option name="BoostType" modified="Yes">Grad</Option>
    <Option name="AdaBoostR2Loss" modified="No">quadratic</Option>
    <Option name="UseBaggedGrad" modified="Yes">True</Option>
    <Option name="GradBaggingFraction" modified="Yes">5.000000e-01</Option>
    <Option name="Shrinkage" modified="Yes">1.000000e-01</Option>
    <Option name="AdaBoostBeta" modified="No">1.000000e+00</Option>
    <Option name="UseRandomisedTrees" modified="No">False</Option>
    <Option name="UseNvars" modified="No">3</Option>
    <Option name="UsePoissonNvars" modified="No">True</Option>
    <Option name="UseNTrainEvents" modified="No">5348</Option>
    <Option name="UseWeightedTrees" modified="No">True</Option>
    <Option name="UseYesNoLeaf" modified="No">True</Option>
    <Option name="NodePurityLimit" modified="No">5.000000e-01</Option>
    <Option name="SeparationType" modified="No">giniindex</Option>
    <Option name="nEventsMin" modified="No">40</Option>
    <Option name="nCuts" modified="Yes">20</Option>
    <Option name="UseFisherCuts" modified="No">False</Option>
    <Option name="MinLinCorrForFisher" modified="No">8.000000e-01</Option>
    <Option name="UseExclusiveVars" modified="No">False</Option>
    <Option name="PruneStrength" modified="No">0.000000e+00</Option>
    <Option name="PruneMethod" modified="No">nopruning</Option>
    <Option name="PruneBeforeBoost" modified="No">False</Option>
    <Option name="PruningValFraction" modified="No">5.000000e-01</Option>
    <Option name="NNodesMax" modified="Yes">5</Option>
    <Option name="MaxDepth" modified="No">3</Option>
    <Option name="DoBoostMonitor" modified="No">False</Option>
    <Option name="NegWeightTreatment" modified="Yes">ignorenegweights</Option>
  </Options>
  <Variables NVar="10">
    <Variable VarIndex="0" Expression="numJets_40" Label="numJets_40" Title="numJets_40" Unit="" Internal="numJets_40" Type="F" Min="0.00000000e+00" Max="1.10000000e+01"/>
    <Variable VarIndex="1" Expression="MT_of_leps_jets_mass_of_leps_jets" Label="MT_of_leps_jets_mass_of_leps_jets" Title="MT_of_leps_jets_mass_of_leps_jets" Unit="" Internal="MT_of_leps_jets_D_mass_of_leps_jets" Type="F" Min="2.90375322e-01" Max="9.60658133e-01"/>
    <Variable VarIndex="2" Expression="jets_by_pt_5_pt" Label="jets_by_pt_5_pt" Title="jets_by_pt_5_pt" Unit="" Internal="jets_by_pt_5_pt" Type="F" Min="2.50757904e+01" Max="2.21394836e+02"/>
    <Variable VarIndex="3" Expression="jets_by_CSV_1_btagCombinedSecVertex" Label="jets_by_CSV_1_btagCombinedSecVertex" Title="jets_by_CSV_1_btagCombinedSecVertex" Unit="" Internal="jets_by_CSV_1_btagCombinedSecVertex" Type="F" Min="6.79019451e-01" Max="1.00000000e+00"/>
    <Variable VarIndex="4" Expression="jets_by_CSV_2_btagCombinedSecVertex" Label="jets_by_CSV_2_btagCombinedSecVertex" Title="jets_by_CSV_2_btagCombinedSecVertex" Unit="" Internal="jets_by_CSV_2_btagCombinedSecVertex" Type="F" Min="3.89463827e-02" Max="9.99999881e-01"/>
    <Variable VarIndex="5" Expression="Match_ttbar_jj_Bq_bqq" Label="Match_ttbar_jj_Bq_bqq" Title="Match_ttbar_jj_Bq_bqq" Unit="" Internal="Match_ttbar_jj_Bq_bqq" Type="F" Min="-1.19318190e+01" Max="2.87168050e+00"/>
    <Variable VarIndex="6" Expression="Match_ttbar_jj_Bqq_bq" Label="Match_ttbar_jj_Bqq_bq" Title="Match_ttbar_jj_Bqq_bq" Unit="" Internal="Match_ttbar_jj_Bqq_bq" Type="F" Min="-1.18823433e+01" Max="3.19305086e+00"/>
    <Variable VarIndex="7" Expression="Match_ttbar_jj_Bqq_bqq" Label="Match_ttbar_jj_Bqq_bqq" Title="Match_ttbar_jj_Bqq_bqq" Unit="" Internal="Match_ttbar_jj_Bqq_bqq" Type="F" Min="-2.01767807e+01" Max="3.28406143e+00"/>
    <Variable VarIndex="8" Expression="log_chiSquared_" Label="log_chiSquared_" Title="log_chiSquared_" Unit="" Internal="log_chiSquared_" Type="F" Min="-4.06729269e+00" Max="8.31077766e+00"/>
    <Variable VarIndex="9" Expression="FinalBDT_ttZ_vs_ttbar_OS_Oct31" Label="FinalBDT_ttZ_vs_ttbar_OS_Oct31" Title="FinalBDT_ttZ_vs_ttbar_OS_Oct31" Unit="" Internal="FinalBDT_ttZ_vs_ttbar_OS_Oct31" Type="F" Min="-9.94243503e-01" Max="9.99186873e-01"/>
  </Variables>
  <Spectators NSpec="0"/>
  <Classes NClass="2">
    <Class Name="Signal" Index="0"/>
    <Class Name="Background" Index="1"/>
  </Classes>
  <Transformations NTransformations="0"/>
  <MVAPdfs/>
  <Weights NTrees="200" AnalysisType="1">
    <BinaryTree type="DecisionTree" boostWeight="1.0000000000000000e+00" itree="0">
      <Node pos="s" depth="0" NCoef="0" IVar="9" Cut="3.3471009135246277e-01" cType="0" res="-7.9425117000937462e-03" rms="4.9993690848350525e-01" purity="4.9205750226974487e-01" nType="0">
        <Node pos="l" depth="1" NCoef="0" IVar="-1" Cut="0.0000000000000000e+00" cType="1" res="3.7249282002449036e-02" rms="4.6401754021644592e-01" purity="6.8624639511108398e-01" nType="-99"/>
        <Node pos="r" depth="1" NCoef="0" IVar="9" Cut="-5.5142480134963989e-01" cType="0" res="-2.2516025602817535e-01" rms="4.4643348455429077e-01" purity="2.7483972907066345e-01" nType="0">
          <Node pos="l" depth="2" NCoef="0" IVar="-1" Cut="0.0000000000000000e+00" cType="1" res="-2.3749999701976776e-02" rms="4.8569378256797791e-01" purity="3.8124999403953552e-01" nType="-99"/>
          <Node pos="r" depth="2" NCoef="0" IVar="-1" Cut="0.0000000000000000e+00" cType="1" res="-6.7434214055538177e-02" rms="3.6920952796936035e-01" purity="1.6282895207405090e-01" nType="-99"/>
        </Node>
      </Node>
    </BinaryTree>
    <BinaryTree type="DecisionTree" boostWeight="1.0000000000000000e+00" itree="1">
      <Node pos="s" depth="0" NCoef="0" IVar="9" Cut="6.1948376893997192e-01" cType="0" res="-7.1170045994222164e-03" rms="4.9146676063537598e-01" purity="4.9162417650222778e-01" nType="0">
        <Node pos="l" depth="1" NCoef="0" IVar="-1" Cut="0.0000000000000000e+00" cType="1" res="4.1003238409757614e-02" rms="4.4734290242195129e-01" purity="7.2334802150726318e-01" nType="-99"/>
        <Node pos="r" depth="1" NCoef="0" IVar="9" Cut="-3.7990337610244751e-01" cType="0" res="-1.5637126564979553e-01" rms="4.6564772725105286e-01" purity="3.2836747169494629e-01" nType="0">
          <Node pos="l" depth="2" NCoef="0" IVar="-1" Cut="0.0000000000000000e+00" cType="1" res="-1.2340502813458443e-02" rms="4.9480944871902466e-01" purity="4.3682309985160828e-01" nType="-99"/>
          <Node pos="r" depth="2" NCoef="0" IVar="-1" Cut="0.0000000000000000e+00" cType="1" res="-5.1655758172273636e-02" rms="4.0895670652389526e-01" purity="2.1282051503658295e-01" nType="-99"/>
        </Node>
      </Node>
    </BinaryTree>
    <BinaryTree type="DecisionTree" boostWeight="1.0000000000000000e+00" itree="2">
      <Node pos="s" depth="0" NCoef="0" IVar="9" Cut="1.4475592970848083e-01" cType="0" res="-1.0225034784525633e-03" rms="4.8360240459442139e-01" purity="4.9888309836387634e-01" nType="0">
        <Node pos="l" depth="1" NCoef="0" IVar="-1" Cut="0.0000000000000000e+00" cType="1" res="2.8366312384605408e-02" rms="4.6742141246795654e-01" purity="6.7019951343536377e-01" nType="-99"/>
        <Node pos="r" depth="1" NCoef="0" IVar="2" Cut="5.3153713226318359e+01" cType="0" res="-2.1180965006351471e-01" rms="4.2694371938705444e-01" purity="2.4491682648658752e-01" nType="0">
          <Node pos="l" depth="2" NCoef="0" IVar="-1" Cut="0.0000000000000000e+00" cType="1" res="-1.1359871365129948e-02" rms="4.8550105094909668e-01" purity="4.0109890699386597e-01" nType="-99"/>
          <Node pos="r" depth="2" NCoef="0" IVar="-1" Cut="0.0000000000000000e+00" cType="1" res="-4.9090482294559479e-02" rms="4.0693649649620056e-01" purity="2.1333333849906921e-01" nType="-99"/>
        </Node>
      </Node>
    </BinaryTree>
    <BinaryTree type="DecisionTree" boostWeight="1.0000000000000000e+00" itree="3">
      <Node pos="s" depth="0" NCoef="0" IVar="5" Cut="-4.9238550662994385e-01" cType="0" res="5.7416078634560108e-03" rms="4.7856715321540833e-01" purity="5.0511556863784790e-01" nType="0">
        <Node pos="l" depth="1" NCoef="0" IVar="-1" Cut="0.0000000000000000e+00" cType="1" res="3.3956363797187805e-02" rms="4.4428488612174988e-01" purity="6.7983871698379517e-01" nType="-99"/>
        <Node pos="r" depth="1" NCoef="0" IVar="1" Cut="6.3351190090179443e-01" cType="0" res="-1.3792024552822113e-01" rms="4.6167567372322083e-01" purity="3.5025018453598022e-01" nType="0">
          <Node pos="l" depth="2" NCoef="0" IVar="-1" Cut="0.0000000000000000e+00" cType="1" res="-6.9844177924096584e-03" rms="4.8396819829940796e-01" purity="4.6648794412612915e-01" nType="-99"/>
          <Node pos="r" depth="2" NCoef="0" IVar="-1" Cut="0.0000000000000000e+00" cType="1" res="-5.1985275000333786e-02" rms="4.0360048413276672e-01" purity="2.1745789051055908e-01" nType="-99"/>
        </Node>
      </Node>
    </BinaryTree>
    <BinaryTree type="DecisionTree" boostWeight="1.0000000000000000e+00" itree="4">
      <Node pos="s" depth="0" NCoef="0" IVar="9" Cut="8.0933636426925659e-01" cType="0" res="1.5786417061462998e-03" rms="4.7275468707084656e-01" purity="5.0113463401794434e-01" nType="0">
        <Node pos="l" depth="1" NCoef="0" IVar="-1" Cut="0.0000000000000000e+00" cType="1" res="4.2916312813758850e-02" rms="4.1545411944389343e-01" purity="7.7039629220962524e-01" nType="-99"/>
        <Node pos="r" depth="1" NCoef="0" IVar="5" Cut="-7.4797582626342773e-01" cType="0" res="-9.9222078919410706e-02" rms="4.6544143557548523e-01" purity="3.7178051471710205e-01" nType="0">
          <Node pos="l" depth="2" NCoef="0" IVar="-1" Cut="0.0000000000000000e+00" cType="1" res="1.2626731768250465e-03" rms="4.8312744498252869e-01" purity="4.9941384792327881e-01" nType="-99"/>
          <Node pos="r" depth="2" NCoef="0" IVar="-1" Cut="0.0000000000000000e+00" cType="1" res="-3.9948921650648117e-02" rms="4.2641788721084595e-01" purity="2.5509110093116760e-01" nType="-99"/>
        </Node>
      </Node>
    </BinaryTree>
    <BinaryTree type="DecisionTree" boostWeight="1.0000000000000000e+00" itree="5">
      <Node pos="s" depth="0" NCoef="0" IVar="9" Cut="-4.4833149760961533e-02" cType="0" res="1.3132635504007339e-03" rms="4.6778011322021484e-01" purity="5.0172615051269531e-01" nType="0">
        <Node pos="l" depth="1" NCoef="0" IVar="-1" Cut="0.0000000000000000e+00" cType="1" res="2.0339298993349075e-02" rms="4.6363893151283264e-01" purity="6.4677804708480835e-01" nType="-99"/>
        <Node pos="r" depth="1" NCoef="0" IVar="9" Cut="-4.9724453687667847e-01" cType="0" res="-1.7625848948955536e-01" rms="4.2037448287010193e-01" purity="2.4060150980949402e-01" nType="0">
          <Node pos="l" depth="2" NCoef="0" IVar="-1" Cut="0.0000000000000000e+00" cType="1" res="-1.7092226073145866e-02" rms="4.7348505258560181e-01" purity="3.5958904027938843e-01" nType="-99"/>
          <Node pos="r" depth="2" NCoef="0" IVar="-1" Cut="0.0000000000000000e+00" cType="1" res="-4.5454997569322586e-02" rms="3.8648188114166260e-01" purity="1.8622848391532898e-01" nType="-99"/>
        </Node>
      </Node>
    </BinaryTree>
    <BinaryTree type="DecisionTree" boostWeight="1.0000000000000000e+00" itree="6">
      <Node pos="s" depth="0" NCoef="0" IVar="9" Cut="6.1954790353775024e-01" cType="0" res="3.2907167915254831e-03" rms="4.6185865998268127e-01" purity="5.0336068868637085e-01" nType="0">
        <Node pos="l" depth="1" NCoef="0" IVar="-1" Cut="0.0000000000000000e+00" cType="1" res="3.3148899674415588e-02" rms="4.2965945601463318e-01" purity="7.4392360448837280e-01" nType="-99"/>
        <Node pos="r" depth="1" NCoef="0" IVar="5" Cut="-5.8591634035110474e-01" cType="0" res="-1.1566941440105438e-01" rms="4.4954061508178711e-01" purity="3.2175621390342712e-01" nType="0">
          <Node pos="l" depth="2" NCoef="0" IVar="-1" Cut="0.0000000000000000e+00" cType="1" res="-4.3521709740161896e-03" rms="4.7997373342514038e-01" purity="4.5135566592216492e-01" nType="-99"/>
          <Node pos="r" depth="2" NCoef="0" IVar="-1" Cut="0.0000000000000000e+00" cType="1" res="-3.7895388901233673e-02" rms="4.1453748941421509e-01" purity="2.3136818408966064e-01" nType="-99"/>
        </Node>
      </Node>
    </BinaryTree>
    <BinaryTree type="DecisionTree" boostWeight="1.0000000000000000e+00" itree="7">
      <Node pos="s" depth="0" NCoef="0" IVar="6" Cut="-9.8260515928268433e-01" cType="0" res="-5.0634192302823067e-03" rms="4.6177113056182861e-01" purity="4.9607768654823303e-01" nType="0">
        <Node pos="l" depth="1" NCoef="0" IVar="-1" Cut="0.0000000000000000e+00" cType="1" res="1.8405409529805183e-02" rms="4.5033559203147888e-01" purity="6.1846351623535156e-01" nType="-99"/>
        <Node pos="r" depth="1" NCoef="0" IVar="2" Cut="4.3812179565429688e+01" cType="0" res="-1.3391771912574768e-01" rms="4.4593906402587891e-01" purity="3.2801419496536255e-01" nType="0">
          <Node pos="l" depth="2" NCoef="0" IVar="-1" Cut="0.0000000000000000e+00" cType="1" res="-3.9571011438965797e-03" rms="4.6925330162048340e-01" purity="4.6015936136245728e-01" nType="-99"/>
          <Node pos="r" depth="2" NCoef="0" IVar="-1" Cut="0.0000000000000000e+00" cType="1" res="-4.7437638044357300e-02" rms="4.0333205461502075e-01" purity="2.2204472124576569e-01" nType="-99"/>
        </Node>
      </Node>
    </BinaryTree>
    <BinaryTree type="DecisionTree" boostWeight="1.0000000000000000e+00" itree="8">
      <Node pos="s" depth="0" NCoef="0" IVar="9" Cut="7.1464520692825317e-01" cType="0" res="3.8989630993455648e-03" rms="4.5775568485260010e-01" purity="5.0092011690139771e-01" nType="0">
        <Node pos="l" depth="1" NCoef="0" IVar="-1" Cut="0.0000000000000000e+00" cType="1" res="3.0924290418624878e-02" rms="4.2201912403106689e-01" purity="7.5098812580108643e-01" nType="-99"/>
        <Node pos="r" depth="1" NCoef="0" IVar="2" Cut="4.0088703155517578e+01" cType="0" res="-8.1363297998905182e-02" rms="4.5681950449943542e-01" purity="3.5249266028404236e-01" nType="0">
          <Node pos="l" depth="2" NCoef="0" IVar="-1" Cut="0.0000000000000000e+00" cType="1" res="8.7667908519506454e-04" rms="4.7422590851783752e-01" purity="4.5007032155990601e-01" nType="-99"/>
          <Node pos="r" depth="2" NCoef="0" IVar="-1" Cut="0.0000000000000000e+00" cType="1" res="-2.9940931126475334e-02" rms="4.3371033668518066e-01" purity="2.8269618749618530e-01" nType="-99"/>
        </Node>
      </Node>
    </BinaryTree>
    <BinaryTree type="DecisionTree" boostWeight="1.0000000000000000e+00" itree="9">
      <Node pos="s" depth="0" NCoef="0" IVar="9" Cut="2.3978324234485626e-01" cType="0" res="-1.9898903556168079e-03" rms="4.5283252000808716e-01" purity="4.9908256530761719e-01" nType="0">
        <Node pos="l" depth="1" NCoef="0" IVar="-1" Cut="0.0000000000000000e+00" cType="1" res="1.9029216840863228e-02" rms="4.5118418335914612e-01" purity="6.7836254835128784e-01" nType="-99"/>
        <Node pos="r" depth="1" NCoef="0" IVar="9" Cut="-4.6569895744323730e-01" cType="0" res="-1.2255366146564484e-01" rms="4.2573902010917664e-01" purity="2.6644182205200195e-01" nType="0">
          <Node pos="l" depth="2" NCoef="0" IVar="-1" Cut="0.0000000000000000e+00" cType="1" res="-7.5174118392169476e-03" rms="4.7469151020050049e-01" purity="3.9314517378807068e-01" nType="-99"/>
          <Node pos="r" depth="2" NCoef="0" IVar="-1" Cut="0.0000000000000000e+00" cType="1" res="-4.0352217853069305e-02" rms="3.7471711635589600e-01" purity="1.7536231875419617e-01" nType="-99"/>
        </Node>
      </Node>
    </BinaryTree>
    <BinaryTree type="DecisionTree" boostWeight="1.0000000000000000e+00" itree="10">
      <Node pos="s" depth="0" NCoef="0" IVar="6" Cut="-1.4173678159713745e+00" cType="0" res="-2.4835562799125910e-03" rms="4.4863781332969666e-01" purity="4.9905979633331299e-01" nType="0">
        <Node pos="l" depth="1" NCoef="0" IVar="-1" Cut="0.0000000000000000e+00" cType="1" res="1.4970311895012856e-02" rms="4.4435799121856689e-01" purity="6.0571116209030151e-01" nType="-99"/>
        <Node pos="r" depth="1" NCoef="0" IVar="2" Cut="6.2469894409179688e+01" cType="0" res="-1.6126005351543427e-01" rms="4.1565567255020142e-01" purity="2.6730310916900635e-01" nType="0">
          <Node pos="l" depth="2" NCoef="0" IVar="-1" Cut="0.0000000000000000e+00" cType="1" res="7.2300862520933151e-03" rms="4.5520120859146118e-01" purity="5.1094889640808105e-01" nType="-99"/>
          <Node pos="r" depth="2" NCoef="0" IVar="-1" Cut="0.0000000000000000e+00" cType="1" res="-4.3246619403362274e-02" rms="3.9637079834938049e-01" purity="2.1968616545200348e-01" nType="-99"/>
        </Node>
      </Node>
    </BinaryTree>
    <BinaryTree type="DecisionTree" boostWeight="1.0000000000000000e+00" itree="11">
      <Node pos="s" depth="0" NCoef="0" IVar="6" Cut="-1.1142046451568604e+00" cType="0" res="2.0079805981367826e-03" rms="4.4704583287239075e-01" purity="5.0256788730621338e-01" nType="0">
        <Node pos="l" depth="1" NCoef="0" IVar="-1" Cut="0.0000000000000000e+00" cType="1" res="1.6203669831156731e-02" rms="4.4111141562461853e-01" purity="6.2131917476654053e-01" nType="-99"/>
        <Node pos="r" depth="1" NCoef="0" IVar="1" Cut="8.6101549863815308e-01" cType="0" res="-1.2081626802682877e-01" rms="4.2934465408325195e-01" purity="3.0642023682594299e-01" nType="0">
          <Node pos="l" depth="2" NCoef="0" IVar="-1" Cut="0.0000000000000000e+00" cType="1" res="5.9579059481620789e-02" rms="3.3720993995666504e-01" purity="8.0000001192092896e-01" nType="-99"/>
          <Node pos="r" depth="2" NCoef="0" IVar="-1" Cut="0.0000000000000000e+00" cType="1" res="-3.0359935015439987e-02" rms="4.2391708493232727e-01" purity="2.8382503986358643e-01" nType="-99"/>
        </Node>
      </Node>
    </BinaryTree>
    <BinaryTree type="DecisionTree" boostWeight="1.0000000000000000e+00" itree="12">
      <Node pos="s" depth="0" NCoef="0" IVar="7" Cut="-2.3882024288177490e+00" cType="0" res="6.2650018371641636e-03" rms="4.4567978382110596e-01" purity="5.0520831346511841e-01" nType="0">
        <Node pos="l" depth="1" NCoef="0" IVar="-1" Cut="0.0000000000000000e+00" cType="1" res="2.5226678699254990e-02" rms="4.2522147297859192e-01" purity="6.8574023246765137e-01" nType="-99"/>
        <Node pos="r" depth="1" NCoef="0" IVar="2" Cut="4.3819175720214844e+01" cType="0" res="-7.1334317326545715e-02" rms="4.4304624199867249e-01" purity="3.7996220588684082e-01" nType="0">
          <Node pos="l" depth="2" NCoef="0" IVar="-1" Cut="0.0000000000000000e+00" cType="1" res="4.8099015839397907e-03" rms="4.5748698711395264e-01" purity="5.1457726955413818e-01" nType="-99"/>
          <Node pos="r" depth="2" NCoef="0" IVar="-1" Cut="0.0000000000000000e+00" cType="1" res="-3.1302545219659805e-02" rms="4.1779786348342896e-01" purity="2.7746948599815369e-01" nType="-99"/>
        </Node>
      </Node>
    </BinaryTree>
    <BinaryTree type="DecisionTree" boostWeight="1.0000000000000000e+00" itree="13">
      <Node pos="s" depth="0" NCoef="0" IVar="9" Cut="8.0933636426925659e-01" cType="0" res="4.0308493189513683e-03" rms="4.4173061847686768e-01" purity="5.0365525484085083e-01" nType="0">
        <Node pos="l" depth="1" NCoef="0" IVar="-1" Cut="0.0000000000000000e+00" cType="1" res="2.9322668910026550e-02" rms="3.9962849020957947e-01" purity="7.7464789152145386e-01" nType="-99"/>
        <Node pos="r" depth="1" NCoef="0" IVar="3" Cut="8.6313366889953613e-01" cType="0" res="-5.9287428855895996e-02" rms="4.4740533828735352e-01" purity="3.7149399518966675e-01" nType="0">
          <Node pos="l" depth="2" NCoef="0" IVar="-1" Cut="0.0000000000000000e+00" cType="1" res="-5.2172802388668060e-03" rms="4.5449936389923096e-01" purity="4.1040056943893433e-01" nType="-99"/>
          <Node pos="r" depth="2" NCoef="0" IVar="-1" Cut="0.0000000000000000e+00" cType="1" res="-4.6435307711362839e-02" rms="3.7800902128219604e-01" purity="2.0061728358268738e-01" nType="-99"/>
        </Node>
      </Node>
    </BinaryTree>
    <BinaryTree type="DecisionTree" boostWeight="1.0000000000000000e+00" itree="14">
      <Node pos="s" depth="0" NCoef="0" IVar="2" Cut="4.7595157623291016e+01" cType="0" res="-1.4000270748510957e-03" rms="4.4261556863784790e-01" purity="4.9701714515686035e-01" nType="0">
        <Node pos="l" depth="1" NCoef="0" IVar="-1" Cut="0.0000000000000000e+00" cType="1" res="2.4518961086869240e-02" rms="4.1586491465568542e-01" purity="6.5427929162979126e-01" nType="-99"/>
        <Node pos="r" depth="1" NCoef="0" IVar="7" Cut="-1.4352712631225586e+00" cType="0" res="-5.8091558516025543e-02" rms="4.4448721408843994e-01" purity="4.1917502880096436e-01" nType="0">
          <Node pos="l" depth="2" NCoef="0" IVar="-1" Cut="0.0000000000000000e+00" cType="1" res="1.0996534489095211e-02" rms="4.4564682245254517e-01" purity="6.2975776195526123e-01" nType="-99"/>
          <Node pos="r" depth="2" NCoef="0" IVar="-1" Cut="0.0000000000000000e+00" cType="1" res="-2.4213708937168121e-02" rms="4.3444910645484924e-01" purity="3.1907895207405090e-01" nType="-99"/>
        </Node>
      </Node>
    </BinaryTree>
    <BinaryTree type="DecisionTree" boostWeight="1.0000000000000000e+00" itree="15">
      <Node pos="s" depth="0" NCoef="0" IVar="1" Cut="8.0547261238098145e-01" cType="0" res="8.4952283650636673e-03" rms="4.3844357132911682e-01" purity="5.0899082422256470e-01" nType="0">
        <Node pos="l" depth="1" NCoef="0" IVar="-1" Cut="0.0000000000000000e+00" cType="1" res="4.2813658714294434e-02" rms="3.7131211161613464e-01" purity="7.8390806913375854e-01" nType="-99"/>
        <Node pos="r" depth="1" NCoef="0" IVar="0" Cut="3.4285714626312256e+00" cType="0" res="-2.6908500120043755e-02" rms="4.4125604629516602e-01" purity="4.5676857233047485e-01" nType="0">
          <Node pos="l" depth="2" NCoef="0" IVar="-1" Cut="0.0000000000000000e+00" cType="1" res="3.0216751620173454e-03" rms="4.4239065051078796e-01" purity="5.1447659730911255e-01" nType="-99"/>
          <Node pos="r" depth="2" NCoef="0" IVar="-1" Cut="0.0000000000000000e+00" cType="1" res="-3.9097655564546585e-02" rms="4.0384706854820251e-01" purity="2.4696356058120728e-01" nType="-99"/>
        </Node>
      </Node>
    </BinaryTree>
    <BinaryTree type="DecisionTree" boostWeight="1.0000000000000000e+00" itree="16">
      <Node pos="s" depth="0" NCoef="0" IVar="9" Cut="1.4565101265907288e-01" cType="0" res="4.7907512634992599e-03" rms="4.3580833077430725e-01" purity="5.0884455442428589e-01" nType="0">
        <Node pos="l" depth="1" NCoef="0" IVar="-1" Cut="0.0000000000000000e+00" cType="1" res="1.6223931685090065e-02" rms="4.3147861957550049e-01" purity="6.7931687831878662e-01" nType="-99"/>
        <Node pos="r" depth="1" NCoef="0" IVar="9" Cut="-5.0644439458847046e-01" cType="0" res="-9.7924768924713135e-02" rms="4.2156308889389038e-01" purity="2.5836431980133057e-01" nType="0">
          <Node pos="l" depth="2" NCoef="0" IVar="-1" Cut="0.0000000000000000e+00" cType="1" res="-9.2857722193002701e-03" rms="4.5955729484558105e-01" purity="3.6080178618431091e-01" nType="-99"/>
          <Node pos="r" depth="2" NCoef="0" IVar="-1" Cut="0.0000000000000000e+00" cType="1" res="-3.2066598534584045e-02" rms="3.8745361566543579e-01" purity="1.8500797450542450e-01" nType="-99"/>
        </Node>
      </Node>
    </BinaryTree>
    <BinaryTree type="DecisionTree" boostWeight="1.0000000000000000e+00" itree="17">
      <Node pos="s" depth="0" NCoef="0" IVar="1" Cut="6.0955762863159180e-01" cType="0" res="1.2277939822524786e-03" rms="4.3350246548652649e-01" purity="5.0260031223297119e-01" nType="0">
        <Node pos="l" depth="1" NCoef="0" IVar="-1" Cut="0.0000000000000000e+00" cType="1" res="1.1476030573248863e-02" rms="4.3446424603462219e-01" purity="5.8769065141677856e-01" nType="-99"/>
        <Node pos="r" depth="1" NCoef="0" IVar="7" Cut="3.8447983562946320e-02" cType="0" res="-1.0777317732572556e-01" rms="4.1074723005294800e-01" purity="3.2009345293045044e-01" nType="0">
          <Node pos="l" depth="2" NCoef="0" IVar="-1" Cut="0.0000000000000000e+00" cType="1" res="5.2971433848142624e-02" rms="3.2311317324638367e-01" purity="8.6440676450729370e-01" nType="-99"/>
          <Node pos="r" depth="2" NCoef="0" IVar="-1" Cut="0.0000000000000000e+00" cType="1" res="-3.0327381566166878e-02" rms="4.0499722957611084e-01" purity="2.7979925274848938e-01" nType="-99"/>
        </Node>
      </Node>
    </BinaryTree>
    <BinaryTree type="DecisionTree" boostWeight="1.0000000000000000e+00" itree="18">
      <Node pos="s" depth="0" NCoef="0" IVar="5" Cut="-4.9090275168418884e-01" cType="0" res="-1.0073546320199966e-02" rms="4.3466597795486450e-01" purity="4.9375709891319275e-01" nType="0">
        <Node pos="l" depth="1" NCoef="0" IVar="-1" Cut="0.0000000000000000e+00" cType="1" res="1.5991158783435822e-02" rms="4.2379727959632874e-01" purity="6.5940272808074951e-01" nType="-99"/>
        <Node pos="r" depth="1" NCoef="0" IVar="3" Cut="8.7772166728973389e-01" cType="0" res="-8.2752130925655365e-02" rms="4.3116191029548645e-01" purity="3.4757834672927856e-01" nType="0">
          <Node pos="l" depth="2" NCoef="0" IVar="-1" Cut="0.0000000000000000e+00" cType="1" res="-7.2534242644906044e-03" rms="4.3660676479339600e-01" purity="3.8871139287948608e-01" nType="-99"/>
          <Node pos="r" depth="2" NCoef="0" IVar="-1" Cut="0.0000000000000000e+00" cType="1" res="-4.1086710989475250e-02" rms="4.0098977088928223e-01" purity="2.6451611518859863e-01" nType="-99"/>
        </Node>
      </Node>
    </BinaryTree>
    <BinaryTree type="DecisionTree" boostWeight="1.0000000000000000e+00" itree="19">
      <Node pos="s" depth="0" NCoef="0" IVar="7" Cut="-1.1068804264068604e+00" cType="0" res="3.1785680912435055e-03" rms="4.3145832419395447e-01" purity="5.0883793830871582e-01" nType="0">
        <Node pos="l" depth="1" NCoef="0" IVar="-1" Cut="0.0000000000000000e+00" cType="1" res="2.9790941625833511e-02" rms="3.8122007250785828e-01" purity="7.6503497362136841e-01" nType="-99"/>
        <Node pos="r" depth="1" NCoef="0" IVar="2" Cut="4.3772842407226562e+01" cType="0" res="-4.3836537748575211e-02" rms="4.3926334381103516e-01" purity="4.1460904479026794e-01" nType="0">
          <Node pos="l" depth="2" NCoef="0" IVar="-1" Cut="0.0000000000000000e+00" cType="1" res="6.9919759407639503e-03" rms="4.4408616423606873e-01" purity="5.5238097906112671e-01" nType="-99"/>
          <Node pos="r" depth="2" NCoef="0" IVar="-1" Cut="0.0000000000000000e+00" cType="1" res="-2.3073775693774223e-02" rms="4.2663869261741638e-01" purity="3.0978259444236755e-01" nType="-99"/>
        </Node>
      </Node>
    </BinaryTree>
    <BinaryTree type="DecisionTree" boostWeight="1.0000000000000000e+00" itree="20">
      <Node pos="s" depth="0" NCoef="0" IVar="9" Cut="9.0430331230163574e-01" cType="0" res="-5.0292019732296467e-03" rms="4.3061444163322449e-01" purity="4.9419257044792175e-01" nType="0">
        <Node pos="l" depth="1" NCoef="0" IVar="-1" Cut="0.0000000000000000e+00" cType="1" res="2.7793513610959053e-02" rms="3.7547633051872253e-01" purity="7.9672133922576904e-01" nType="-99"/>
        <Node pos="r" depth="1" NCoef="0" IVar="2" Cut="4.0122844696044922e+01" cType="0" res="-4.1814252734184265e-02" rms="4.3894869089126587e-01" purity="4.0456533432006836e-01" nType="0">
          <Node pos="l" depth="2" NCoef="0" IVar="-1" Cut="0.0000000000000000e+00" cType="1" res="4.7227479517459869e-03" rms="4.4814246892929077e-01" purity="5.1201671361923218e-01" nType="-99"/>
          <Node pos="r" depth="2" NCoef="0" IVar="-1" Cut="0.0000000000000000e+00" cType="1" res="-2.2135261446237564e-02" rms="4.2316558957099915e-01" purity="3.1125226616859436e-01" nType="-99"/>
        </Node>
      </Node>
    </BinaryTree>
    <BinaryTree type="DecisionTree" boostWeight="1.0000000000000000e+00" itree="21">
      <Node pos="s" depth="0" NCoef="0" IVar="2" Cut="3.4517959594726562e+01" cType="0" res="-8.4930732846260071e-03" rms="4.2502939701080322e-01" purity="4.9484157562255859e-01" nType="0">
        <Node pos="l" depth="1" NCoef="0" IVar="-1" Cut="0.0000000000000000e+00" cType="1" res="8.0077955499291420e-03" rms="4.2424193024635315e-01" purity="5.7055836915969849e-01" nType="-99"/>
        <Node pos="r" depth="1" NCoef="0" IVar="3" Cut="9.2357605695724487e-01" cType="0" res="-1.2463713437318802e-01" rms="4.0476769208908081e-01" purity="2.9435482621192932e-01" nType="0">
          <Node pos="l" depth="2" NCoef="0" IVar="-1" Cut="0.0000000000000000e+00" cType="1" res="-1.7605002969503403e-02" rms="4.1814166307449341e-01" purity="3.5412025451660156e-01" nType="-99"/>
          <Node pos="r" depth="2" NCoef="0" IVar="-1" Cut="0.0000000000000000e+00" cType="1" res="-4.6541646122932434e-02" rms="3.7123921513557434e-01" purity="2.0338982343673706e-01" nType="-99"/>
        </Node>
      </Node>
    </BinaryTree>
    <BinaryTree type="DecisionTree" boostWeight="1.0000000000000000e+00" itree="22">
      <Node pos="s" depth="0" NCoef="0" IVar="9" Cut="-5.1961719989776611e-01" cType="0" res="1.5079325065016747e-02" rms="4.2450404167175293e-01" purity="5.1803278923034668e-01" nType="0">
        <Node pos="l" depth="1" NCoef="0" IVar="-1" Cut="0.0000000000000000e+00" cType="1" res="1.2023782357573509e-02" rms="4.2982420325279236e-01" purity="6.1985814571380615e-01" nType="-99"/>
        <Node pos="r" depth="1" NCoef="0" IVar="7" Cut="-8.1583185195922852e+00" cType="0" res="-1.1507549136877060e-01" rms="3.7809869647026062e-01" purity="1.7619048058986664e-01" nType="0">
          <Node pos="l" depth="2" NCoef="0" IVar="-1" Cut="0.0000000000000000e+00" cType="1" res="-2.3749554529786110e-02" rms="4.0029394626617432e-01" purity="2.0250521600246429e-01" nType="-99"/>
          <Node pos="r" depth="2" NCoef="0" IVar="-1" Cut="0.0000000000000000e+00" cType="1" res="-4.5691680163145065e-02" rms="2.8881752490997314e-01" purity="9.2715233564376831e-02" nType="-99"/>
        </Node>
      </Node>
    </BinaryTree>
    <BinaryTree type="DecisionTree" boostWeight="1.0000000000000000e+00" itree="23">
      <Node pos="s" depth="0" NCoef="0" IVar="5" Cut="-2.0471014976501465e+00" cType="0" res="2.2287443280220032e-03" rms="4.2905014753341675e-01" purity="5.0791311264038086e-01" nType="0">
        <Node pos="l" depth="1" NCoef="0" IVar="-1" Cut="0.0000000000000000e+00" cType="1" res="8.4528336301445961e-03" rms="4.2912355065345764e-01" purity="5.7307517528533936e-01" nType="-99"/>
        <Node pos="r" depth="1" NCoef="0" IVar="2" Cut="7.1208053588867188e+01" cType="0" res="-1.3550572097301483e-01" rms="4.0008869767189026e-01" purity="2.5000000000000000e-01" nType="0">
          <Node pos="l" depth="2" NCoef="0" IVar="-1" Cut="0.0000000000000000e+00" cType="1" res="9.7593814134597778e-03" rms="4.5727023482322693e-01" purity="5.3246754407882690e-01" nType="-99"/>
          <Node pos="r" depth="2" NCoef="0" IVar="-1" Cut="0.0000000000000000e+00" cType="1" res="-3.9192564785480499e-02" rms="3.8190549612045288e-01" purity="2.0382165908813477e-01" nType="-99"/>
        </Node>
      </Node>
    </BinaryTree>
    <BinaryTree type="DecisionTree" boostWeight="1.0000000000000000e+00" itree="24">
      <Node pos="s" depth="0" NCoef="0" IVar="1" Cut="7.9003763198852539e-01" cType="0" res="5.7337153702974319e-03" rms="4.2492604255676270e-01" purity="5.0898206233978271e-01" nType="0">
        <Node pos="l" depth="1" NCoef="0" IVar="-1" Cut="0.0000000000000000e+00" cType="1" res="3.2218366861343384e-02" rms="3.7695750594139099e-01" purity="7.5384616851806641e-01" nType="-99"/>
        <Node pos="r" depth="1" NCoef="0" IVar="3" Cut="8.9319032430648804e-01" cType="0" res="-2.6366380974650383e-02" rms="4.2960676550865173e-01" purity="4.4981414079666138e-01" nType="0">
          <Node pos="l" depth="2" NCoef="0" IVar="-1" Cut="0.0000000000000000e+00" cType="1" res="2.9016532935202122e-03" rms="4.2620274424552917e-01" purity="5.0126582384109497e-01" nType="-99"/>
          <Node pos="r" depth="2" NCoef="0" IVar="-1" Cut="0.0000000000000000e+00" cType="1" res="-3.1155304983258247e-02" rms="4.2053148150444031e-01" purity="3.0769231915473938e-01" nType="-99"/>
        </Node>
      </Node>
    </BinaryTree>
    <BinaryTree type="DecisionTree" boostWeight="1.0000000000000000e+00" itree="25">
      <Node pos="s" depth="0" NCoef="0" IVar="9" Cut="6.1954581737518311e-01" cType="0" res="1.1345878010615706e-03" rms="4.2336907982826233e-01" purity="5.0610882043838501e-01" nType="0">
        <Node pos="l" depth="1" NCoef="0" IVar="-1" Cut="0.0000000000000000e+00" cType="1" res="1.6837948933243752e-02" rms="4.0165379643440247e-01" purity="7.4149662256240845e-01" nType="-99"/>
        <Node pos="r" depth="1" NCoef="0" IVar="1" Cut="7.9970675706863403e-01" cType="0" res="-5.3273536264896393e-02" rms="4.3157610297203064e-01" purity="3.2459017634391785e-01" nType="0">
          <Node pos="l" depth="2" NCoef="0" IVar="-1" Cut="0.0000000000000000e+00" cType="1" res="1.6464555636048317e-02" rms="4.7059109807014465e-01" purity="5.5688625574111938e-01" nType="-99"/>
          <Node pos="r" depth="2" NCoef="0" IVar="-1" Cut="0.0000000000000000e+00" cType="1" res="-1.6176301985979080e-02" rms="4.2376255989074707e-01" purity="2.9602357745170593e-01" nType="-99"/>
        </Node>
      </Node>
    </BinaryTree>
    <BinaryTree type="DecisionTree" boostWeight="1.0000000000000000e+00" itree="26">
      <Node pos="s" depth="0" NCoef="0" IVar="0" Cut="3.3809523582458496e+00" cType="0" res="-8.0713909119367599e-04" rms="4.2194607853889465e-01" purity="5.0300300121307373e-01" nType="0">
        <Node pos="l" depth="1" NCoef="0" IVar="-1" Cut="0.0000000000000000e+00" cType="1" res="7.2041922248899937e-03" rms="4.2154151201248169e-01" purity="5.6384974718093872e-01" nType="-99"/>
        <Node pos="r" depth="1" NCoef="0" IVar="8" Cut="4.7427334785461426e+00" cType="0" res="-1.2761142849922180e-01" rms="3.9911040663719177e-01" purity="2.6029962301254272e-01" nType="0">
          <Node pos="l" depth="2" NCoef="0" IVar="-1" Cut="0.0000000000000000e+00" cType="1" res="2.2661793977022171e-02" rms="4.6132948994636536e-01" purity="3.2608696818351746e-01" nType="-99"/>
          <Node pos="r" depth="2" NCoef="0" IVar="-1" Cut="0.0000000000000000e+00" cType="1" res="-3.5010218620300293e-02" rms="3.8712850213050842e-01" purity="2.5409835577011108e-01" nType="-99"/>
        </Node>
      </Node>
    </BinaryTree>
    <BinaryTree type="DecisionTree" boostWeight="1.0000000000000000e+00" itree="27">
      <Node pos="s" depth="0" NCoef="0" IVar="7" Cut="-1.6010835170745850e+00" cType="0" res="-4.2881377157755196e-04" rms="4.2058426141738892e-01" purity="5.0188392400741577e-01" nType="0">
        <Node pos="l" depth="1" NCoef="0" IVar="-1" Cut="0.0000000000000000e+00" cType="1" res="2.2260028868913651e-02" rms="3.9259088039398193e-01" purity="7.3136097192764282e-01" nType="-99"/>
        <Node pos="r" depth="1" NCoef="0" IVar="2" Cut="5.5143070220947266e+01" cType="0" res="-4.4482327997684479e-02" rms="4.2594450712203979e-01" purity="3.9469319581985474e-01" nType="0">
          <Node pos="l" depth="2" NCoef="0" IVar="-1" Cut="0.0000000000000000e+00" cType="1" res="1.4792060479521751e-02" rms="4.2663189768791199e-01" purity="6.0000002384185791e-01" nType="-99"/>
          <Node pos="r" depth="2" NCoef="0" IVar="-1" Cut="0.0000000000000000e+00" cType="1" res="-1.7665835097432137e-02" rms="4.2069092392921448e-01" purity="3.3826637268066406e-01" nType="-99"/>
        </Node>
      </Node>
    </BinaryTree>
    <BinaryTree type="DecisionTree" boostWeight="1.0000000000000000e+00" itree="28">
      <Node pos="s" depth="0" NCoef="0" IVar="0" Cut="5.1904764175415039e+00" cType="0" res="2.3085775319486856e-03" rms="4.1821908950805664e-01" purity="5.0374811887741089e-01" nType="0">
        <Node pos="l" depth="1" NCoef="0" IVar="-1" Cut="0.0000000000000000e+00" cType="1" res="2.6309845969080925e-02" rms="3.9039626717567444e-01" purity="7.1921181678771973e-01" nType="-99"/>
        <Node pos="r" depth="1" NCoef="0" IVar="1" Cut="6.7339408397674561e-01" cType="0" res="-3.0111253261566162e-02" rms="4.2066249251365662e-01" purity="4.4001942873001099e-01" nType="0">
          <Node pos="l" depth="2" NCoef="0" IVar="-1" Cut="0.0000000000000000e+00" cType="1" res="6.2716677784919739e-03" rms="4.2680275440216064e-01" purity="5.7421875000000000e-01" nType="-99"/>
          <Node pos="r" depth="2" NCoef="0" IVar="-1" Cut="0.0000000000000000e+00" cType="1" res="-2.1310729905962944e-02" rms="4.0664333105087280e-01" purity="3.0724638700485229e-01" nType="-99"/>
        </Node>
      </Node>
    </BinaryTree>
    <BinaryTree type="DecisionTree" boostWeight="1.0000000000000000e+00" itree="29">
      <Node pos="s" depth="0" NCoef="0" IVar="1" Cut="6.8132418394088745e-01" cType="0" res="6.8915169686079025e-03" rms="4.2076310515403748e-01" purity="5.0493168830871582e-01" nType="0">
        <Node pos="l" depth="1" NCoef="0" IVar="-1" Cut="0.0000000000000000e+00" cType="1" res="1.6274856403470039e-02" rms="4.1618081927299500e-01" purity="6.4446228742599487e-01" nType="-99"/>
        <Node pos="r" depth="1" NCoef="0" IVar="3" Cut="9.0829128026962280e-01" cType="0" res="-4.9427065998315811e-02" rms="4.1685640811920166e-01" purity="3.7985610961914062e-01" nType="0">
          <Node pos="l" depth="2" NCoef="0" IVar="-1" Cut="0.0000000000000000e+00" cType="1" res="-3.3425702713429928e-04" rms="4.1990000009536743e-01" purity="4.4978633522987366e-01" nType="-99"/>
          <Node pos="r" depth="2" NCoef="0" IVar="-1" Cut="0.0000000000000000e+00" cType="1" res="-3.6373540759086609e-02" rms="3.9237767457962036e-01" purity="2.3568281531333923e-01" nType="-99"/>
        </Node>
      </Node>
    </BinaryTree>
    <BinaryTree type="DecisionTree" boostWeight="1.0000000000000000e+00" itree="30">
      <Node pos="s" depth="0" NCoef="0" IVar="0" Cut="3.1428570747375488e+00" cType="0" res="2.7298694476485252e-03" rms="4.1794398427009583e-01" purity="5.1002651453018188e-01" nType="0">
        <Node pos="l" depth="1" NCoef="0" IVar="-1" Cut="0.0000000000000000e+00" cType="1" res="7.3480969294905663e-03" rms="4.1534647345542908e-01" purity="5.6982719898223877e-01" nType="-99"/>
        <Node pos="r" depth="1" NCoef="0" IVar="9" Cut="5.2292215824127197e-01" cType="0" res="-1.1740766465663910e-01" rms="4.0754324197769165e-01" purity="2.5498008728027344e-01" nType="0">
          <Node pos="l" depth="2" NCoef="0" IVar="-1" Cut="0.0000000000000000e+00" cType="1" res="-5.2738502621650696e-02" rms="4.3490689992904663e-01" purity="3.3082705736160278e-01" nType="-99"/>
          <Node pos="r" depth="2" NCoef="0" IVar="-1" Cut="0.0000000000000000e+00" cType="1" res="-1.8771216273307800e-02" rms="3.8776594400405884e-01" purity="2.2764228284358978e-01" nType="-99"/>
        </Node>
      </Node>
    </BinaryTree>
    <BinaryTree type="DecisionTree" boostWeight="1.0000000000000000e+00" itree="31">
      <Node pos="s" depth="0" NCoef="0" IVar="5" Cut="-2.1459562778472900e+00" cType="0" res="-3.4917648881673813e-03" rms="4.1863963007926941e-01" purity="5.0276041030883789e-01" nType="0">
        <Node pos="l" depth="1" NCoef="0" IVar="-1" Cut="0.0000000000000000e+00" cType="1" res="5.8216024190187454e-03" rms="4.2116340994834900e-01" purity="5.6706202030181885e-01" nType="-99"/>
        <Node pos="r" depth="1" NCoef="0" IVar="1" Cut="7.7493619918823242e-01" cType="0" res="-1.2088457494974136e-01" rms="3.8642987608909607e-01" purity="2.3428571224212646e-01" nType="0">
          <Node pos="l" depth="2" NCoef="0" IVar="-1" Cut="0.0000000000000000e+00" cType="1" res="1.8930492224171758e-03" rms="4.5770451426506042e-01" purity="5.1162791252136230e-01" nType="-99"/>
          <Node pos="r" depth="2" NCoef="0" IVar="-1" Cut="0.0000000000000000e+00" cType="1" res="-3.7291578948497772e-02" rms="3.6553800106048584e-01" purity="1.7995443940162659e-01" nType="-99"/>
        </Node>
      </Node>
    </BinaryTree>
    <BinaryTree type="DecisionTree" boostWeight="1.0000000000000000e+00" itree="32">
      <Node pos="s" depth="0" NCoef="0" IVar="6" Cut="-1.6298322677612305e+00" cType="0" res="-1.1799761094152927e-02" rms="4.1496589779853821e-01" purity="4.9142202734947205e-01" nType="0">
        <Node pos="l" depth="1" NCoef="0" IVar="-1" Cut="0.0000000000000000e+00" cType="1" res="6.4235855825245380e-03" rms="4.1995677351951599e-01" purity="5.8990877866744995e-01" nType="-99"/>
        <Node pos="r" depth="1" NCoef="0" IVar="3" Cut="9.5437526702880859e-01" cType="0" res="-1.0710987448692322e-01" rms="3.8625416159629822e-01" purity="2.5000000000000000e-01" nType="0">
          <Node pos="l" depth="2" NCoef="0" IVar="-1" Cut="0.0000000000000000e+00" cType="1" res="-8.0431597307324409e-03" rms="4.1021367907524109e-01" purity="3.2068964838981628e-01" nType="-99"/>
          <Node pos="r" depth="2" NCoef="0" IVar="-1" Cut="0.0000000000000000e+00" cType="1" res="-3.8238238543272018e-02" rms="3.6309355497360229e-01" purity="2.0638297498226166e-01" nType="-99"/>
        </Node>
      </Node>
    </BinaryTree>
    <BinaryTree type="DecisionTree" boostWeight="1.0000000000000000e+00" itree="33">
      <Node pos="s" depth="0" NCoef="0" IVar="7" Cut="-1.8829424381256104e+00" cType="0" res="-8.0273335333913565e-04" rms="4.1210144758224487e-01" purity="5.0092560052871704e-01" nType="0">
        <Node pos="l" depth="1" NCoef="0" IVar="-1" Cut="0.0000000000000000e+00" cType="1" res="1.7708817496895790e-02" rms="3.8849464058876038e-01" purity="7.1891325712203979e-01" nType="-99"/>
        <Node pos="r" depth="1" NCoef="0" IVar="0" Cut="5.2857141494750977e+00" cType="0" res="-4.1028030216693878e-02" rms="4.1908437013626099e-01" purity="3.8130733370780945e-01" nType="0">
          <Node pos="l" depth="2" NCoef="0" IVar="-1" Cut="0.0000000000000000e+00" cType="1" res="1.4195504598319530e-02" rms="4.2502239346504211e-01" purity="6.1702126264572144e-01" nType="-99"/>
          <Node pos="r" depth="2" NCoef="0" IVar="-1" Cut="0.0000000000000000e+00" cType="1" res="-1.6931211575865746e-02" rms="4.1293540596961975e-01" purity="3.1652048230171204e-01" nType="-99"/>
        </Node>
      </Node>
    </BinaryTree>
    <BinaryTree type="DecisionTree" boostWeight="1.0000000000000000e+00" itree="34">
      <Node pos="s" depth="0" NCoef="0" IVar="9" Cut="-4.4990941882133484e-02" cType="0" res="-5.4878089576959610e-03" rms="4.1026127338409424e-01" purity="4.9155089259147644e-01" nType="0">
        <Node pos="l" depth="1" NCoef="0" IVar="-1" Cut="0.0000000000000000e+00" cType="1" res="8.9664645493030548e-03" rms="4.1327658295631409e-01" purity="6.5029585361480713e-01" nType="-99"/>
        <Node pos="r" depth="1" NCoef="0" IVar="4" Cut="9.1247862577438354e-01" cType="1" res="-8.0976836383342743e-02" rms="3.9372801780700684e-01" purity="2.1582733094692230e-01" nType="0">
          <Node pos="l" depth="2" NCoef="0" IVar="-1" Cut="0.0000000000000000e+00" cType="1" res="-1.7058171331882477e-02" rms="3.9223530888557434e-01" purity="2.1951219439506531e-01" nType="-99"/>
          <Node pos="r" depth="2" NCoef="0" IVar="-1" Cut="0.0000000000000000e+00" cType="1" res="-3.4327059984207153e-02" rms="3.9274829626083374e-01" purity="2.0103092491626740e-01" nType="-99"/>
        </Node>
      </Node>
    </BinaryTree>
    <BinaryTree type="DecisionTree" boostWeight="1.0000000000000000e+00" itree="35">
      <Node pos="s" depth="0" NCoef="0" IVar="5" Cut="-1.9211487770080566e+00" cType="0" res="-2.3077070363797247e-04" rms="4.1323870420455933e-01" purity="4.9962377548217773e-01" nType="0">
        <Node pos="l" depth="1" NCoef="0" IVar="-1" Cut="0.0000000000000000e+00" cType="1" res="7.7230320312082767e-03" rms="4.1460630297660828e-01" purity="5.8105468750000000e-01" nType="-99"/>
        <Node pos="r" depth="1" NCoef="0" IVar="9" Cut="6.1584413051605225e-01" cType="0" res="-1.0845873504877090e-01" rms="3.8956773281097412e-01" purity="2.2622950375080109e-01" nType="0">
          <Node pos="l" depth="2" NCoef="0" IVar="-1" Cut="0.0000000000000000e+00" cType="1" res="-4.3101735413074493e-02" rms="4.2502206563949585e-01" purity="3.3333334326744080e-01" nType="-99"/>
          <Node pos="r" depth="2" NCoef="0" IVar="-1" Cut="0.0000000000000000e+00" cType="1" res="-1.9988918676972389e-02" rms="3.6779209971427917e-01" purity="1.8348623812198639e-01" nType="-99"/>
        </Node>
      </Node>
    </BinaryTree>
    <BinaryTree type="DecisionTree" boostWeight="1.0000000000000000e+00" itree="36">
      <Node pos="s" depth="0" NCoef="0" IVar="2" Cut="4.3772842407226562e+01" cType="0" res="1.5342346159741282e-04" rms="4.1046392917633057e-01" purity="4.9907165765762329e-01" nType="0">
        <Node pos="l" depth="1" NCoef="0" IVar="-1" Cut="0.0000000000000000e+00" cType="1" res="1.4320882968604565e-02" rms="3.9807420969009399e-01" purity="6.4493393898010254e-01" nType="-99"/>
        <Node pos="r" depth="1" NCoef="0" IVar="1" Cut="7.9875510931015015e-01" cType="0" res="-4.2543761432170868e-02" rms="4.1406866908073425e-01" purity="3.9281129837036133e-01" nType="0">
          <Node pos="l" depth="2" NCoef="0" IVar="-1" Cut="0.0000000000000000e+00" cType="1" res="1.6994230449199677e-02" rms="4.0622711181640625e-01" purity="6.5560168027877808e-01" nType="-99"/>
          <Node pos="r" depth="2" NCoef="0" IVar="-1" Cut="0.0000000000000000e+00" cType="1" res="-1.5831040218472481e-02" rms="4.1208124160766602e-01" purity="3.4472286701202393e-01" nType="-99"/>
        </Node>
      </Node>
    </BinaryTree>
    <BinaryTree type="DecisionTree" boostWeight="1.0000000000000000e+00" itree="37">
      <Node pos="s" depth="0" NCoef="0" IVar="3" Cut="8.1658256053924561e-01" cType="0" res="-6.6957143135368824e-03" rms="4.1772431135177612e-01" purity="4.9204546213150024e-01" nType="0">
        <Node pos="l" depth="1" NCoef="0" IVar="-1" Cut="0.0000000000000000e+00" cType="1" res="3.4521471243351698e-03" rms="4.1369518637657166e-01" purity="5.2323579788208008e-01" nType="-99"/>
        <Node pos="r" depth="1" NCoef="0" IVar="9" Cut="-5.1997512578964233e-01" cType="0" res="-1.5920883417129517e-01" rms="4.1558033227920532e-01" purity="2.6265823841094971e-01" nType="0">
          <Node pos="l" depth="2" NCoef="0" IVar="-1" Cut="0.0000000000000000e+00" cType="1" res="-4.5053552836179733e-02" rms="4.1522100567817688e-01" purity="2.7611941099166870e-01" nType="-99"/>
          <Node pos="r" depth="2" NCoef="0" IVar="-1" Cut="0.0000000000000000e+00" cType="1" res="1.5477279201149940e-02" rms="3.5840973258018494e-01" purity="1.8750000000000000e-01" nType="-99"/>
        </Node>
      </Node>
    </BinaryTree>
    <BinaryTree type="DecisionTree" boostWeight="1.0000000000000000e+00" itree="38">
      <Node pos="s" depth="0" NCoef="0" IVar="5" Cut="-7.4797582626342773e-01" cType="0" res="1.1276274453848600e-03" rms="4.0805011987686157e-01" purity="5.0300753116607666e-01" nType="0">
        <Node pos="l" depth="1" NCoef="0" IVar="-1" Cut="0.0000000000000000e+00" cType="1" res="1.1658788658678532e-02" rms="3.9810210466384888e-01" purity="6.5634006261825562e-01" nType="-99"/>
        <Node pos="r" depth="1" NCoef="0" IVar="3" Cut="9.3886083364486694e-01" cType="0" res="-5.0034869462251663e-02" rms="4.1260081529617310e-01" purity="3.3569180965423584e-01" nType="0">
          <Node pos="l" depth="2" NCoef="0" IVar="-1" Cut="0.0000000000000000e+00" cType="1" res="6.3750980189070106e-04" rms="4.3024900555610657e-01" purity="4.0937501192092896e-01" nType="-99"/>
          <Node pos="r" depth="2" NCoef="0" IVar="-1" Cut="0.0000000000000000e+00" cType="1" res="-2.6077078655362129e-02" rms="3.8670280575752258e-01" purity="2.6107594370841980e-01" nType="-99"/>
        </Node>
      </Node>
    </BinaryTree>
    <BinaryTree type="DecisionTree" boostWeight="1.0000000000000000e+00" itree="39">
      <Node pos="s" depth="0" NCoef="0" IVar="9" Cut="8.0941981077194214e-01" cType="0" res="-8.9684510603547096e-03" rms="4.0950569510459900e-01" purity="4.9241274595260620e-01" nType="0">
        <Node pos="l" depth="1" NCoef="0" IVar="-1" Cut="0.0000000000000000e+00" cType="1" res="1.5218040905892849e-02" rms="3.7366265058517456e-01" purity="7.7219623327255249e-01" nType="-99"/>
        <Node pos="r" depth="1" NCoef="0" IVar="2" Cut="3.2675888061523438e+01" cType="0" res="-4.1397407650947571e-02" rms="4.2184811830520630e-01" purity="3.5786515474319458e-01" nType="0">
          <Node pos="l" depth="2" NCoef="0" IVar="-1" Cut="0.0000000000000000e+00" cType="1" res="-4.9493163824081421e-03" rms="4.3809148669242859e-01" purity="4.1221374273300171e-01" nType="-99"/>
          <Node pos="r" depth="2" NCoef="0" IVar="-1" Cut="0.0000000000000000e+00" cType="1" res="-2.6382137089967728e-02" rms="3.6691462993621826e-01" purity="2.0638297498226166e-01" nType="-99"/>
        </Node>
      </Node>
    </BinaryTree>
    <BinaryTree type="DecisionTree" boostWeight="1.0000000000000000e+00" itree="40">
      <Node pos="s" depth="0" NCoef="0" IVar="9" Cut="-3.2976755499839783e-01" cType="0" res="-1.9962629303336143e-03" rms="4.1067633032798767e-01" purity="4.9793776869773865e-01" nType="0">
        <Node pos="l" depth="1" NCoef="0" IVar="-1" Cut="0.0000000000000000e+00" cType="1" res="6.6259736195206642e-03" rms="4.1625273227691650e-01" purity="6.1934804916381836e-01" nType="-99"/>
        <Node pos="r" depth="1" NCoef="0" IVar="6" Cut="-2.5739703327417374e-02" cType="1" res="-7.4970223009586334e-02" rms="3.8694074749946594e-01" purity="1.9607843458652496e-01" nType="0">
          <Node pos="l" depth="2" NCoef="0" IVar="-1" Cut="0.0000000000000000e+00" cType="1" res="-1.1832962743937969e-02" rms="3.8156673312187195e-01" purity="2.0033955574035645e-01" nType="-99"/>
          <Node pos="r" depth="2" NCoef="0" IVar="-1" Cut="0.0000000000000000e+00" cType="1" res="-4.2145211249589920e-02" rms="3.8257071375846863e-01" purity="1.8181818723678589e-01" nType="-99"/>
        </Node>
      </Node>
    </BinaryTree>
    <BinaryTree type="DecisionTree" boostWeight="1.0000000000000000e+00" itree="41">
      <Node pos="s" depth="0" NCoef="0" IVar="9" Cut="-5.1873779296875000e-01" cType="0" res="5.9285960160195827e-03" rms="4.0931358933448792e-01" purity="5.0113552808761597e-01" nType="0">
        <Node pos="l" depth="1" NCoef="0" IVar="-1" Cut="0.0000000000000000e+00" cType="1" res="7.5861932709813118e-03" rms="4.1671940684318542e-01" purity="6.0589408874511719e-01" nType="-99"/>
        <Node pos="r" depth="1" NCoef="0" IVar="5" Cut="-8.1524944305419922e-01" cType="0" res="-7.3187500238418579e-02" rms="3.7435421347618103e-01" purity="1.7343750596046448e-01" nType="0">
          <Node pos="l" depth="2" NCoef="0" IVar="-1" Cut="0.0000000000000000e+00" cType="1" res="-3.2341513782739639e-02" rms="3.8793393969535828e-01" purity="1.8799999356269836e-01" nType="-99"/>
          <Node pos="r" depth="2" NCoef="0" IVar="-1" Cut="0.0000000000000000e+00" cType="1" res="-1.0517883114516735e-02" rms="3.5935601592063904e-01" purity="1.6410256922245026e-01" nType="-99"/>
        </Node>
      </Node>
    </BinaryTree>
    <BinaryTree type="DecisionTree" boostWeight="1.0000000000000000e+00" itree="42">
      <Node pos="s" depth="0" NCoef="0" IVar="2" Cut="5.3153713226318359e+01" cType="0" res="-4.6107443049550056e-03" rms="4.1852927207946777e-01" purity="4.9885058403015137e-01" nType="0">
        <Node pos="l" depth="1" NCoef="0" IVar="-1" Cut="0.0000000000000000e+00" cType="1" res="1.6350412741303444e-02" rms="3.9752653241157532e-01" purity="6.6401273012161255e-01" nType="-99"/>
        <Node pos="r" depth="1" NCoef="0" IVar="5" Cut="8.9397996664047241e-01" cType="0" res="-2.7219120413064957e-02" rms="4.2246076464653015e-01" purity="4.4651865959167480e-01" nType="0">
          <Node pos="l" depth="2" NCoef="0" IVar="-1" Cut="0.0000000000000000e+00" cType="1" res="2.1449130028486252e-02" rms="3.7014126777648926e-01" purity="7.4736839532852173e-01" nType="-99"/>
          <Node pos="r" depth="2" NCoef="0" IVar="-1" Cut="0.0000000000000000e+00" cType="1" res="-1.1545282788574696e-02" rms="4.2782139778137207e-01" purity="3.9599293470382690e-01" nType="-99"/>
        </Node>
      </Node>
    </BinaryTree>
    <BinaryTree type="DecisionTree" boostWeight="1.0000000000000000e+00" itree="43">
      <Node pos="s" depth="0" NCoef="0" IVar="0" Cut="3.3333332538604736e+00" cType="0" res="6.1832424253225327e-03" rms="4.1119992733001709e-01" purity="5.0338858366012573e-01" nType="0">
        <Node pos="l" depth="1" NCoef="0" IVar="-1" Cut="0.0000000000000000e+00" cType="1" res="7.0551610551774502e-03" rms="4.1082450747489929e-01" purity="5.6332701444625854e-01" nType="-99"/>
        <Node pos="r" depth="1" NCoef="0" IVar="9" Cut="5.2305537462234497e-01" cType="0" res="-8.0123677849769592e-02" rms="4.0117931365966797e-01" purity="2.6851850748062134e-01" nType="0">
          <Node pos="l" depth="2" NCoef="0" IVar="-1" Cut="0.0000000000000000e+00" cType="1" res="-3.5678371787071228e-02" rms="4.4751563668251038e-01" purity="3.9473685622215271e-01" nType="-99"/>
          <Node pos="r" depth="2" NCoef="0" IVar="-1" Cut="0.0000000000000000e+00" cType="1" res="-1.4126580208539963e-02" rms="3.7731066346168518e-01" purity="2.1907216310501099e-01" nType="-99"/>
        </Node>
      </Node>
    </BinaryTree>
    <BinaryTree type="DecisionTree" boostWeight="1.0000000000000000e+00" itree="44">
      <Node pos="s" depth="0" NCoef="0" IVar="7" Cut="-3.3885695934295654e+00" cType="0" res="1.5638621698599309e-04" rms="4.0627083182334900e-01" purity="5.0292825698852539e-01" nType="0">
        <Node pos="l" depth="1" NCoef="0" IVar="-1" Cut="0.0000000000000000e+00" cType="1" res="1.1441744863986969e-02" rms="4.0152257680892944e-01" purity="6.4851123094558716e-01" nType="-99"/>
        <Node pos="r" depth="1" NCoef="0" IVar="1" Cut="8.5425788164138794e-01" cType="0" res="-4.5713275671005249e-02" rms="4.0593031048774719e-01" purity="3.5498154163360596e-01" nType="0">
          <Node pos="l" depth="2" NCoef="0" IVar="-1" Cut="0.0000000000000000e+00" cType="1" res="4.1201453655958176e-02" rms="3.3660882711410522e-01" purity="7.9310345649719238e-01" nType="-99"/>
          <Node pos="r" depth="2" NCoef="0" IVar="-1" Cut="0.0000000000000000e+00" cType="1" res="-1.4216356910765171e-02" rms="4.0598464012145996e-01" purity="3.3538934588432312e-01" nType="-99"/>
        </Node>
      </Node>
    </BinaryTree>
    <BinaryTree type="DecisionTree" boostWeight="1.0000000000000000e+00" itree="45">
      <Node pos="s" depth="0" NCoef="0" IVar="2" Cut="5.3891632080078125e+01" cType="0" res="-1.2437667697668076e-02" rms="4.1036358475685120e-01" purity="4.8546621203422546e-01" nType="0">
        <Node pos="l" depth="1" NCoef="0" IVar="-1" Cut="0.0000000000000000e+00" cType="1" res="1.6678202897310257e-02" rms="3.8126063346862793e-01" purity="6.6830867528915405e-01" nType="-99"/>
        <Node pos="r" depth="1" NCoef="0" IVar="3" Cut="9.0829128026962280e-01" cType="0" res="-3.6123745143413544e-02" rms="4.1573506593704224e-01" purity="4.3088236451148987e-01" nType="0">
          <Node pos="l" depth="2" NCoef="0" IVar="-1" Cut="0.0000000000000000e+00" cType="1" res="-2.1280902437865734e-03" rms="4.1884267330169678e-01" purity="4.8759743571281433e-01" nType="-99"/>
          <Node pos="r" depth="2" NCoef="0" IVar="-1" Cut="0.0000000000000000e+00" cType="1" res="-2.5689220055937767e-02" rms="4.0175354480743408e-01" purity="3.0365660786628723e-01" nType="-99"/>
        </Node>
      </Node>
    </BinaryTree>
    <BinaryTree type="DecisionTree" boostWeight="1.0000000000000000e+00" itree="46">
      <Node pos="s" depth="0" NCoef="0" IVar="6" Cut="-1.4173678159713745e+00" cType="0" res="3.5596336238086224e-03" rms="4.0836071968078613e-01" purity="5.0451809167861938e-01" nType="0">
        <Node pos="l" depth="1" NCoef="0" IVar="-1" Cut="0.0000000000000000e+00" cType="1" res="8.2329418510198593e-03" rms="4.1158324480056763e-01" purity="6.1092895269393921e-01" nType="-99"/>
        <Node pos="r" depth="1" NCoef="0" IVar="1" Cut="7.9348719120025635e-01" cType="0" res="-6.1434701085090637e-02" rms="3.9341261982917786e-01" purity="2.6876512169837952e-01" nType="0">
          <Node pos="l" depth="2" NCoef="0" IVar="-1" Cut="0.0000000000000000e+00" cType="1" res="1.7503196373581886e-02" rms="4.5076227188110352e-01" purity="5.9139782190322876e-01" nType="-99"/>
          <Node pos="r" depth="2" NCoef="0" IVar="-1" Cut="0.0000000000000000e+00" cType="1" res="-2.1746147423982620e-02" rms="3.8206043839454651e-01" purity="2.2783082723617554e-01" nType="-99"/>
        </Node>
      </Node>
    </BinaryTree>
    <BinaryTree type="DecisionTree" boostWeight="1.0000000000000000e+00" itree="47">
      <Node pos="s" depth="0" NCoef="0" IVar="3" Cut="7.8601294755935669e-01" cType="0" res="3.7761861458420753e-03" rms="4.0851521492004395e-01" purity="4.9963477253913879e-01" nType="0">
        <Node pos="l" depth="1" NCoef="0" IVar="-1" Cut="0.0000000000000000e+00" cType="1" res="4.3548829853534698e-03" rms="4.0898296236991882e-01" purity="5.2612686157226562e-01" nType="-99"/>
        <Node pos="r" depth="1" NCoef="0" IVar="9" Cut="-3.3051648736000061e-01" cType="0" res="-1.3932196795940399e-01" rms="3.7466093897819519e-01" purity="2.1212121844291687e-01" nType="0">
          <Node pos="l" depth="2" NCoef="0" IVar="-1" Cut="0.0000000000000000e+00" cType="1" res="-4.3287020176649094e-02" rms="3.8357153534889221e-01" purity="2.3863635957241058e-01" nType="-99"/>
          <Node pos="r" depth="2" NCoef="0" IVar="-1" Cut="0.0000000000000000e+00" cType="1" res="-4.8154038377106190e-03" rms="3.1168824434280396e-01" purity="1.2727272510528564e-01" nType="-99"/>
        </Node>
      </Node>
    </BinaryTree>
    <BinaryTree type="DecisionTree" boostWeight="1.0000000000000000e+00" itree="48">
      <Node pos="s" depth="0" NCoef="0" IVar="9" Cut="-7.0946770906448364e-01" cType="0" res="1.8025456229224801e-03" rms="4.0608149766921997e-01" purity="4.9963343143463135e-01" nType="0">
        <Node pos="l" depth="1" NCoef="0" IVar="-1" Cut="0.0000000000000000e+00" cType="1" res="4.8496765084564686e-03" rms="4.1316697001457214e-01" purity="5.7441139221191406e-01" nType="-99"/>
        <Node pos="r" depth="1" NCoef="0" IVar="6" Cut="-4.3757390975952148e-01" cType="1" res="-8.1041082739830017e-02" rms="3.5943239927291870e-01" purity="1.4675052464008331e-01" nType="0">
          <Node pos="l" depth="2" NCoef="0" IVar="-1" Cut="0.0000000000000000e+00" cType="1" res="-1.3024282641708851e-02" rms="3.5860654711723328e-01" purity="1.5384615957736969e-01" nType="-99"/>
          <Node pos="r" depth="2" NCoef="0" IVar="-1" Cut="0.0000000000000000e+00" cType="1" res="-4.1978660970926285e-02" rms="3.4402194619178772e-01" purity="1.3157895207405090e-01" nType="-99"/>
        </Node>
      </Node>
    </BinaryTree>
    <BinaryTree type="DecisionTree" boostWeight="1.0000000000000000e+00" itree="49">
      <Node pos="s" depth="0" NCoef="0" IVar="8" Cut="1.1376770734786987e+00" cType="1" res="-2.4917805567383766e-03" rms="4.1045302152633667e-01" purity="4.9528834223747253e-01" nType="0">
        <Node pos="l" depth="1" NCoef="0" IVar="-1" Cut="0.0000000000000000e+00" cType="1" res="2.7689279988408089e-02" rms="3.4165886044502258e-01" purity="8.1350481510162354e-01" nType="-99"/>
        <Node pos="r" depth="1" NCoef="0" IVar="0" Cut="3.3333332538604736e+00" cType="0" res="-1.5960453078150749e-02" rms="4.1688728332519531e-01" purity="4.5303159952163696e-01" nType="0">
          <Node pos="l" depth="2" NCoef="0" IVar="-1" Cut="0.0000000000000000e+00" cType="1" res="1.8303482647752389e-05" rms="4.2151409387588501e-01" purity="5.0776648521423340e-01" nType="-99"/>
          <Node pos="r" depth="2" NCoef="0" IVar="-1" Cut="0.0000000000000000e+00" cType="1" res="-2.1739704534411430e-02" rms="3.9187511801719666e-01" purity="2.3789474368095398e-01" nType="-99"/>
        </Node>
      </Node>
    </BinaryTree>
    <BinaryTree type="DecisionTree" boostWeight="1.0000000000000000e+00" itree="50">
      <Node pos="s" depth="0" NCoef="0" IVar="7" Cut="-5.5679807662963867e+00" cType="0" res="-1.5118251321837306e-03" rms="4.1007995605468750e-01" purity="4.9944466352462769e-01" nType="0">
        <Node pos="l" depth="1" NCoef="0" IVar="-1" Cut="0.0000000000000000e+00" cType="1" res="6.3972002826631069e-03" rms="4.1301438212394714e-01" purity="5.8624452352523804e-01" nType="-99"/>
        <Node pos="r" depth="1" NCoef="0" IVar="5" Cut="-1.2166786193847656e-01" cType="0" res="-5.6929912418127060e-02" rms="3.9817807078361511e-01" purity="3.1645569205284119e-01" nType="0">
          <Node pos="l" depth="2" NCoef="0" IVar="-1" Cut="0.0000000000000000e+00" cType="1" res="2.1195147186517715e-02" rms="4.1253802180290222e-01" purity="6.7045456171035767e-01" nType="-99"/>
          <Node pos="r" depth="2" NCoef="0" IVar="-1" Cut="0.0000000000000000e+00" cType="1" res="-1.9384438171982765e-02" rms="3.9330255985260010e-01" purity="2.7656850218772888e-01" nType="-99"/>
        </Node>
      </Node>
    </BinaryTree>
    <BinaryTree type="DecisionTree" boostWeight="1.0000000000000000e+00" itree="51">
      <Node pos="s" depth="0" NCoef="0" IVar="1" Cut="6.0231769084930420e-01" cType="0" res="9.2214830219745636e-03" rms="4.0762609243392944e-01" purity="5.1703256368637085e-01" nType="0">
        <Node pos="l" depth="1" NCoef="0" IVar="-1" Cut="0.0000000000000000e+00" cType="1" res="8.8024521246552467e-03" rms="4.0433219075202942e-01" purity="5.9593182802200317e-01" nType="-99"/>
        <Node pos="r" depth="1" NCoef="0" IVar="4" Cut="7.2871619462966919e-01" cType="0" res="-4.6460509300231934e-02" rms="4.0934941172599792e-01" purity="3.4264883399009705e-01" nType="0">
          <Node pos="l" depth="2" NCoef="0" IVar="-1" Cut="0.0000000000000000e+00" cType="1" res="7.6595144346356392e-03" rms="4.0811112523078918e-01" purity="4.8056536912918091e-01" nType="-99"/>
          <Node pos="r" depth="2" NCoef="0" IVar="-1" Cut="0.0000000000000000e+00" cType="1" res="-2.3410374298691750e-02" rms="4.0433892607688904e-01" purity="2.7037036418914795e-01" nType="-99"/>
        </Node>
      </Node>
    </BinaryTree>
    <BinaryTree type="DecisionTree" boostWeight="1.0000000000000000e+00" itree="52">
      <Node pos="s" depth="0" NCoef="0" IVar="3" Cut="8.1750136613845825e-01" cType="0" res="3.7383707240223885e-03" rms="4.0839210152626038e-01" purity="5.0282698869705200e-01" nType="0">
        <Node pos="l" depth="1" NCoef="0" IVar="-1" Cut="0.0000000000000000e+00" cType="1" res="4.6611940488219261e-03" rms="4.0852588415145874e-01" purity="5.3167808055877686e-01" nType="-99"/>
        <Node pos="r" depth="1" NCoef="0" IVar="4" Cut="5.9772849082946777e-01" cType="0" res="-1.0021828860044479e-01" rms="3.9205244183540344e-01" purity="2.9022082686424255e-01" nType="0">
          <Node pos="l" depth="2" NCoef="0" IVar="-1" Cut="0.0000000000000000e+00" cType="1" res="1.6739765182137489e-02" rms="4.4627895951271057e-01" purity="5.5555558204650879e-01" nType="-99"/>
          <Node pos="r" depth="2" NCoef="0" IVar="-1" Cut="0.0000000000000000e+00" cType="1" res="-3.3571653068065643e-02" rms="3.7560516595840454e-01" purity="2.4632352590560913e-01" nType="-99"/>
        </Node>
      </Node>
    </BinaryTree>
    <BinaryTree type="DecisionTree" boostWeight="1.0000000000000000e+00" itree="53">
      <Node pos="s" depth="0" NCoef="0" IVar="1" Cut="8.0106699466705322e-01" cType="0" res="9.0934504987671971e-04" rms="4.1095891594886780e-01" purity="4.9717938899993896e-01" nType="0">
        <Node pos="l" depth="1" NCoef="0" IVar="-1" Cut="0.0000000000000000e+00" cType="1" res="2.3060938343405724e-02" rms="3.7147465348243713e-01" purity="7.6062637567520142e-01" nType="-99"/>
        <Node pos="r" depth="1" NCoef="0" IVar="2" Cut="3.2618183135986328e+01" cType="0" res="-1.6286268830299377e-02" rms="4.1637882590293884e-01" purity="4.4394212961196899e-01" nType="0">
          <Node pos="l" depth="2" NCoef="0" IVar="-1" Cut="0.0000000000000000e+00" cType="1" res="5.7376426411792636e-04" rms="4.2232605814933777e-01" purity="5.0475627183914185e-01" nType="-99"/>
          <Node pos="r" depth="2" NCoef="0" IVar="-1" Cut="0.0000000000000000e+00" cType="1" res="-2.1214511245489120e-02" rms="3.9113932847976685e-01" purity="2.5094339251518250e-01" nType="-99"/>
        </Node>
      </Node>
    </BinaryTree>
    <BinaryTree type="DecisionTree" boostWeight="1.0000000000000000e+00" itree="54">
      <Node pos="s" depth="0" NCoef="0" IVar="9" Cut="9.0435123443603516e-01" cType="0" res="-3.1364650931209326e-03" rms="4.0701845288276672e-01" purity="4.9981194734573364e-01" nType="0">
        <Node pos="l" depth="1" NCoef="0" IVar="-1" Cut="0.0000000000000000e+00" cType="1" res="1.8592480570077896e-02" rms="3.4191519021987915e-01" purity="8.1210190057754517e-01" nType="-99"/>
        <Node pos="r" depth="1" NCoef="0" IVar="6" Cut="-4.2080278396606445e+00" cType="0" res="-2.4052187800407410e-02" rms="4.2295160889625549e-01" purity="4.0324962139129639e-01" nType="0">
          <Node pos="l" depth="2" NCoef="0" IVar="-1" Cut="0.0000000000000000e+00" cType="1" res="-3.8481727242469788e-03" rms="4.2764410376548767e-01" purity="4.2403388023376465e-01" nType="-99"/>
          <Node pos="r" depth="2" NCoef="0" IVar="-1" Cut="0.0000000000000000e+00" cType="1" res="-4.0299266576766968e-02" rms="3.3238810300827026e-01" purity="1.2676055729389191e-01" nType="-99"/>
        </Node>
      </Node>
    </BinaryTree>
    <BinaryTree type="DecisionTree" boostWeight="1.0000000000000000e+00" itree="55">
      <Node pos="s" depth="0" NCoef="0" IVar="2" Cut="6.2500442504882812e+01" cType="0" res="3.3663681242614985e-03" rms="4.0789201855659485e-01" purity="5.0847458839416504e-01" nType="0">
        <Node pos="l" depth="1" NCoef="0" IVar="-1" Cut="0.0000000000000000e+00" cType="1" res="2.5392845273017883e-02" rms="3.5658019781112671e-01" purity="7.2807019948959351e-01" nType="-99"/>
        <Node pos="r" depth="1" NCoef="0" IVar="5" Cut="2.3474644124507904e-01" cType="0" res="-1.0427619330585003e-02" rms="4.1315710544586182e-01" purity="4.7600519657135010e-01" nType="0">
          <Node pos="l" depth="2" NCoef="0" IVar="-1" Cut="0.0000000000000000e+00" cType="1" res="1.0548497550189495e-02" rms="3.9117059111595154e-01" purity="7.1107786893844604e-01" nType="-99"/>
          <Node pos="r" depth="2" NCoef="0" IVar="-1" Cut="0.0000000000000000e+00" cType="1" res="-8.0569256097078323e-03" rms="4.2006707191467285e-01" purity="3.8054710626602173e-01" nType="-99"/>
        </Node>
      </Node>
    </BinaryTree>
    <BinaryTree type="DecisionTree" boostWeight="1.0000000000000000e+00" itree="56">
      <Node pos="s" depth="0" NCoef="0" IVar="0" Cut="3.1428570747375488e+00" cType="0" res="8.1026358529925346e-03" rms="4.0079808235168457e-01" purity="5.1136362552642822e-01" nType="0">
        <Node pos="l" depth="1" NCoef="0" IVar="-1" Cut="0.0000000000000000e+00" cType="1" res="6.8168574944138527e-03" rms="4.0001267194747925e-01" purity="5.7230621576309204e-01" nType="-99"/>
        <Node pos="r" depth="1" NCoef="0" IVar="9" Cut="5.2005690336227417e-01" cType="0" res="-6.3843108713626862e-02" rms="3.9587992429733276e-01" purity="2.6526716351509094e-01" nType="0">
          <Node pos="l" depth="2" NCoef="0" IVar="-1" Cut="0.0000000000000000e+00" cType="1" res="-3.4209705889225006e-02" rms="4.2357039451599121e-01" purity="3.7500000000000000e-01" nType="-99"/>
          <Node pos="r" depth="2" NCoef="0" IVar="-1" Cut="0.0000000000000000e+00" cType="1" res="-9.6482234075665474e-03" rms="3.8025683164596558e-01" purity="2.2368420660495758e-01" nType="-99"/>
        </Node>
      </Node>
    </BinaryTree>
    <BinaryTree type="DecisionTree" boostWeight="1.0000000000000000e+00" itree="57">
      <Node pos="s" depth="0" NCoef="0" IVar="2" Cut="3.4460254669189453e+01" cType="0" res="-5.1351897418498993e-03" rms="4.0525078773498535e-01" purity="4.9416634440422058e-01" nType="0">
        <Node pos="l" depth="1" NCoef="0" IVar="-1" Cut="0.0000000000000000e+00" cType="1" res="4.8067686147987843e-03" rms="4.1056090593338013e-01" purity="5.7564574480056763e-01" nType="-99"/>
        <Node pos="r" depth="1" NCoef="0" IVar="6" Cut="3.0347004532814026e-01" cType="0" res="-6.4121507108211517e-02" rms="3.8541123270988464e-01" purity="2.9078948497772217e-01" nType="0">
          <Node pos="l" depth="2" NCoef="0" IVar="-1" Cut="0.0000000000000000e+00" cType="1" res="3.9863223209977150e-03" rms="4.3278068304061890e-01" purity="5.5747127532958984e-01" nType="-99"/>
          <Node pos="r" depth="2" NCoef="0" IVar="-1" Cut="0.0000000000000000e+00" cType="1" res="-2.5580793619155884e-02" rms="3.6680507659912109e-01" purity="2.1160408854484558e-01" nType="-99"/>
        </Node>
      </Node>
    </BinaryTree>
    <BinaryTree type="DecisionTree" boostWeight="1.0000000000000000e+00" itree="58">
      <Node pos="s" depth="0" NCoef="0" IVar="7" Cut="-5.5157556533813477e+00" cType="0" res="-7.4338186532258987e-03" rms="4.0040063858032227e-01" purity="4.9578866362571716e-01" nType="0">
        <Node pos="l" depth="1" NCoef="0" IVar="-1" Cut="0.0000000000000000e+00" cType="1" res="5.1239393651485443e-03" rms="4.0277728438377380e-01" purity="5.9021055698394775e-01" nType="-99"/>
        <Node pos="r" depth="1" NCoef="0" IVar="4" Cut="3.7098696827888489e-01" cType="0" res="-6.2552042305469513e-02" rms="3.8971993327140808e-01" purity="3.0175438523292542e-01" nType="0">
          <Node pos="l" depth="2" NCoef="0" IVar="-1" Cut="0.0000000000000000e+00" cType="1" res="-6.9338981993496418e-03" rms="4.0656903386116028e-01" purity="3.5502958297729492e-01" nType="-99"/>
          <Node pos="r" depth="2" NCoef="0" IVar="-1" Cut="0.0000000000000000e+00" cType="1" res="-3.2396167516708374e-02" rms="3.5694774985313416e-01" purity="2.2413793206214905e-01" nType="-99"/>
        </Node>
      </Node>
    </BinaryTree>
    <BinaryTree type="DecisionTree" boostWeight="1.0000000000000000e+00" itree="59">
      <Node pos="s" depth="0" NCoef="0" IVar="8" Cut="1.2375946044921875e+00" cType="1" res="-2.5934408768080175e-04" rms="4.0013632178306580e-01" purity="4.9981293082237244e-01" nType="0">
        <Node pos="l" depth="1" NCoef="0" IVar="-1" Cut="0.0000000000000000e+00" cType="1" res="2.1369630470871925e-02" rms="3.5213521122932434e-01" purity="8.0103361606597900e-01" nType="-99"/>
        <Node pos="r" depth="1" NCoef="0" IVar="3" Cut="7.2487384080886841e-01" cType="0" res="-1.2707304209470749e-02" rms="4.0638887882232666e-01" purity="4.4881889224052429e-01" nType="0">
          <Node pos="l" depth="2" NCoef="0" IVar="-1" Cut="0.0000000000000000e+00" cType="1" res="-1.8014657543972135e-03" rms="4.0835508704185486e-01" purity="4.5958220958709717e-01" nType="-99"/>
          <Node pos="r" depth="2" NCoef="0" IVar="-1" Cut="0.0000000000000000e+00" cType="1" res="-4.6520505100488663e-02" rms="3.1364494562149048e-01" purity="1.6666667163372040e-01" nType="-99"/>
        </Node>
      </Node>
    </BinaryTree>
    <BinaryTree type="DecisionTree" boostWeight="1.0000000000000000e+00" itree="60">
      <Node pos="s" depth="0" NCoef="0" IVar="8" Cut="1.0066795349121094e+00" cType="1" res="-2.4548645596951246e-03" rms="4.0579390525817871e-01" purity="5.0036710500717163e-01" nType="0">
        <Node pos="l" depth="1" NCoef="0" IVar="-1" Cut="0.0000000000000000e+00" cType="1" res="2.2355455905199051e-02" rms="3.2795491814613342e-01" purity="8.1250000000000000e-01" nType="-99"/>
        <Node pos="r" depth="1" NCoef="0" IVar="4" Cut="4.1054010391235352e-01" cType="0" res="-1.1952379718422890e-02" rms="4.1356390714645386e-01" purity="4.6115702390670776e-01" nType="0">
          <Node pos="l" depth="2" NCoef="0" IVar="-1" Cut="0.0000000000000000e+00" cType="1" res="1.9674275536090136e-03" rms="4.1711252927780151e-01" purity="5.2140074968338013e-01" nType="-99"/>
          <Node pos="r" depth="2" NCoef="0" IVar="-1" Cut="0.0000000000000000e+00" cType="1" res="-1.2323950417339802e-02" rms="4.0500688552856445e-01" purity="3.5535308718681335e-01" nType="-99"/>
        </Node>
      </Node>
    </BinaryTree>
    <BinaryTree type="DecisionTree" boostWeight="1.0000000000000000e+00" itree="61">
      <Node pos="s" depth="0" NCoef="0" IVar="3" Cut="8.7772166728973389e-01" cType="0" res="-5.7647551875561476e-04" rms="3.9921817183494568e-01" purity="5.0397276878356934e-01" nType="0">
        <Node pos="l" depth="1" NCoef="0" IVar="-1" Cut="0.0000000000000000e+00" cType="1" res="4.8491880297660828e-03" rms="3.9961242675781250e-01" purity="5.5857634544372559e-01" nType="-99"/>
        <Node pos="r" depth="1" NCoef="0" IVar="7" Cut="-5.4371705055236816e+00" cType="0" res="-6.1448980122804642e-02" rms="3.9179894328117371e-01" purity="3.2580643892288208e-01" nType="0">
          <Node pos="l" depth="2" NCoef="0" IVar="-1" Cut="0.0000000000000000e+00" cType="1" res="-3.5312648396939039e-03" rms="4.1946515440940857e-01" purity="4.3417367339134216e-01" nType="-99"/>
          <Node pos="r" depth="2" NCoef="0" IVar="-1" Cut="0.0000000000000000e+00" cType="1" res="-3.5954814404249191e-02" rms="3.3992871642112732e-01" purity="1.7870722711086273e-01" nType="-99"/>
        </Node>
      </Node>
    </BinaryTree>
    <BinaryTree type="DecisionTree" boostWeight="1.0000000000000000e+00" itree="62">
      <Node pos="s" depth="0" NCoef="0" IVar="2" Cut="3.4424316406250000e+01" cType="0" res="1.1342623271048069e-02" rms="4.0574616193771362e-01" purity="5.1460850238800049e-01" nType="0">
        <Node pos="l" depth="1" NCoef="0" IVar="-1" Cut="0.0000000000000000e+00" cType="1" res="8.3147119730710983e-03" rms="4.0418577194213867e-01" purity="5.9441709518432617e-01" nType="-99"/>
        <Node pos="r" depth="1" NCoef="0" IVar="4" Cut="3.7666833400726318e-01" cType="0" res="-3.8281157612800598e-02" rms="4.0532737970352173e-01" purity="3.1756755709648132e-01" nType="0">
          <Node pos="l" depth="2" NCoef="0" IVar="-1" Cut="0.0000000000000000e+00" cType="1" res="-3.5650385543704033e-03" rms="4.1959947347640991e-01" purity="3.7809917330741882e-01" nType="-99"/>
          <Node pos="r" depth="2" NCoef="0" IVar="-1" Cut="0.0000000000000000e+00" cType="1" res="-2.6024363934993744e-02" rms="3.7225535511970520e-01" purity="2.0312500000000000e-01" nType="-99"/>
        </Node>
      </Node>
    </BinaryTree>
    <BinaryTree type="DecisionTree" boostWeight="1.0000000000000000e+00" itree="63">
      <Node pos="s" depth="0" NCoef="0" IVar="1" Cut="6.7339408397674561e-01" cType="0" res="-1.8641896313056350e-03" rms="4.0357613563537598e-01" purity="5.0527906417846680e-01" nType="0">
        <Node pos="l" depth="1" NCoef="0" IVar="-1" Cut="0.0000000000000000e+00" cType="1" res="7.9848552122712135e-03" rms="4.0476310253143311e-01" purity="6.3154017925262451e-01" nType="-99"/>
        <Node pos="r" depth="1" NCoef="0" IVar="6" Cut="-3.4533143043518066e+00" cType="0" res="-3.5377871245145798e-02" rms="3.9959135651588440e-01" purity="3.7297296524047852e-01" nType="0">
          <Node pos="l" depth="2" NCoef="0" IVar="-1" Cut="0.0000000000000000e+00" cType="1" res="-6.2783770263195038e-03" rms="4.1114732623100281e-01" purity="4.0969163179397583e-01" nType="-99"/>
          <Node pos="r" depth="2" NCoef="0" IVar="-1" Cut="0.0000000000000000e+00" cType="1" res="-3.7564918398857117e-02" rms="2.9126679897308350e-01" purity="1.1249999701976776e-01" nType="-99"/>
        </Node>
      </Node>
    </BinaryTree>
    <BinaryTree type="DecisionTree" boostWeight="1.0000000000000000e+00" itree="64">
      <Node pos="s" depth="0" NCoef="0" IVar="9" Cut="-8.0439686775207520e-01" cType="0" res="1.9107046537101269e-03" rms="4.0121483802795410e-01" purity="5.0332593917846680e-01" nType="0">
        <Node pos="l" depth="1" NCoef="0" IVar="-1" Cut="0.0000000000000000e+00" cType="1" res="3.4496157895773649e-03" rms="4.0699425339698792e-01" purity="5.5796176195144653e-01" nType="-99"/>
        <Node pos="r" depth="1" NCoef="0" IVar="3" Cut="9.2456442117691040e-01" cType="1" res="-7.2828069329261780e-02" rms="3.5102054476737976e-01" purity="1.3675214350223541e-01" nType="0">
          <Node pos="l" depth="2" NCoef="0" IVar="-1" Cut="0.0000000000000000e+00" cType="1" res="1.5429602004587650e-02" rms="3.6175838112831116e-01" purity="1.7647059261798859e-01" nType="-99"/>
          <Node pos="r" depth="2" NCoef="0" IVar="-1" Cut="0.0000000000000000e+00" cType="1" res="-3.2070115208625793e-02" rms="3.4034833312034607e-01" purity="1.2406015396118164e-01" nType="-99"/>
        </Node>
      </Node>
    </BinaryTree>
    <BinaryTree type="DecisionTree" boostWeight="1.0000000000000000e+00" itree="65">
      <Node pos="s" depth="0" NCoef="0" IVar="9" Cut="9.0425151586532593e-01" cType="0" res="-7.8234244138002396e-03" rms="4.0142348408699036e-01" purity="4.9760764837265015e-01" nType="0">
        <Node pos="l" depth="1" NCoef="0" IVar="-1" Cut="0.0000000000000000e+00" cType="1" res="1.5352913178503513e-02" rms="3.3614212274551392e-01" purity="8.1343281269073486e-01" nType="-99"/>
        <Node pos="r" depth="1" NCoef="0" IVar="4" Cut="9.0959483385086060e-01" cType="0" res="-2.6701768860220909e-02" rms="4.1887375712394714e-01" purity="3.9423546195030212e-01" nType="0">
          <Node pos="l" depth="2" NCoef="0" IVar="-1" Cut="0.0000000000000000e+00" cType="1" res="-2.0036999136209488e-02" rms="3.9800745248794556e-01" purity="4.0051019191741943e-01" nType="-99"/>
          <Node pos="r" depth="2" NCoef="0" IVar="-1" Cut="0.0000000000000000e+00" cType="1" res="-3.7722694687545300e-03" rms="4.2270797491073608e-01" purity="3.9274924993515015e-01" nType="-99"/>
        </Node>
      </Node>
    </BinaryTree>
    <BinaryTree type="DecisionTree" boostWeight="1.0000000000000000e+00" itree="66">
      <Node pos="s" depth="0" NCoef="0" IVar="3" Cut="7.7072817087173462e-01" cType="0" res="-9.1596636921167374e-03" rms="4.0649265050888062e-01" purity="4.9337261915206909e-01" nType="0">
        <Node pos="l" depth="1" NCoef="0" IVar="-1" Cut="0.0000000000000000e+00" cType="1" res="-6.0924608260393143e-04" rms="4.0713405609130859e-01" purity="5.1418441534042358e-01" nType="-99"/>
        <Node pos="r" depth="1" NCoef="0" IVar="8" Cut="4.2000236511230469e+00" cType="0" res="-1.0763821005821228e-01" rms="3.8394904136657715e-01" purity="1.9662921130657196e-01" nType="0">
          <Node pos="l" depth="2" NCoef="0" IVar="-1" Cut="0.0000000000000000e+00" cType="1" res="1.8123006448149681e-02" rms="3.9901089668273926e-01" purity="3.1481480598449707e-01" nType="-99"/>
          <Node pos="r" depth="2" NCoef="0" IVar="-1" Cut="0.0000000000000000e+00" cType="1" res="-5.2947688847780228e-02" rms="3.5327821969985962e-01" purity="1.4516128599643707e-01" nType="-99"/>
        </Node>
      </Node>
    </BinaryTree>
    <BinaryTree type="DecisionTree" boostWeight="1.0000000000000000e+00" itree="67">
      <Node pos="s" depth="0" NCoef="0" IVar="1" Cut="5.4572117328643799e-01" cType="0" res="1.3825915753841400e-02" rms="3.9785951375961304e-01" purity="5.1864409446716309e-01" nType="0">
        <Node pos="l" depth="1" NCoef="0" IVar="-1" Cut="0.0000000000000000e+00" cType="1" res="8.3561036735773087e-03" rms="4.0067774057388306e-01" purity="5.7948720455169678e-01" nType="-99"/>
        <Node pos="r" depth="1" NCoef="0" IVar="6" Cut="1.1814907938241959e-01" cType="0" res="-5.8828625828027725e-02" rms="3.7721771001815796e-01" purity="2.6274511218070984e-01" nType="0">
          <Node pos="l" depth="2" NCoef="0" IVar="-1" Cut="0.0000000000000000e+00" cType="1" res="2.1844739094376564e-02" rms="4.6587058901786804e-01" purity="6.1176472902297974e-01" nType="-99"/>
          <Node pos="r" depth="2" NCoef="0" IVar="-1" Cut="0.0000000000000000e+00" cType="1" res="-2.6615377515554428e-02" rms="3.4983408451080322e-01" purity="1.9294117391109467e-01" nType="-99"/>
        </Node>
      </Node>
    </BinaryTree>
    <BinaryTree type="DecisionTree" boostWeight="1.0000000000000000e+00" itree="68">
      <Node pos="s" depth="0" NCoef="0" IVar="2" Cut="6.2469894409179688e+01" cType="0" res="4.2730706627480686e-04" rms="3.9635905623435974e-01" purity="5.0130939483642578e-01" nType="0">
        <Node pos="l" depth="1" NCoef="0" IVar="-1" Cut="0.0000000000000000e+00" cType="1" res="2.1795637905597687e-02" rms="3.6211505532264709e-01" purity="7.1554249525070190e-01" nType="-99"/>
        <Node pos="r" depth="1" NCoef="0" IVar="7" Cut="-2.5638933181762695e+00" cType="0" res="-1.1147667653858662e-02" rms="3.9981025457382202e-01" purity="4.6998283267021179e-01" nType="0">
          <Node pos="l" depth="2" NCoef="0" IVar="-1" Cut="0.0000000000000000e+00" cType="1" res="6.4213690347969532e-03" rms="3.9494419097900391e-01" purity="6.5642994642257690e-01" nType="-99"/>
          <Node pos="r" depth="2" NCoef="0" IVar="-1" Cut="0.0000000000000000e+00" cType="1" res="-1.0877451859414577e-02" rms="4.0149065852165222e-01" purity="3.1937983632087708e-01" nType="-99"/>
        </Node>
      </Node>
    </BinaryTree>
    <BinaryTree type="DecisionTree" boostWeight="1.0000000000000000e+00" itree="69">
      <Node pos="s" depth="0" NCoef="0" IVar="3" Cut="9.6943044662475586e-01" cType="0" res="1.4496794901788235e-03" rms="4.0057092905044556e-01" purity="5.0369006395339966e-01" nType="0">
        <Node pos="l" depth="1" NCoef="0" IVar="-1" Cut="0.0000000000000000e+00" cType="1" res="8.8971285149455070e-03" rms="3.9121079444885254e-01" purity="5.8801841735839844e-01" nType="-99"/>
        <Node pos="r" depth="1" NCoef="0" IVar="2" Cut="6.2647087097167969e+01" cType="0" res="-1.9020831212401390e-02" rms="4.0541189908981323e-01" purity="4.4738462567329407e-01" nType="0">
          <Node pos="l" depth="2" NCoef="0" IVar="-1" Cut="0.0000000000000000e+00" cType="1" res="1.6739707440137863e-02" rms="3.9724329113960266e-01" purity="6.9191920757293701e-01" nType="-99"/>
          <Node pos="r" depth="2" NCoef="0" IVar="-1" Cut="0.0000000000000000e+00" cType="1" res="-8.4093036130070686e-03" rms="4.0522339940071106e-01" purity="4.1345480084419250e-01" nType="-99"/>
        </Node>
      </Node>
    </BinaryTree>
    <BinaryTree type="DecisionTree" boostWeight="1.0000000000000000e+00" itree="70">
      <Node pos="s" depth="0" NCoef="0" IVar="9" Cut="-4.2334800958633423e-01" cType="0" res="4.8603565664961934e-04" rms="4.0068477392196655e-01" purity="5.0073748826980591e-01" nType="0">
        <Node pos="l" depth="1" NCoef="0" IVar="-1" Cut="0.0000000000000000e+00" cType="1" res="4.5723346993327141e-03" rms="4.0572264790534973e-01" purity="6.0880315303802490e-01" nType="-99"/>
        <Node pos="r" depth="1" NCoef="0" IVar="5" Cut="-4.8985607922077179e-02" cType="0" res="-4.8980668187141418e-02" rms="3.8126263022422791e-01" purity="1.8405796587467194e-01" nType="0">
          <Node pos="l" depth="2" NCoef="0" IVar="-1" Cut="0.0000000000000000e+00" cType="1" res="-3.7451334297657013e-02" rms="3.8510161638259888e-01" purity="1.9463087618350983e-01" nType="-99"/>
          <Node pos="r" depth="2" NCoef="0" IVar="-1" Cut="0.0000000000000000e+00" cType="1" res="-5.9367557987570763e-03" rms="3.7409034371376038e-01" purity="1.8114602565765381e-01" nType="-99"/>
        </Node>
      </Node>
    </BinaryTree>
    <BinaryTree type="DecisionTree" boostWeight="1.0000000000000000e+00" itree="71">
      <Node pos="s" depth="0" NCoef="0" IVar="1" Cut="5.4572117328643799e-01" cType="0" res="2.0931097678840160e-03" rms="4.0523511171340942e-01" purity="5.0510013103485107e-01" nType="0">
        <Node pos="l" depth="1" NCoef="0" IVar="-1" Cut="0.0000000000000000e+00" cType="1" res="4.6397619880735874e-03" rms="4.0686658024787903e-01" purity="5.6509435176849365e-01" nType="-99"/>
        <Node pos="r" depth="1" NCoef="0" IVar="9" Cut="7.1002167463302612e-01" cType="0" res="-5.8622714132070541e-02" rms="3.9278855919837952e-01" purity="2.6375710964202881e-01" nType="0">
          <Node pos="l" depth="2" NCoef="0" IVar="-1" Cut="0.0000000000000000e+00" cType="1" res="-5.4583121091127396e-02" rms="4.1175484657287598e-01" purity="3.7168142199516296e-01" nType="-99"/>
          <Node pos="r" depth="2" NCoef="0" IVar="-1" Cut="0.0000000000000000e+00" cType="1" res="-4.7834813594818115e-03" rms="3.7588945031166077e-01" purity="2.3429951071739197e-01" nType="-99"/>
        </Node>
      </Node>
    </BinaryTree>
    <BinaryTree type="DecisionTree" boostWeight="1.0000000000000000e+00" itree="72">
      <Node pos="s" depth="0" NCoef="0" IVar="0" Cut="3.1428570747375488e+00" cType="0" res="-7.7049462124705315e-03" rms="4.0112102031707764e-01" purity="4.9172931909561157e-01" nType="0">
        <Node pos="l" depth="1" NCoef="0" IVar="-1" Cut="0.0000000000000000e+00" cType="1" res="1.7441704403609037e-03" rms="4.0633466839790344e-01" purity="5.5518710613250732e-01" nType="-99"/>
        <Node pos="r" depth="1" NCoef="0" IVar="1" Cut="8.0275183916091919e-01" cType="0" res="-6.1992652714252472e-02" rms="3.7549573183059692e-01" purity="2.4772313237190247e-01" nType="0">
          <Node pos="l" depth="2" NCoef="0" IVar="-1" Cut="0.0000000000000000e+00" cType="1" res="7.5471857562661171e-03" rms="4.4008147716522217e-01" purity="5.4545456171035767e-01" nType="-99"/>
          <Node pos="r" depth="2" NCoef="0" IVar="-1" Cut="0.0000000000000000e+00" cType="1" res="-2.2525068372488022e-02" rms="3.6391890048980713e-01" purity="2.0703934133052826e-01" nType="-99"/>
        </Node>
      </Node>
    </BinaryTree>
    <BinaryTree type="DecisionTree" boostWeight="1.0000000000000000e+00" itree="73">
      <Node pos="s" depth="0" NCoef="0" IVar="3" Cut="7.7072817087173462e-01" cType="0" res="8.2744024693965912e-03" rms="3.9939662814140320e-01" purity="5.1290684938430786e-01" nType="0">
        <Node pos="l" depth="1" NCoef="0" IVar="-1" Cut="0.0000000000000000e+00" cType="1" res="4.6206130646169186e-03" rms="4.0051129460334778e-01" purity="5.3605771064758301e-01" nType="-99"/>
        <Node pos="r" depth="1" NCoef="0" IVar="6" Cut="-7.6597619056701660e-01" cType="0" res="-1.1079165339469910e-01" rms="3.6299061775207520e-01" purity="1.8644067645072937e-01" nType="0">
          <Node pos="l" depth="2" NCoef="0" IVar="-1" Cut="0.0000000000000000e+00" cType="1" res="-5.9031341224908829e-02" rms="4.1737914085388184e-01" purity="2.3809523880481720e-01" nType="-99"/>
          <Node pos="r" depth="2" NCoef="0" IVar="-1" Cut="0.0000000000000000e+00" cType="1" res="-2.3483725264668465e-02" rms="3.3360242843627930e-01" purity="1.7037037014961243e-01" nType="-99"/>
        </Node>
      </Node>
    </BinaryTree>
    <BinaryTree type="DecisionTree" boostWeight="1.0000000000000000e+00" itree="74">
      <Node pos="s" depth="0" NCoef="0" IVar="7" Cut="-2.1719751358032227e+00" cType="0" res="-5.5520371533930302e-03" rms="3.9724111557006836e-01" purity="5.0686454772949219e-01" nType="0">
        <Node pos="l" depth="1" NCoef="0" IVar="-1" Cut="0.0000000000000000e+00" cType="1" res="7.3521747253835201e-03" rms="3.8250130414962769e-01" purity="7.0313900709152222e-01" nType="-99"/>
        <Node pos="r" depth="1" NCoef="0" IVar="1" Cut="8.5837215185165405e-01" cType="0" res="-2.7748435735702515e-02" rms="4.0585765242576599e-01" purity="3.6835443973541260e-01" nType="0">
          <Node pos="l" depth="2" NCoef="0" IVar="-1" Cut="0.0000000000000000e+00" cType="1" res="2.4008857086300850e-02" rms="3.6906278133392334e-01" purity="7.5342464447021484e-01" nType="-99"/>
          <Node pos="r" depth="2" NCoef="0" IVar="-1" Cut="0.0000000000000000e+00" cType="1" res="-9.2142419889569283e-03" rms="4.0662413835525513e-01" purity="3.4970140457153320e-01" nType="-99"/>
        </Node>
      </Node>
    </BinaryTree>
    <BinaryTree type="DecisionTree" boostWeight="1.0000000000000000e+00" itree="75">
      <Node pos="s" depth="0" NCoef="0" IVar="9" Cut="9.0427470207214355e-01" cType="0" res="-6.3649490475654602e-03" rms="3.9481258392333984e-01" purity="4.9282297492027283e-01" nType="0">
        <Node pos="l" depth="1" NCoef="0" IVar="-1" Cut="0.0000000000000000e+00" cType="1" res="1.4254421927034855e-02" rms="3.2200989127159119e-01" purity="8.1632655858993530e-01" nType="-99"/>
        <Node pos="r" depth="1" NCoef="0" IVar="2" Cut="7.6454811096191406e+01" cType="0" res="-2.1964093670248985e-02" rms="4.1330525279045105e-01" purity="3.9375001192092896e-01" nType="0">
          <Node pos="l" depth="2" NCoef="0" IVar="-1" Cut="0.0000000000000000e+00" cType="1" res="2.7240345254540443e-02" rms="4.1839689016342163e-01" purity="6.8041235208511353e-01" nType="-99"/>
          <Node pos="r" depth="2" NCoef="0" IVar="-1" Cut="0.0000000000000000e+00" cType="1" res="-7.7190124429762363e-03" rms="4.1196933388710022e-01" purity="3.7972769141197205e-01" nType="-99"/>
        </Node>
      </Node>
    </BinaryTree>
    <BinaryTree type="DecisionTree" boostWeight="1.0000000000000000e+00" itree="76">
      <Node pos="s" depth="0" NCoef="0" IVar="0" Cut="5.2380952835083008e+00" cType="0" res="-1.1846560053527355e-02" rms="3.9854288101196289e-01" purity="4.9278044700622559e-01" nType="0">
        <Node pos="l" depth="1" NCoef="0" IVar="-1" Cut="0.0000000000000000e+00" cType="1" res="1.1390458792448044e-02" rms="3.8495045900344849e-01" purity="7.0637583732604980e-01" nType="-99"/>
        <Node pos="r" depth="1" NCoef="0" IVar="1" Cut="8.0106699466705322e-01" cType="0" res="-2.6501558721065521e-02" rms="4.0109646320343018e-01" purity="4.3230402469635010e-01" nType="0">
          <Node pos="l" depth="2" NCoef="0" IVar="-1" Cut="0.0000000000000000e+00" cType="1" res="1.5339878387749195e-02" rms="3.6578306555747986e-01" purity="7.3900294303894043e-01" nType="-99"/>
          <Node pos="r" depth="2" NCoef="0" IVar="-1" Cut="0.0000000000000000e+00" cType="1" res="-1.1630539782345295e-02" rms="4.0575280785560608e-01" purity="3.7301588058471680e-01" nType="-99"/>
        </Node>
      </Node>
    </BinaryTree>
    <BinaryTree type="DecisionTree" boostWeight="1.0000000000000000e+00" itree="77">
      <Node pos="s" depth="0" NCoef="0" IVar="6" Cut="-4.3857655525207520e+00" cType="0" res="2.9019201174378395e-03" rms="3.9906540513038635e-01" purity="5.0037395954132080e-01" nType="0">
        <Node pos="l" depth="1" NCoef="0" IVar="-1" Cut="0.0000000000000000e+00" cType="1" res="3.1843041069805622e-03" rms="4.0196481347084045e-01" purity="5.2344989776611328e-01" nType="-99"/>
        <Node pos="r" depth="1" NCoef="0" IVar="9" Cut="3.2302591204643250e-01" cType="0" res="-1.3091717660427094e-01" rms="3.2130578160285950e-01" purity="1.3291139900684357e-01" nType="0">
          <Node pos="l" depth="2" NCoef="0" IVar="-1" Cut="0.0000000000000000e+00" cType="1" res="-5.5225219577550888e-02" rms="3.1684786081314087e-01" purity="1.3725490868091583e-01" nType="-99"/>
          <Node pos="r" depth="2" NCoef="0" IVar="-1" Cut="0.0000000000000000e+00" cType="1" res="-2.8115330263972282e-02" rms="3.1387922167778015e-01" purity="1.3084112107753754e-01" nType="-99"/>
        </Node>
      </Node>
    </BinaryTree>
    <BinaryTree type="DecisionTree" boostWeight="1.0000000000000000e+00" itree="78">
      <Node pos="s" depth="0" NCoef="0" IVar="4" Cut="3.6669021844863892e-01" cType="0" res="-5.1210257224738598e-03" rms="4.0031570196151733e-01" purity="4.9641102552413940e-01" nType="0">
        <Node pos="l" depth="1" NCoef="0" IVar="-1" Cut="0.0000000000000000e+00" cType="1" res="3.3632416743785143e-03" rms="3.9737793803215027e-01" purity="5.4718035459518433e-01" nType="-99"/>
        <Node pos="r" depth="1" NCoef="0" IVar="3" Cut="9.5437788963317871e-01" cType="0" res="-4.0736366063356400e-02" rms="4.0408056974411011e-01" purity="3.9018690586090088e-01" nType="0">
          <Node pos="l" depth="2" NCoef="0" IVar="-1" Cut="0.0000000000000000e+00" cType="1" res="6.9653945975005627e-03" rms="4.1424834728240967e-01" purity="5.3082191944122314e-01" nType="-99"/>
          <Node pos="r" depth="2" NCoef="0" IVar="-1" Cut="0.0000000000000000e+00" cType="1" res="-2.1389504894614220e-02" rms="3.9432433247566223e-01" purity="3.1737589836120605e-01" nType="-99"/>
        </Node>
      </Node>
    </BinaryTree>
    <BinaryTree type="DecisionTree" boostWeight="1.0000000000000000e+00" itree="79">
      <Node pos="s" depth="0" NCoef="0" IVar="2" Cut="3.2623657226562500e+01" cType="0" res="1.3685113517567515e-03" rms="3.9820730686187744e-01" purity="5.1037347316741943e-01" nType="0">
        <Node pos="l" depth="1" NCoef="0" IVar="-1" Cut="0.0000000000000000e+00" cType="1" res="3.7456061691045761e-03" rms="4.0276825428009033e-01" purity="5.7177031040191650e-01" nType="-99"/>
        <Node pos="r" depth="1" NCoef="0" IVar="9" Cut="1.4394965767860413e-01" cType="0" res="-4.4103518128395081e-02" rms="3.7727484107017517e-01" purity="2.8163993358612061e-01" nType="0">
          <Node pos="l" depth="2" NCoef="0" IVar="-1" Cut="0.0000000000000000e+00" cType="1" res="-2.2852927446365356e-02" rms="3.9863505959510803e-01" purity="4.0650406479835510e-01" nType="-99"/>
          <Node pos="r" depth="2" NCoef="0" IVar="-1" Cut="0.0000000000000000e+00" cType="1" res="-2.8985454700887203e-03" rms="3.5556706786155701e-01" purity="1.8412698805332184e-01" nType="-99"/>
        </Node>
      </Node>
    </BinaryTree>
    <BinaryTree type="DecisionTree" boostWeight="1.0000000000000000e+00" itree="80">
      <Node pos="s" depth="0" NCoef="0" IVar="8" Cut="1.2375946044921875e+00" cType="1" res="-5.9502949006855488e-03" rms="4.0023365616798401e-01" purity="4.9373617768287659e-01" nType="0">
        <Node pos="l" depth="1" NCoef="0" IVar="-1" Cut="0.0000000000000000e+00" cType="1" res="1.6557831317186356e-02" rms="3.3605694770812988e-01" purity="8.1382977962493896e-01" nType="-99"/>
        <Node pos="r" depth="1" NCoef="0" IVar="8" Cut="1.5747956037521362e+00" cType="1" res="-1.5081956982612610e-02" rms="4.0888181328773499e-01" purity="4.4225832819938660e-01" nType="0">
          <Node pos="l" depth="2" NCoef="0" IVar="-1" Cut="0.0000000000000000e+00" cType="1" res="-2.7759399265050888e-02" rms="4.4155484437942505e-01" purity="5.7738095521926880e-01" nType="-99"/>
          <Node pos="r" depth="2" NCoef="0" IVar="-1" Cut="0.0000000000000000e+00" cType="1" res="-2.3917078506201506e-03" rms="4.0552747249603271e-01" purity="4.3179723620414734e-01" nType="-99"/>
        </Node>
      </Node>
    </BinaryTree>
    <BinaryTree type="DecisionTree" boostWeight="1.0000000000000000e+00" itree="81">
      <Node pos="s" depth="0" NCoef="0" IVar="3" Cut="8.9300650358200073e-01" cType="0" res="-1.0720354039222002e-03" rms="3.9572000503540039e-01" purity="4.9796673655509949e-01" nType="0">
        <Node pos="l" depth="1" NCoef="0" IVar="-1" Cut="0.0000000000000000e+00" cType="1" res="3.7124035879969597e-03" rms="3.9780816435813904e-01" purity="5.5583757162094116e-01" nType="-99"/>
        <Node pos="r" depth="1" NCoef="0" IVar="9" Cut="-1.4004142582416534e-01" cType="0" res="-3.9453957229852676e-02" rms="3.8746646046638489e-01" purity="3.4285715222358704e-01" nType="0">
          <Node pos="l" depth="2" NCoef="0" IVar="-1" Cut="0.0000000000000000e+00" cType="1" res="-1.7903044819831848e-02" rms="3.9914682507514954e-01" purity="4.0417456626892090e-01" nType="-99"/>
          <Node pos="r" depth="2" NCoef="0" IVar="-1" Cut="0.0000000000000000e+00" cType="1" res="1.4380314387381077e-02" rms="3.4556296467781067e-01" purity="1.8750000000000000e-01" nType="-99"/>
        </Node>
      </Node>
    </BinaryTree>
    <BinaryTree type="DecisionTree" boostWeight="1.0000000000000000e+00" itree="82">
      <Node pos="s" depth="0" NCoef="0" IVar="2" Cut="5.3171192169189453e+01" cType="0" res="-3.4145966637879610e-03" rms="4.0076649188995361e-01" purity="4.9345454573631287e-01" nType="0">
        <Node pos="l" depth="1" NCoef="0" IVar="-1" Cut="0.0000000000000000e+00" cType="1" res="1.1307039298117161e-02" rms="3.6799609661102295e-01" purity="6.7579907178878784e-01" nType="-99"/>
        <Node pos="r" depth="1" NCoef="0" IVar="4" Cut="6.8410348892211914e-01" cType="0" res="-1.6890518367290497e-02" rms="4.0958726406097412e-01" purity="4.3621596693992615e-01" nType="0">
          <Node pos="l" depth="2" NCoef="0" IVar="-1" Cut="0.0000000000000000e+00" cType="1" res="1.3672069180756807e-03" rms="4.1274362802505493e-01" purity="5.2332198619842529e-01" nType="-99"/>
          <Node pos="r" depth="2" NCoef="0" IVar="-1" Cut="0.0000000000000000e+00" cType="1" res="-9.2698158696293831e-03" rms="4.0655818581581116e-01" purity="3.7314662337303162e-01" nType="-99"/>
        </Node>
      </Node>
    </BinaryTree>
    <BinaryTree type="DecisionTree" boostWeight="1.0000000000000000e+00" itree="83">
      <Node pos="s" depth="0" NCoef="0" IVar="9" Cut="4.2950579524040222e-01" cType="0" res="-1.8857793183997273e-03" rms="3.9650478959083557e-01" purity="4.9424859881401062e-01" nType="0">
        <Node pos="l" depth="1" NCoef="0" IVar="-1" Cut="0.0000000000000000e+00" cType="1" res="5.5008307099342346e-03" rms="3.7709301710128784e-01" purity="7.0241689682006836e-01" nType="-99"/>
        <Node pos="r" depth="1" NCoef="0" IVar="8" Cut="3.5953223705291748e+00" cType="1" res="-2.2319635376334190e-02" rms="4.1336208581924438e-01" purity="2.9321661591529846e-01" nType="0">
          <Node pos="l" depth="2" NCoef="0" IVar="-1" Cut="0.0000000000000000e+00" cType="1" res="-1.2791598215699196e-02" rms="4.2087164521217346e-01" purity="3.1746032834053040e-01" nType="-99"/>
          <Node pos="r" depth="2" NCoef="0" IVar="-1" Cut="0.0000000000000000e+00" cType="1" res="3.2078828662633896e-03" rms="4.0153563022613525e-01" purity="2.6341462135314941e-01" nType="-99"/>
        </Node>
      </Node>
    </BinaryTree>
    <BinaryTree type="DecisionTree" boostWeight="1.0000000000000000e+00" itree="84">
      <Node pos="s" depth="0" NCoef="0" IVar="9" Cut="-5.1937550306320190e-01" cType="0" res="1.1805311776697636e-02" rms="4.0206643939018250e-01" purity="5.0901579856872559e-01" nType="0">
        <Node pos="l" depth="1" NCoef="0" IVar="-1" Cut="0.0000000000000000e+00" cType="1" res="6.3085323199629784e-03" rms="4.0670311450958252e-01" purity="6.0839504003524780e-01" nType="-99"/>
        <Node pos="r" depth="1" NCoef="0" IVar="5" Cut="-6.7691391706466675e-01" cType="0" res="-2.5198716670274734e-02" rms="3.8462486863136292e-01" purity="1.9309261441230774e-01" nType="0">
          <Node pos="l" depth="2" NCoef="0" IVar="-1" Cut="0.0000000000000000e+00" cType="1" res="-2.0566647872328758e-02" rms="4.0320292115211487e-01" purity="2.2268907725811005e-01" nType="-99"/>
          <Node pos="r" depth="2" NCoef="0" IVar="-1" Cut="0.0000000000000000e+00" cType="1" res="3.3379227388650179e-03" rms="3.6897951364517212e-01" purity="1.7543859779834747e-01" nType="-99"/>
        </Node>
      </Node>
    </BinaryTree>
    <BinaryTree type="DecisionTree" boostWeight="1.0000000000000000e+00" itree="85">
      <Node pos="s" depth="0" NCoef="0" IVar="9" Cut="9.0423601865768433e-01" cType="0" res="6.8456935696303844e-04" rms="3.9666894078254700e-01" purity="5.0553506612777710e-01" nType="0">
        <Node pos="l" depth="1" NCoef="0" IVar="-1" Cut="0.0000000000000000e+00" cType="1" res="1.5626536682248116e-02" rms="3.2539138197898865e-01" purity="8.2763975858688354e-01" nType="-99"/>
